{"learner":{"attributes":{"best_iteration":"99","best_ntree_limit":"100","scikit_learn":"{\"use_label_encoder\": false, \"n_estimators\": 100, \"objective\": \"binary:logistic\", \"max_depth\": null, \"max_leaves\": null, \"max_bin\": null, \"grow_policy\": null, \"learning_rate\": null, \"verbosity\": null, \"booster\": null, \"tree_method\": null, \"gamma\": null, \"min_child_weight\": null, \"max_delta_step\": null, \"subsample\": null, \"sampling_method\": null, \"colsample_bytree\": null, \"colsample_bylevel\": null, \"colsample_bynode\": null, \"reg_alpha\": null, \"reg_lambda\": null, \"scale_pos_weight\": null, \"base_score\": null, \"missing\": NaN, \"num_parallel_tree\": null, \"random_state\": null, \"n_jobs\": null, \"monotone_constraints\": null, \"interaction_constraints\": null, \"importance_type\": null, \"gpu_id\": null, \"validate_parameters\": null, \"predictor\": null, \"enable_categorical\": false, \"max_cat_to_onehot\": null, \"eval_metric\": null, \"early_stopping_rounds\": null, \"callbacks\": null, \"classes_\": [0.0, 1.0], \"n_classes_\": 2, \"_estimator_type\": \"classifier\"}"},"feature_names":[],"feature_types":[],"gradient_booster":{"model":{"gbtree_model_param":{"num_parallel_tree":"1","num_trees":"100","size_leaf_vector":"0"},"tree_info":[0,0,0,0,0,0,0,0,0,0,0,0,0,0,0,0,0,0,0,0,0,0,0,0,0,0,0,0,0,0,0,0,0,0,0,0,0,0,0,0,0,0,0,0,0,0,0,0,0,0,0,0,0,0,0,0,0,0,0,0,0,0,0,0,0,0,0,0,0,0,0,0,0,0,0,0,0,0,0,0,0,0,0,0,0,0,0,0,0,0,0,0,0,0,0,0,0,0,0,0],"trees":[{"base_weights":[3.54067E-1,1.849624E0,7.072136E-2,1.8181819E-1,1.9365079E0,2.730159E-1,-1.5061729E0,-1.5384616E-1,1.3519553E0,6.666667E-1,-1.7808219E0,4.7244094E-2,-1.1282052E0,1.5641025E0,-7.4074075E-2,-0E0,1E0,-1.8787879E0,-5.4545456E-1,-1.4444444E0,2.0057307E-1,-1.5076923E0,5.882353E-1,-1E0,1.6578947E0,-1.1428572E0,8.235294E-1,-1.75E0,5E-1,-1.3103448E0,3.3333334E-1,-1.7142857E0,-1.5384616E-1,1.3846154E0,-1E0,-0E0,1.75E0,1.3846154E0,-5E-1],"categories":[],"categories_nodes":[],"categories_segments":[],"categories_sizes":[],"default_left":[1,1,1,0,0,1,1,1,1,1,1,1,1,1,1,0,0,0,0,1,1,1,1,0,1,0,1,0,0,0,0,0,0,0,0,0,0,0,0],"id":0,"left_children":[1,3,5,-1,-1,7,9,11,13,15,17,19,21,23,25,-1,-1,-1,-1,27,29,31,33,-1,35,-1,37,-1,-1,-1,-1,-1,-1,-1,-1,-1,-1,-1,-1],"loss_changes":[8.843494E1,4.4660187E0,5.6793934E1,0E0,0E0,7.274592E1,1.3271774E1,2.2340803E1,1.3653999E1,6.666666E-1,1.1838913E0,2.2075209E1,1.3588537E1,1.1037109E1,7.4167447E0,0E0,0E0,0E0,0E0,6.2222214E0,1.7938248E1,4.2813187E0,6.760181E0,0E0,5.802635E0,0E0,3.8484163E0,0E0,0E0,0E0,0E0,0E0,0E0,0E0,0E0,0E0,0E0,0E0,0E0],"parents":[2147483647,0,0,1,1,2,2,5,5,6,6,7,7,8,8,9,9,10,10,11,11,12,12,13,13,14,14,19,19,20,20,21,21,22,22,24,24,26,26],"right_children":[2,4,6,-1,-1,8,10,12,14,16,18,20,22,24,26,-1,-1,-1,-1,28,30,32,34,-1,36,-1,38,-1,-1,-1,-1,-1,-1,-1,-1,-1,-1,-1,-1],"split_conditions":[1.605E2,1.04895525E-1,9.405E2,5.454546E-2,5.809524E-1,7.315E2,9.48226E-1,3.6745674E1,2.8264722E3,9.073722E0,1.4762111E0,1.0200329E2,1.3234158E1,1.1083359E-1,1.145354E0,-0E0,3E-1,-5.6363636E-1,-1.6363637E-1,5.773129E-1,-1.2105682E1,2.0898442E0,3.6942098E0,-3E-1,1.4036772E0,-3.4285718E-1,2.6277337E0,-5.2500004E-1,1.5E-1,-3.9310345E-1,1.0000001E-1,-5.1428574E-1,-4.615385E-2,4.1538465E-1,-3E-1,-0E0,5.2500004E-1,4.1538465E-1,-1.5E-1],"split_indices":[0,77,0,0,0,0,8,141,202,1,10,150,128,73,132,0,0,0,0,47,170,170,18,0,216,0,20,0,0,0,0,0,0,0,0,0,0,0,0],"split_type":[0,0,0,0,0,0,0,0,0,0,0,0,0,0,0,0,0,0,0,0,0,0,0,0,0,0,0,0,0,0,0,0,0,0,0,0,0,0,0],"sum_hessian":[2.08E2,3.225E1,1.7575E2,1.75E0,3.05E1,1.565E2,1.925E1,1.1275E2,4.375E1,2E0,1.725E1,9.425E1,1.85E1,3.8E1,5.75E0,1E0,1E0,1.55E1,1.75E0,8E0,8.625E1,1.525E1,3.25E0,1E0,3.7E1,2.5E0,3.25E0,7E0,1E0,6.25E0,8E1,1.3E1,2.25E0,2.25E0,1E0,2E0,3.5E1,2.25E0,1E0],"tree_param":{"num_deleted":"0","num_feature":"225","num_nodes":"39","size_leaf_vector":"0"}},{"base_weights":[2.5607666E-1,1.5136284E0,5.4411512E-2,2.0151608E-1,-1.1549991E0,-9.939564E-2,1.0156193E0,5.7163376E-1,-1.3885494E0,-1.9792618E-1,1.519488E0,1.1816276E0,-6.428105E-2,-1.4667875E0,-4.4343472E-1,-9.125329E-1,3.608593E-2,-6.9681585E-1,1.2648414E0,-7.97822E-1,9.7528726E-1,3.7889066E-1,-1.2132626E0,1.8954109E-1,-1.0704218E0,1.3506457E0,-1.4984034E-1,1.6452359E-1,-1.2110306E0],"categories":[],"categories_nodes":[],"categories_segments":[],"categories_sizes":[],"default_left":[1,0,1,1,1,1,1,0,1,1,0,1,1,0,0,1,1,0,1,1,0,0,0,0,0,0,0,0,0],"id":1,"left_children":[1,-1,3,5,7,9,11,-1,13,15,-1,17,19,-1,-1,21,23,-1,25,27,-1,-1,-1,-1,-1,-1,-1,-1,-1],"loss_changes":[5.0896973E1,0E0,3.123806E1,3.8372604E1,8.474754E0,1.8640697E1,7.650345E0,0E0,6.1177444E-1,1.8305035E1,0E0,6.6137657E0,5.7942724E0,0E0,0E0,1.0942732E1,1.4342601E1,0E0,4.508213E0,1.9515691E0,0E0,0E0,0E0,0E0,0E0,0E0,0E0,0E0,0E0],"parents":[2147483647,0,0,2,2,3,3,4,4,5,5,6,6,8,8,9,9,11,11,12,12,15,15,16,16,18,18,19,19],"right_children":[2,-1,4,6,8,10,12,-1,14,16,-1,18,20,-1,-1,22,24,-1,26,28,-1,-1,-1,-1,-1,-1,-1,-1,-1],"split_conditions":[1.455E2,4.5408854E-1,9.405E2,7.315E2,9.48226E-1,9.449108E-1,2.8264722E3,1.7149013E-1,1.4762111E0,3.5831141E0,4.558464E-1,9.4049074E-2,5.848338E-1,-4.4003627E-1,-1.3303041E-1,-2.1530715E-1,6.59E2,-2.0904477E-1,4.5341274E1,-1.8021245E-3,2.9258618E-1,1.13667205E-1,-3.6397877E-1,5.686233E-2,-3.2112655E-1,4.0519372E-1,-4.4952102E-2,4.935708E-2,-3.633092E-1],"split_indices":[0,0,0,0,8,151,202,0,10,216,0,90,162,0,0,95,0,0,178,91,0,0,0,0,0,0,0,0,0],"split_type":[0,0,0,0,0,0,0,0,0,0,0,0,0,0,0,0,0,0,0,0,0,0,0,0,0,0,0,0,0],"sum_hessian":[2.0001917E2,2.674375E1,1.732754E2,1.552279E2,1.80475E1,1.1397717E2,4.125074E1,1.9778333E0,1.6069668E1,1.0826552E2,5.7116537E0,3.567273E1,5.5780106E0,1.433133E1,1.7383372E0,2.5992445E1,8.227307E1,1.2004449E0,3.4472282E1,3.4067101E0,2.1713004E0,4.8604226E0,2.113202E1,7.298053E1,9.292544E0,3.2543686E1,1.9285982E0,1.2041453E0,2.2025647E0],"tree_param":{"num_deleted":"0","num_feature":"225","num_nodes":"29","size_leaf_vector":"0"}},{"base_weights":[1.9781348E-1,1.3050357E0,3.9045773E-2,1.5169646E-1,-9.6598583E-1,-7.287192E-2,8.1812936E-1,4.647618E-1,-1.1836504E0,-9.112345E-1,6.185221E-2,-1.5976188E-1,9.77695E-1,-4.312633E-1,-1.2871865E0,-1.1957406E0,8.717219E-1,1.9981799E-1,-9.227756E-1,9.629474E-1,-1.0415572E0,-5.3411555E-1,1.1151011E0,-7.9402375E-1,1.6486834E-1,-1.4100395E0,3.6596733E-1,2.4637133E-2,1.4588194E0,3.7063634E-1,-1.3540708E0,-1.4692777E0,4.8058707E-2,-1.1063334E0,3.9410457E-1,1.2053803E0,-4.2140096E-1],"categories":[],"categories_nodes":[],"categories_segments":[],"categories_sizes":[],"default_left":[1,0,1,1,1,1,1,0,1,1,1,1,1,1,0,1,0,1,1,0,1,1,1,0,0,0,0,0,0,0,0,0,0,0,0,0,0],"id":2,"left_children":[1,-1,3,5,7,9,11,-1,13,15,17,19,21,23,-1,25,-1,27,29,-1,31,33,35,-1,-1,-1,-1,-1,-1,-1,-1,-1,-1,-1,-1,-1,-1],"loss_changes":[3.3015045E1,0E0,1.8888527E1,2.2466572E1,5.788375E0,1.2808401E1,6.0571003E0,0E0,6.04126E-1,9.00378E0,1.3525351E1,7.1059527E0,7.3785515E0,8.4540075E-1,0E0,5.186968E0,0E0,1.9143276E1,7.334092E0,0E0,1.9036655E0,2.240101E0,4.7048683E0,0E0,0E0,0E0,0E0,0E0,0E0,0E0,0E0,0E0,0E0,0E0,0E0,0E0,0E0],"parents":[2147483647,0,0,2,2,3,3,4,4,5,5,6,6,8,8,9,9,10,10,11,11,12,12,13,13,15,15,17,17,18,18,20,20,21,21,22,22],"right_children":[2,-1,4,6,8,10,12,-1,14,16,18,20,22,24,-1,26,-1,28,30,-1,32,34,36,-1,-1,-1,-1,-1,-1,-1,-1,-1,-1,-1,-1,-1,-1],"split_conditions":[1.455E2,3.9151073E-1,9.405E2,7.315E2,9.48226E-1,5.8966475E0,2.1201348E0,1.3942854E-1,2.069509E0,7.3831074E3,6.59E2,4.1355047E0,1.308031E-1,1.5363253E1,-3.8615596E-1,1.9216754E0,2.615166E-1,6.065E2,1.3935633E0,2.8888425E-1,2.2981909E-1,9.445516E-3,3.2685555E1,-2.3820713E-1,4.9460504E-2,-4.2301187E-1,1.09790206E-1,7.3911403E-3,4.3764582E-1,1.1119091E-1,-4.0622124E-1,-4.4078335E-1,1.4417613E-2,-3.3190003E-1,1.1823138E-1,3.616141E-1,-1.2642029E-1],"split_indices":[0,0,0,0,8,159,111,0,194,202,0,33,77,4,0,212,0,0,148,0,161,203,201,0,0,0,0,0,0,0,0,0,0,0,0,0,0],"split_type":[0,0,0,0,0,0,0,0,0,0,0,0,0,0,0,0,0,0,0,0,0,0,0,0,0,0,0,0,0,0,0,0,0,0,0,0,0],"sum_hessian":[1.8709824E2,2.2558544E1,1.6453969E2,1.487193E2,1.5820394E1,1.1190219E2,3.681711E1,1.939104E0,1.38812895E1,1.4694903E1,9.720729E1,5.164635E0,3.1652473E1,2.303961E0,1.1577328E1,1.2956747E1,1.7381566E0,8.59597E1,1.1247586E1,2.2314737E0,2.9331615E0,2.3966115E0,2.9255861E1,1.225969E0,1.077992E0,1.1478741E1,1.4780062E0,7.635503E1,9.604675E0,2.847839E0,8.399748E0,1.8561195E0,1.0770421E0,1.363915E0,1.0326965E0,2.7835833E1,1.4200287E0],"tree_param":{"num_deleted":"0","num_feature":"225","num_nodes":"37","size_leaf_vector":"0"}},{"base_weights":[1.5408412E-1,1.1051254E0,1.4758818E-2,1.2189325E0,-1.8294735E-1,-3.4125552E-1,3.0111605E-1,4.150382E-1,-6.371748E-1,-3.544347E-1,4.949601E-1,-1.0647696E0,7.218027E-1,-9.3648875E-1,1.6379468E-1,1.1262915E0,-5.6465685E-1,-4.930417E-2,7.6517487E-1,-3.3187824E-1,-1.2474438E0,-4.0820736E-1,1.1257044E0,-1.387212E0,-4.734735E-1,-9.9221504E-1,6.099896E-1,2.4749447E-1,-9.50582E-1,-8.543417E-1,5.6617E-1,-7.2390735E-1,9.06686E-1,-1.1443332E0,6.8591666E-1,-5.5253893E-1,1.3440562E0,4.5938864E-2,-1.5467019E0,4.2501935E-1,-8.3752626E-1,1.0621842E0,-4.5145893E-1,8.807922E-1,-9.1126484E-1,3.3370787E-1,-1.2167648E0,4.2311636E-1,-1.3473184E0,-5.1582694E-1,8.943386E-1,-1.4391264E0,8.032471E-1,-7.6055104E-1,9.7796255E-1],"categories":[],"categories_nodes":[],"categories_segments":[],"categories_sizes":[],"default_left":[1,1,1,0,0,1,1,1,1,1,1,1,1,1,1,0,1,1,1,0,0,1,1,1,1,0,1,1,1,1,1,1,1,0,0,0,0,0,0,0,0,0,0,0,0,0,0,0,0,0,0,0,0,0,0],"id":3,"left_children":[1,3,5,-1,-1,7,9,11,13,15,17,19,21,23,25,-1,27,29,31,-1,-1,33,35,37,39,-1,41,43,45,47,49,51,53,-1,-1,-1,-1,-1,-1,-1,-1,-1,-1,-1,-1,-1,-1,-1,-1,-1,-1,-1,-1,-1,-1],"loss_changes":[2.3080849E1,3.4861145E0,1.5706083E1,0E0,0E0,1.5638942E1,1.1022013E1,9.813799E0,1.208564E1,6.8809547E0,9.787443E0,9.813833E-2,8.264268E0,6.9355507E0,8.027996E0,0E0,5.9503655E0,1.1846723E1,1.0004068E1,0E0,0E0,5.002552E0,5.4564724E0,4.166374E0,6.722561E0,0E0,5.7604194E0,5.6951427E0,4.702176E0,7.078647E0,5.2897797E0,5.9682865E0,5.610626E0,0E0,0E0,0E0,0E0,0E0,0E0,0E0,0E0,0E0,0E0,0E0,0E0,0E0,0E0,0E0,0E0,0E0,0E0,0E0,0E0,0E0,0E0],"parents":[2147483647,0,0,1,1,2,2,5,5,6,6,7,7,8,8,9,9,10,10,11,11,12,12,13,13,14,14,16,16,17,17,18,18,21,21,22,22,23,23,24,24,26,26,27,27,28,28,29,29,30,30,31,31,32,32],"right_children":[2,4,6,-1,-1,8,10,12,14,16,18,20,22,24,26,-1,28,30,32,-1,-1,34,36,38,40,-1,42,44,46,48,50,52,54,-1,-1,-1,-1,-1,-1,-1,-1,-1,-1,-1,-1,-1,-1,-1,-1,-1,-1,-1,-1,-1,-1],"split_conditions":[1.605E2,2.8277317E1,7.2456455E0,3.6567977E-1,-5.4884207E-2,5.588627E0,2.4854574E0,-2.7963961E-3,5.624534E-1,-1.3523891E0,2.8606248E0,5.5759754E0,-1.7810008E-1,2.6416439E-3,3.2830863E0,3.3788747E-1,-1.7440367E-2,2.0222775E2,-1.5440571E0,-9.956348E-2,-3.7423316E-1,1.1180866E0,8.036471E-3,6.292336E-1,8.231156E0,-2.9766452E-1,2.047163E1,1.3553653E1,2.978798E-2,-8.7742746E-1,-3.1344302E-4,1.5594909E-1,1.885E2,-3.4329998E-1,2.0577501E-1,-1.6576168E-1,4.032169E-1,1.378166E-2,-4.640106E-1,1.2750581E-1,-2.512579E-1,3.1865528E-1,-1.3543768E-1,2.6423767E-1,-2.7337947E-1,1.0011236E-1,-3.6502945E-1,1.2693492E-1,-4.0419555E-1,-1.5474808E-1,2.683016E-1,-4.3173793E-1,2.4097414E-1,-2.2816531E-1,2.9338878E-1],"split_indices":[0,218,146,0,0,133,147,197,204,59,203,3,191,52,21,0,184,158,58,0,0,128,18,36,41,0,12,179,69,10,18,210,0,0,0,0,0,0,0,0,0,0,0,0,0,0,0,0,0,0,0,0,0,0,0],"split_type":[0,0,0,0,0,0,0,0,0,0,0,0,0,0,0,0,0,0,0,0,0,0,0,0,0,0,0,0,0,0,0,0,0,0,0,0,0,0,0,0,0,0,0,0,0,0,0,0,0,0,0,0,0,0,0],"sum_hessian":[1.7331276E2,2.1259869E1,1.5205289E2,1.9583275E1,1.6765941E0,6.769687E1,8.435602E1,1.8925531E1,4.877134E1,1.9062185E1,6.529383E1,2.825341E0,1.6100191E1,3.5380733E1,1.3390606E1,1.828101E0,1.7234085E1,2.1933369E1,4.3360462E1,1.1257186E0,1.6996223E0,4.2366114E0,1.1863579E1,1.6916899E1,1.8463835E1,3.3883312E0,1.00022745E1,5.6669984E0,1.1567086E1,9.335054E0,1.2598314E1,3.4058714E0,3.9954594E1,2.5052147E0,1.7313967E0,1.1896306E0,1.0673948E1,1.7653862E0,1.5151513E1,5.275725E0,1.318811E1,7.01365E0,2.9886243E0,3.8194401E0,1.8475584E0,1.9422683E0,9.624818E0,2.6388013E0,6.6962533E0,2.7987592E0,9.799555E0,2.3588042E0,1.0470674E0,1.2416067E0,3.8712986E1],"tree_param":{"num_deleted":"0","num_feature":"225","num_nodes":"55","size_leaf_vector":"0"}},{"base_weights":[1.1564421E-1,1.1009413E0,9.276482E-3,9.603363E-2,-8.563387E-1,-5.9570674E-2,6.272109E-1,-1.2310499E0,-6.931257E-2,-6.1136925E-1,1.09595396E-1,1.1497612E0,3.3469546E-1,-8.1468874E-1,6.735363E-1,-9.3720126E-1,5.345885E-1,5.709092E-1,-1.2310929E-1,-3.5042334E-1,1.01765E0,8.905834E-1,1.4081113E-1,1.9908619E-1,-1.1595932E0,1.0472391E0,-6.0632914E-1,-8.60662E-1,7.422232E-1,1.3027543E-1,-9.4557446E-1,-1.1237364E0,6.504073E-1,-7.534298E-2,1.1546292E0],"categories":[],"categories_nodes":[],"categories_segments":[],"categories_sizes":[],"default_left":[1,0,1,1,1,1,1,0,1,1,1,0,1,0,1,1,1,1,1,1,1,0,0,0,0,0,0,0,0,0,0,0,0,0,0],"id":4,"left_children":[1,-1,3,5,7,9,11,-1,13,15,17,-1,19,-1,21,23,25,27,29,31,33,-1,-1,-1,-1,-1,-1,-1,-1,-1,-1,-1,-1,-1,-1],"loss_changes":[1.6757866E1,0E0,1.1002591E1,1.1035787E1,3.8509378E0,9.759167E0,4.236827E0,0E0,3.5192235E0,9.654574E0,8.692221E0,0E0,1.0086772E1,0E0,2.4857569E-1,5.1460953E0,4.1817408E0,7.2868547E0,1.1420298E1,9.341134E0,1.6845036E0,0E0,0E0,0E0,0E0,0E0,0E0,0E0,0E0,0E0,0E0,0E0,0E0,0E0,0E0],"parents":[2147483647,0,0,2,2,3,3,4,4,5,5,6,6,8,8,9,9,10,10,12,12,14,14,15,15,16,16,17,17,18,18,19,19,20,20],"right_children":[2,-1,4,6,8,10,12,-1,14,16,18,-1,20,-1,22,24,26,28,30,32,34,-1,-1,-1,-1,-1,-1,-1,-1,-1,-1,-1,-1,-1,-1],"split_conditions":[1.455E2,3.302824E-1,9.405E2,7.315E2,3.8779188E5,4.063718E0,8.05E2,-3.6931497E-1,5.786881E-1,1.953938E1,9.023542E-3,3.4492838E-1,8.715E2,-2.4440663E-1,4.408209E0,5.8636605E-3,1.7971517E-1,1.22541485E1,4.080921E0,1.9917005E0,-3.8182628E-1,2.6717502E-1,4.224334E-2,5.972586E-2,-3.4787798E-1,3.1417173E-1,-1.8189874E-1,-2.5819862E-1,2.2266696E-1,3.908263E-2,-2.8367236E-1,-3.3712092E-1,1.951222E-1,-2.2602895E-2,3.463888E-1],"split_indices":[0,0,0,0,192,21,0,0,10,131,71,0,0,0,99,214,95,22,136,24,99,0,0,0,0,0,0,0,0,0,0,0,0,0,0],"split_type":[0,0,0,0,0,0,0,0,0,0,0,0,0,0,0,0,0,0,0,0,0,0,0,0,0,0,0,0,0,0,0,0,0,0,0],"sum_hessian":[1.5899493E2,1.4580809E1,1.4441412E2,1.3206667E2,1.2347457E1,1.0283097E2,2.9235691E1,7.9826546E0,4.3648024E0,2.3514755E1,7.9316216E1,9.440523E0,1.9795168E1,2.1304228E0,2.2343793E0,1.8450783E1,5.0639725E0,2.6107445E1,5.320877E1,1.0124992E1,9.6701765E0,1.110273E0,1.1241063E0,3.0372221E0,1.5413561E1,3.5506577E0,1.513315E0,2.3602576E0,2.3747187E1,4.13204E1,1.1888368E1,5.642438E0,4.482554E0,1.1270576E0,8.5431185E0],"tree_param":{"num_deleted":"0","num_feature":"225","num_nodes":"35","size_leaf_vector":"0"}},{"base_weights":[9.339345E-2,1.0363324E0,6.6974685E-3,-5.1545005E-2,9.9030745E-1,-5.338545E-1,9.641991E-2,1.2118436E0,-2.2943081E-1,-7.3971385E-1,3.1741172E-1,-1.8309228E-1,4.2997944E-1,-1.231492E0,-1.9213942E-1,-7.949197E-1,9.218142E-1,1.519998E-1,-5.7493E-1,-9.292405E-1,5.5171037E-1,-1.3222499E0,-1.0882444E-1,-5.564463E-1,5.7877874E-1,-5.0023194E-2,1.2031661E0,-6.3246846E-1,4.2146108E-1,5.4334223E-1,-8.4877235E-1,-1.0886525E0,-2.2498791E-1,-4.6968047E-2,8.4640616E-1],"categories":[],"categories_nodes":[],"categories_segments":[],"categories_sizes":[],"default_left":[1,0,1,1,1,1,1,0,0,1,1,1,1,1,1,0,1,1,1,1,1,0,0,0,0,0,0,0,0,0,0,0,0,0,0],"id":5,"left_children":[1,-1,3,5,7,9,11,-1,-1,13,15,17,19,21,23,-1,25,27,29,31,33,-1,-1,-1,-1,-1,-1,-1,-1,-1,-1,-1,-1,-1,-1],"loss_changes":[1.205855E1,0E0,7.851995E0,9.293884E0,2.3483806E0,5.5896215E0,9.397675E0,0E0,0E0,6.470379E0,5.2036986E0,7.3199244E0,8.102113E0,1.1742706E0,3.9645984E0,0E0,1.3649759E0,6.710072E0,8.300911E0,2.2017074E-1,7.577839E0,0E0,0E0,0E0,0E0,0E0,0E0,0E0,0E0,0E0,0E0,0E0,0E0,0E0,0E0],"parents":[2147483647,0,0,2,2,3,3,4,4,5,5,6,6,9,9,10,10,11,11,12,12,13,13,14,14,16,16,17,17,18,18,19,19,20,20],"right_children":[2,-1,4,6,8,10,12,-1,-1,14,16,18,20,22,24,-1,26,28,30,32,34,-1,-1,-1,-1,-1,-1,-1,-1,-1,-1,-1,-1,-1,-1],"split_conditions":[1.455E2,3.1089973E-1,8.708764E-2,3.5831141E0,1.668988E1,1.277169E1,9.478555E-2,3.635531E-1,-6.8829246E-2,2.5887828E0,-9.735191E-2,3.1310216E-1,-8.339497E0,4.6166695E1,3.5297334E-2,-2.3847593E-1,-9.636091E-1,3.6266904E0,-6.858808E-1,7.525E2,8.0264435E1,-3.96675E-1,-3.2647334E-2,-1.669339E-1,1.7363364E-1,-1.50069585E-2,3.6094984E-1,-1.8974055E-1,1.2643833E-1,1.6300267E-1,-2.5463173E-1,-3.2659575E-1,-6.7496374E-2,-1.4090414E-2,2.5392187E-1],"split_indices":[0,0,31,216,140,146,105,0,0,221,59,185,170,179,151,0,44,152,209,0,167,0,0,0,0,0,0,0,0,0,0,0,0,0,0],"split_type":[0,0,0,0,0,0,0,0,0,0,0,0,0,0,0,0,0,0,0,0,0,0,0,0,0,0,0,0,0,0,0,0,0,0,0],"sum_hessian":[1.4659187E2,1.14208355E1,1.3517104E2,1.2850922E2,6.661817E0,2.9556911E1,9.89523E1,5.6433167E0,1.0185004E0,2.3906672E1,5.6502414E0,5.4083317E1,4.4868988E1,1.1937011E1,1.196966E1,1.8782777E0,3.7719638E0,2.948252E1,2.4600798E1,3.142868E0,4.172612E1,1.0879707E1,1.0573041E0,8.317382E0,3.6522782E0,1.0314307E0,2.7405334E0,7.193451E0,2.2289068E1,4.6456227E0,1.9955173E1,2.1176894E0,1.0251789E0,1.4041418E1,2.7684704E1],"tree_param":{"num_deleted":"0","num_feature":"225","num_nodes":"35","size_leaf_vector":"0"}},{"base_weights":[7.218356E-2,9.827872E-1,2.220317E-3,7.022846E-2,-7.339116E-1,-3.1214935E-1,2.228101E-1,4.5394883E-1,-9.26991E-1,-1.1494265E0,2.572083E-1,2.9366875E-1,-1.0873451E0,1.0423666E-3,-1.0356025E0,-1.4973338E0,-1.78105E-1,5.624896E-1,-8.4524524E-1,-1.9551446E-1,4.9184343E-1,-2.9923958E-1,-1.2277766E0,-2.2655487E-1,-1.1104484E0,5.8842057E-1,-9.619909E-1,1.1225218E0,3.3263236E-2,-1.148702E0,1.665903E-1,-7.782165E-1,2.661202E-1,-7.199277E-1,5.980927E-1],"categories":[],"categories_nodes":[],"categories_segments":[],"categories_sizes":[],"default_left":[1,0,1,1,1,1,1,0,1,1,1,1,1,0,1,0,1,1,1,1,1,0,0,0,0,0,0,0,0,0,0,0,0,0,0],"id":6,"left_children":[1,-1,3,5,7,9,11,-1,13,15,17,19,21,-1,23,-1,25,27,29,31,33,-1,-1,-1,-1,-1,-1,-1,-1,-1,-1,-1,-1,-1,-1],"loss_changes":[8.836121E0,0E0,6.5513988E0,7.057156E0,2.959197E0,1.6778498E1,8.32081E0,0E0,9.9380684E-1,4.524534E0,7.677161E0,8.099327E0,1.4557457E-1,0E0,2.823906E-1,0E0,3.4947302E0,5.107336E0,1.7388763E0,6.8021183E0,8.0316515E0,0E0,0E0,0E0,0E0,0E0,0E0,0E0,0E0,0E0,0E0,0E0,0E0,0E0,0E0],"parents":[2147483647,0,0,2,2,3,3,4,4,5,5,6,6,8,8,9,9,10,10,11,11,12,12,14,14,16,16,17,17,18,18,19,19,20,20],"right_children":[2,-1,4,6,8,10,12,-1,14,16,18,20,22,-1,24,-1,26,28,30,32,34,-1,-1,-1,-1,-1,-1,-1,-1,-1,-1,-1,-1,-1,-1],"split_conditions":[1.455E2,2.9483616E-1,9.405E2,3.385E2,-7.897121E-1,1.721372E0,5.8706387E3,1.3618465E-1,-2.445918E-1,1.1912979E-1,1.4734019E3,1.9271545E-2,3.1509875E2,3.1271E-4,-8.8685286E-1,-4.4920015E-1,3.2878674E2,-7.499072E-5,8.946144E0,-6.045284E-3,4.1950912E0,-8.9771874E-2,-3.68333E-1,-6.796646E-2,-3.3313453E-1,1.7652617E-1,-2.885973E-1,3.3675653E-1,9.978971E-3,-3.4461063E-1,4.9977094E-2,-2.3346496E-1,7.983606E-2,-2.1597832E-1,1.794278E-1],"split_indices":[0,0,0,0,42,90,149,0,173,184,207,197,22,0,20,0,115,165,194,153,159,0,0,0,0,0,0,0,0,0,0,0,0,0,0],"split_type":[0,0,0,0,0,0,0,0,0,0,0,0,0,0,0,0,0,0,0,0,0,0,0,0,0,0,0,0,0,0,0,0,0,0,0],"sum_hessian":[1.3772974E2,8.896072E0,1.2883366E2,1.1876597E2,1.0067692E1,3.3576263E1,8.5189705E1,1.2187314E0,8.848961E0,1.3178143E1,2.039812E1,8.155474E1,3.6349664E0,1.0308914E0,7.818069E0,9.304072E0,3.8740695E0,1.6358154E1,4.0399666E0,2.3517218E1,5.803752E1,1.0232596E0,2.6117067E0,1.003006E0,6.815063E0,2.0847974E0,1.7892722E0,7.403084E0,8.9550705E0,3.0038307E0,1.0361362E0,1.009232E1,1.3424897E1,4.2129583E0,5.3824562E1],"tree_param":{"num_deleted":"0","num_feature":"225","num_nodes":"35","size_leaf_vector":"0"}},{"base_weights":[4.478877E-2,9.345279E-1,-1.3111731E-2,4.3851694E-1,-1.1621388E-1,-8.472705E-2,7.3593205E-1,-3.0677205E-1,2.1738604E-1,-6.032312E-1,7.540065E-1,-5.8112067E-1,9.0265036E-1,3.7935117E-1,-4.2796388E-1,-4.8605725E-1,4.6579686E-1,-9.1707283E-1,3.3658648E-1,1.3226779E-1,9.196198E-1,1.0388347E0,-1.8395333E-1,-7.451628E-1,7.0100945E-1,-9.272978E-1,-2.1985483E-1,2.94959E-1,-1.093356E0,6.127428E-2,9.105634E-1,-7.0483215E-2,-1.1582373E0,2.8607303E-1,1.2504393E0,-4.5704657E-1,9.319144E-1,-1.1260183E0,1.3337786E-1,-4.4819787E-1,4.284899E-1,8.671483E-1,-7.544439E-1,-1.656879E-1,-1.2507443E0,-3.5667518E-1,7.4270195E-1,1.162738E0,-4.7242576E-1],"categories":[],"categories_nodes":[],"categories_segments":[],"categories_sizes":[],"default_left":[1,0,1,1,1,1,1,1,1,1,1,0,1,1,1,1,1,1,0,0,0,1,0,0,1,1,1,1,1,1,1,0,0,0,0,0,0,0,0,0,0,0,0,0,0,0,0,0,0],"id":7,"left_children":[1,-1,3,5,7,9,11,13,15,17,19,-1,21,23,25,27,29,31,-1,-1,-1,33,-1,-1,35,37,39,41,43,45,47,-1,-1,-1,-1,-1,-1,-1,-1,-1,-1,-1,-1,-1,-1,-1,-1,-1,-1],"loss_changes":[6.6803417E0,0E0,5.75569E0,3.6385036E0,6.4576597E0,4.466633E0,3.7644072E0,5.517335E0,6.7153997E0,2.1539867E0,2.8700757E-1,0E0,2.1871433E0,4.210927E0,5.5324917E0,5.1512423E0,4.97363E0,9.307394E-1,0E0,0E0,0E0,1.5755491E0,0E0,0E0,2.6840482E0,3.5074654E0,6.1544037E0,3.8011425E0,6.599846E-1,4.739557E0,5.1677017E0,0E0,0E0,0E0,0E0,0E0,0E0,0E0,0E0,0E0,0E0,0E0,0E0,0E0,0E0,0E0,0E0,0E0,0E0],"parents":[2147483647,0,0,2,2,3,3,4,4,5,5,6,6,7,7,8,8,9,9,10,10,12,12,13,13,14,14,15,15,16,16,17,17,21,21,24,24,25,25,26,26,27,27,28,28,29,29,30,30],"right_children":[2,-1,4,6,8,10,12,14,16,18,20,-1,22,24,26,28,30,32,-1,-1,-1,34,-1,-1,36,38,40,42,44,46,48,-1,-1,-1,-1,-1,-1,-1,-1,-1,-1,-1,-1,-1,-1,-1,-1,-1,-1],"split_conditions":[1.455E2,2.8035837E-1,-1.0168068E0,3.200656E-3,1.1033641E1,4.0198046E-1,6.5349966E-1,3.0588225E-1,5.6614237E0,2.08591E1,2.1825798E0,-1.7433621E-1,4.248954E1,2.9663656E0,4.155E2,5.2812004E1,4.532253E-1,1.7543716E0,1.00975946E-1,3.968034E-2,2.7588594E-1,3.754332E0,-5.5186E-2,-2.2354884E-1,3.6763418E-1,6.9724274E-1,3.5293624E-2,2.1715523E-1,1.9852259E0,2.0169426E1,8.574894E-1,-2.1144966E-2,-3.474712E-1,8.582191E-2,3.7513182E-1,-1.3711397E-1,2.7957433E-1,-3.378055E-1,4.001336E-2,-1.3445936E-1,1.2854697E-1,2.601445E-1,-2.2633317E-1,-4.9706373E-2,-3.752233E-1,-1.0700256E-1,2.228106E-1,3.488214E-1,-1.4172773E-1],"split_indices":[0,0,208,172,152,106,81,104,146,181,216,0,52,148,0,198,62,133,0,0,0,21,0,0,83,186,101,91,111,3,186,0,0,0,0,0,0,0,0,0,0,0,0,0,0,0,0,0,0],"split_type":[0,0,0,0,0,0,0,0,0,0,0,0,0,0,0,0,0,0,0,0,0,0,0,0,0,0,0,0,0,0,0,0,0,0,0,0,0,0,0,0,0,0,0,0,0,0,0,0,0],"sum_hessian":[1.2843637E2,6.92236E0,1.2151401E2,2.1979923E1,9.953409E1,8.224913E0,1.3755011E1,6.3399555E1,3.613453E1,5.2562733E0,2.9686391E0,1.2662398E0,1.24887705E1,9.197585E0,5.4201973E1,9.180568E0,2.6953962E1,3.958558E0,1.2977153E0,1.0027627E0,1.9658763E0,1.1136938E1,1.3518332E0,1.752886E0,7.444699E0,1.4928035E1,3.9273937E1,4.240887E0,4.9396806E0,1.4711435E1,1.2242527E1,1.1641521E0,2.794406E0,2.9597726E0,8.177165E0,1.074815E0,6.369884E0,1.2520651E1,2.4073834E0,2.9272903E1,1.0001033E1,2.8568552E0,1.384032E0,1.014255E0,3.9254253E0,9.413996E0,5.2974396E0,1.0489183E1,1.7533432E0],"tree_param":{"num_deleted":"0","num_feature":"225","num_nodes":"49","size_leaf_vector":"0"}},{"base_weights":[3.9117895E-2,9.6712E-2,-6.583347E-1,3.843291E-2,8.7409097E-1,-1.0058761E0,-9.217722E-3,1.0299187E-1,-7.1689093E-1,1.0403663E-2,1.002396E0,-6.756884E-1,5.900402E-1,1.583162E-1,-8.244998E-1,-1.0088195E0,1.2885961E-1,5.9202373E-1,8.880046E-3,2.2951265E-1,-1.1167315E0,-1.2063895E0,-1.7232384E-1,-2.9871663E-1,5.0026375E-1,-3.7986177E-1,7.96413E-1,1.1021479E-1,-7.9653233E-1],"categories":[],"categories_nodes":[],"categories_segments":[],"categories_sizes":[],"default_left":[1,1,1,1,1,0,1,1,1,0,0,0,0,1,1,1,1,1,1,0,0,0,0,0,0,0,0,0,0],"id":8,"left_children":[1,3,5,7,9,-1,11,13,15,-1,-1,-1,-1,17,19,21,23,25,27,-1,-1,-1,-1,-1,-1,-1,-1,-1,-1],"loss_changes":[4.907193E0,5.052E0,2.0945492E0,5.216859E0,8.519974E-1,0E0,2.1005416E0,5.1612167E0,2.2114768E0,0E0,0E0,0E0,0E0,6.0455265E0,2.0057995E0,8.465934E-1,6.337884E-1,5.051894E0,5.8376985E0,0E0,0E0,0E0,0E0,0E0,0E0,0E0,0E0,0E0,0E0],"parents":[2147483647,0,0,1,1,2,2,3,3,4,4,6,6,7,7,8,8,13,13,14,14,15,15,16,16,17,17,18,18],"right_children":[2,4,6,8,10,-1,12,14,16,-1,-1,-1,-1,18,20,22,24,26,28,-1,-1,-1,-1,-1,-1,-1,-1,-1,-1],"split_conditions":[9.405E2,8.715E2,3.8779188E5,4.1820282E1,5.739074E-1,-3.0176282E-1,5.786881E-1,2.8884922E1,1.1393837E3,3.121099E-3,3.007188E-1,-2.0270653E-1,1.7701207E-1,1.8590774E-2,-8.0433086E-2,6.0968613E1,1.7927863E2,-8.2932913E-1,6.561604E1,6.8853796E-2,-3.3501947E-1,-3.6191687E-1,-5.1697154E-2,-8.9614995E-2,1.5007913E-1,-1.1395854E-1,2.389239E-1,3.306444E-2,-2.3895971E-1],"split_indices":[0,0,192,111,136,0,10,51,22,0,0,0,0,16,87,144,33,20,220,0,0,0,0,0,0,0,0,0,0],"split_type":[0,0,0,0,0,0,0,0,0,0,0,0,0,0,0,0,0,0,0,0,0,0,0,0,0,0,0,0,0],"sum_hessian":[1.1957819E2,1.1125253E2,8.325655E0,1.0446999E2,6.782541E0,5.0644884E0,3.2611668E0,9.703949E1,7.430503E0,1.0170875E0,5.7654533E0,1.4836116E0,1.7775552E0,9.2359604E1,4.679888E0,5.380501E0,2.0500023E0,2.2909063E1,6.945054E1,1.0624601E0,3.6174276E0,3.9947865E0,1.385714E0,1.0439142E0,1.0060883E0,3.831498E0,1.9077564E1,6.2455696E1,6.994845E0],"tree_param":{"num_deleted":"0","num_feature":"225","num_nodes":"29","size_leaf_vector":"0"}},{"base_weights":[2.23106E-2,7.499679E-1,-3.399591E-2,9.482513E-1,-3.1188333E-1,-7.4942863E-1,2.6494617E-2,-1.0075182E0,4.988097E-1,8.53029E-2,-7.606747E-1,-1.1185558E0,-2.3107448E-1,5.5524325E-1,-1.426191E-2,-1.067775E0,4.334822E-1,8.421967E-1,-4.612449E-1,5.514898E-1,-1.34132E-1,-1.1689152E-1,1.005776E0,-1.0050274E0,6.560109E-1,-4.5411035E-1,7.208776E-1,-2.4902268E-1,5.2580523E-1],"categories":[],"categories_nodes":[],"categories_segments":[],"categories_sizes":[],"default_left":[1,1,1,0,0,1,1,1,0,1,1,0,0,1,1,0,0,1,1,1,1,0,0,0,0,0,0,0,0],"id":9,"left_children":[1,3,5,-1,-1,7,9,11,-1,13,15,-1,-1,17,19,-1,-1,21,23,25,27,-1,-1,-1,-1,-1,-1,-1,-1],"loss_changes":[4.7375126E0,2.0440125E0,4.680898E0,0E0,0E0,3.2185369E0,4.706696E0,3.7238455E-1,0E0,4.415535E0,3.0560808E0,0E0,0E0,5.199477E0,5.411623E0,0E0,0E0,2.191083E0,3.2579422E0,2.7046256E0,5.116199E0,0E0,0E0,0E0,0E0,0E0,0E0,0E0,0E0],"parents":[2147483647,0,0,1,1,2,2,5,5,6,6,7,7,9,9,10,10,13,13,14,14,17,17,18,18,19,19,20,20],"right_children":[2,4,6,-1,-1,8,10,12,-1,14,16,-1,-1,18,20,-1,-1,22,24,26,28,-1,-1,-1,-1,-1,-1,-1,-1],"split_conditions":[1.605E2,2.8277317E1,1.2019558E0,2.8447542E-1,-9.3565E-2,8.777436E-1,4.1920642E2,5.6685326E1,1.4964291E-1,-3.9689985E-1,1.2818821E1,-3.3556676E-1,-6.932235E-2,4.5426266E4,-1.7234778E-3,-3.2033253E-1,1.3004467E-1,2.1630712E0,6.1061844E-2,-2.9826572E-2,2.7317902E1,-3.5067458E-2,3.0173284E-1,-3.0150825E-1,1.9680329E-1,-1.362331E-1,2.1626328E-1,-7.470681E-2,1.5774158E-1],"split_indices":[0,218,82,0,0,10,130,73,0,30,146,0,0,57,16,0,0,179,63,224,152,0,0,0,0,0,0,0,0],"split_type":[0,0,0,0,0,0,0,0,0,0,0,0,0,0,0,0,0,0,0,0,0,0,0,0,0,0,0,0,0],"sum_hessian":[1.1400622E2,7.303438E0,1.0670278E2,6.244384E0,1.0590543E0,7.4305925E0,9.9272194E1,6.317264E0,1.1133288E0,9.320092E1,6.0712724E0,5.14139E0,1.1758739E0,1.5493895E1,7.770702E1,4.913504E0,1.1577682E0,1.2216621E1,3.2772737E0,1.2956308E1,6.475072E1,1.8216214E0,1.03949995E1,2.2719412E0,1.0053325E0,1.6254791E0,1.133083E1,5.5679874E1,9.070839E0],"tree_param":{"num_deleted":"0","num_feature":"225","num_nodes":"29","size_leaf_vector":"0"}},{"base_weights":[1.9214256E-2,-2.2837434E-2,8.0592835E-1,6.860327E-2,-4.459104E-1,9.6363896E-1,5.281286E-2,-3.5316727E-1,1.807002E-1,-6.8188196E-1,2.0114492E-1,-5.2468747E-1,5.7819295E-1,-2.4969977E-1,3.8770238E-1,-8.122249E-1,4.40649E-1,-5.4478747E-1,7.927078E-1,5.993749E-1,-6.4664114E-1,9.0500075E-1,-9.003165E-2,4.456494E-1,-5.2592766E-1,4.9437597E-1,-6.5188694E-1,-1.1020986E0,-3.942502E-2,-5.7381526E-2,-7.6279795E-1,3.282353E-1,-8.006193E-1,8.6118793E-1,-5.6007576E-1,-7.34825E-1,3.421195E-1,5.998724E-1,-4.9672627E-1,3.7441045E-1,-1.0421891E0,-1.5078074E-1,-1.2026283E0,4.4682997E-1,-6.7515457E-1],"categories":[],"categories_nodes":[],"categories_segments":[],"categories_sizes":[],"default_left":[1,1,1,1,1,0,0,1,1,1,1,1,1,1,1,1,0,1,0,0,1,0,0,1,1,1,1,1,1,0,0,0,0,0,0,0,0,0,0,0,0,0,0,0,0],"id":10,"left_children":[1,3,5,7,9,-1,-1,11,13,15,17,19,21,23,25,27,-1,29,-1,-1,31,-1,-1,33,35,37,39,41,43,-1,-1,-1,-1,-1,-1,-1,-1,-1,-1,-1,-1,-1,-1,-1,-1],"loss_changes":[3.6175818E0,4.0634494E0,6.080375E-1,4.1575108E0,2.9863138E0,0E0,0E0,3.261722E0,6.250209E0,2.3918724E0,2.9730058E0,2.6032815E0,8.1432545E-1,4.6594486E0,5.5375648E0,2.82547E0,0E0,2.898566E-1,0E0,0E0,2.5237765E0,0E0,0E0,3.4459064E0,3.324438E0,4.817008E0,2.3160667E0,7.058153E-1,1.7021856E0,0E0,0E0,0E0,0E0,0E0,0E0,0E0,0E0,0E0,0E0,0E0,0E0,0E0,0E0,0E0,0E0],"parents":[2147483647,0,0,1,1,2,2,3,3,4,4,7,7,8,8,9,9,10,10,11,11,12,12,13,13,14,14,15,15,17,17,20,20,23,23,24,24,25,25,26,26,27,27,28,28],"right_children":[2,4,6,8,10,-1,-1,12,14,16,18,20,22,24,26,28,-1,30,-1,-1,32,-1,-1,34,36,38,40,42,44,-1,-1,-1,-1,-1,-1,-1,-1,-1,-1,-1,-1,-1,-1,-1,-1],"split_conditions":[8.708764E-2,6.381263E1,2.0495367E0,3.5831141E0,5.4646775E-2,2.890917E-1,1.5843859E-2,2.1437378E0,1.5401314E0,1.4250107E0,8.815746E0,1.72E2,2.5034642E-1,-8.479414E-6,7.4487944E3,7.688694E-1,1.3219471E-1,5.865208E-1,2.3781236E-1,1.7981248E-1,-5.210347E-1,2.7150023E-1,-2.7009496E-2,1.4786163E1,5.0141535E0,1.0932987E0,-4.170255E-1,1.7018431E-1,5.2539443E3,-1.7214458E-2,-2.288394E-1,9.847059E-2,-2.401858E-1,2.583564E-1,-1.6802274E-1,-2.2044751E-1,1.0263585E-1,1.7996173E-1,-1.4901789E-1,1.1232314E-1,-3.1265676E-1,-4.5234222E-2,-3.607885E-1,1.34049E-1,-2.0254637E-1],"split_indices":[31,220,28,216,63,0,0,10,34,222,146,0,173,89,115,29,0,199,0,0,95,0,0,223,47,205,162,38,57,0,0,0,0,0,0,0,0,0,0,0,0,0,0,0,0],"split_type":[0,0,0,0,0,0,0,0,0,0,0,0,0,0,0,0,0,0,0,0,0,0,0,0,0,0,0,0,0,0,0,0,0,0,0,0,0,0,0,0,0,0,0,0,0],"sum_hessian":[1.0779345E2,1.032457E2,4.5477505E0,8.558555E1,1.7660152E1,3.5291677E0,1.0185828E0,1.7518967E1,6.806658E1,1.2901384E1,4.758769E0,1.516315E1,2.3558168E0,2.2038258E1,4.6028324E1,1.1806862E1,1.0945221E0,2.1397357E0,2.619033E0,1.1009327E0,1.4062217E1,1.3441155E0,1.0117013E0,6.091292E0,1.5946965E1,4.2220478E1,3.8078468E0,8.276336E0,3.530526E0,1.0516864E0,1.0880494E0,1.7637503E0,1.2298467E1,4.4120617E0,1.6792306E0,1.2977401E1,2.969565E0,3.851549E1,3.704983E0,1.0603579E0,2.7474887E0,1.0299284E0,7.2464075E0,2.1687992E0,1.3617268E0],"tree_param":{"num_deleted":"0","num_feature":"225","num_nodes":"45","size_leaf_vector":"0"}},{"base_weights":[1.4378808E-2,-6.2532806E-1,6.67428E-2,-8.6561626E-1,2.595161E-1,1.2570132E-1,-4.7203186E-1,-1.0467131E0,3.4154397E-2,-1.7047997E-1,2.45938E-1,-7.207069E-1,6.480463E-1,4.444522E-1,-4.0919116E-1,-1.5715031E-1,3.8963643E-1,3.1285383E-2,-9.900137E-1,-1.760352E-1,9.6714634E-1,-7.179505E-1,5.0868068E-2,-5.048238E-1,3.0164486E-1,6.384307E-2,5.98158E-1,-4.8925263E-1,5.286935E-1,4.2685112E-1,-8.049135E-1,3.1499304E-2,-9.055001E-1,-5.474758E-1,5.253352E-1,5.127911E-2,-9.1928774E-1,8.5460174E-1,-4.5848817E-1,-4.101421E-1,5.326239E-1,-1.3281074E-1,7.49272E-1],"categories":[],"categories_nodes":[],"categories_segments":[],"categories_sizes":[],"default_left":[1,1,1,1,0,1,1,0,0,1,1,1,0,1,1,1,1,1,0,1,0,1,1,1,1,1,1,0,0,0,0,0,0,0,0,0,0,0,0,0,0,0,0],"id":11,"left_children":[1,3,5,7,-1,9,11,-1,-1,13,15,17,-1,19,21,23,25,27,-1,29,-1,31,33,35,37,39,41,-1,-1,-1,-1,-1,-1,-1,-1,-1,-1,-1,-1,-1,-1,-1,-1],"loss_changes":[3.441494E0,1.8778806E0,3.0680518E0,1.0697536E0,0E0,3.1103892E0,3.127866E0,0E0,0E0,3.9205852E0,3.6347663E0,1.709991E0,0E0,2.6356506E0,2.7166767E0,2.8521926E0,3.0710711E0,1.0757027E0,0E0,1.9821119E0,0E0,1.624814E0,2.7039125E0,2.3527348E0,3.722009E0,4.4359303E0,3.1688776E0,0E0,0E0,0E0,0E0,0E0,0E0,0E0,0E0,0E0,0E0,0E0,0E0,0E0,0E0,0E0,0E0],"parents":[2147483647,0,0,1,1,2,2,3,3,5,5,6,6,9,9,10,10,11,11,13,13,14,14,15,15,16,16,17,17,19,19,21,21,22,22,23,23,24,24,25,25,26,26],"right_children":[2,4,6,8,-1,10,12,-1,-1,14,16,18,-1,20,22,24,26,28,-1,30,-1,32,34,36,38,40,42,-1,-1,-1,-1,-1,-1,-1,-1,-1,-1,-1,-1,-1,-1,-1,-1],"split_conditions":[-1.3879913E0,3.482338E0,7.6797253E2,1.1190346E1,7.785483E-2,-3.64375E-3,1.1440212E2,-3.1401396E-1,1.024632E-2,-2.922114E-1,-8.299274E-3,1.8077747E0,1.944139E-1,4.5334452E-1,4.612303E-4,1.1569123E1,-6.0025454E-3,1.537555E3,-2.9700413E-1,4.5767374E0,2.901439E-1,-9.380847E-1,1.0312872E-3,2.2879487E-3,3.2282516E1,4.886188E-1,4.953041E0,-1.467758E-1,1.5860805E-1,1.2805535E-1,-2.4147406E-1,9.449791E-3,-2.7165005E-1,-1.6424274E-1,1.5760057E-1,1.5383733E-2,-2.7578634E-1,2.5638053E-1,-1.3754645E-1,-1.23042636E-1,1.5978718E-1,-3.9843224E-2,2.247816E-1],"split_indices":[211,103,93,200,0,118,159,0,0,60,129,33,0,222,2,190,153,32,0,34,0,208,67,151,190,135,107,0,0,0,0,0,0,0,0,0,0,0,0,0,0,0,0],"split_type":[0,0,0,0,0,0,0,0,0,0,0,0,0,0,0,0,0,0,0,0,0,0,0,0,0,0,0,0,0,0,0,0,0,0,0,0,0,0,0,0,0,0,0],"sum_hessian":[1.0049257E2,6.7756467E0,9.371692E1,5.3457E0,1.4299471E0,8.516405E1,8.5528755E0,4.314091E0,1.0316085E0,2.446964E1,6.06944E1,7.2907667E0,1.2621086E0,6.601629E0,1.7868013E1,1.5926207E1,4.4768196E1,2.1555634E0,5.1352034E0,3.3216872E0,3.2799413E0,1.0356738E1,7.511275E0,9.003249E0,6.922958E0,1.7980967E1,2.678723E1,1.061304E0,1.0942595E0,1.8599043E0,1.4617829E0,2.2395444E0,8.117194E0,3.2539227E0,4.257352E0,4.2188816E0,4.7843676E0,3.9356787E0,2.987279E0,9.003052E0,8.977915E0,4.6098046E0,2.2177425E1],"tree_param":{"num_deleted":"0","num_feature":"225","num_nodes":"43","size_leaf_vector":"0"}},{"base_weights":[7.445351E-3,7.999435E-1,-3.0723426E-2,-1.3254118E-1,2.5751707E-1,2.2253795E-1,-2.5497824E-1,-6.6074604E-1,3.8461235E-1,4.3341732E-1,-3.2957911E-1,-5.1669025E-1,1.6371334E-2,-8.6223125E-1,-1.00251086E-1,-6.523275E-1,5.1965946E-1,-2.8181243E-1,6.724322E-1,-6.616851E-1,3.5874957E-1,-6.788645E-1,9.807466E-2,2.743895E-1,-4.710769E-1,7.273004E-1,-1.427426E-1,3.0585924E-1,-7.4709225E-1,-4.173706E-1,8.490722E-1,-8.963712E-1,-2.2285674E-2,7.379895E-2,-8.10429E-1,-6.350321E-1,5.446076E-1,-3.052047E-1,4.9968395E-1,-6.8451035E-1,3.835279E-1,-1.5643029E-1,8.7730426E-1,-5.3910047E-1,5.093526E-1],"categories":[],"categories_nodes":[],"categories_segments":[],"categories_sizes":[],"default_left":[1,0,1,1,1,1,1,1,1,1,1,1,1,0,0,0,1,1,1,1,0,1,1,1,1,1,1,0,0,0,0,0,0,0,0,0,0,0,0,0,0,0,0,0,0],"id":12,"left_children":[1,-1,3,5,7,9,11,13,15,17,19,21,23,-1,-1,-1,25,27,29,31,-1,33,35,37,39,41,43,-1,-1,-1,-1,-1,-1,-1,-1,-1,-1,-1,-1,-1,-1,-1,-1,-1,-1],"loss_changes":[2.8889456E0,0E0,2.7137759E0,3.0187829E0,3.075353E0,2.2389781E0,3.6394026E0,2.870202E-1,3.4010937E0,2.4904063E0,1.5046978E0,2.664475E0,3.4082916E0,0E0,0E0,0E0,2.841385E0,1.3429981E0,2.353239E0,5.9393466E-1,0E0,2.1140099E0,2.412394E0,2.4611082E0,1.9756181E0,2.1677704E0,1.7183754E0,0E0,0E0,0E0,0E0,0E0,0E0,0E0,0E0,0E0,0E0,0E0,0E0,0E0,0E0,0E0,0E0,0E0,0E0],"parents":[2147483647,0,0,2,2,3,3,4,4,5,5,6,6,7,7,8,8,9,9,10,10,11,11,12,12,16,16,17,17,18,18,19,19,21,21,22,22,23,23,24,24,25,25,26,26],"right_children":[2,-1,4,6,8,10,12,14,16,18,20,22,24,-1,-1,-1,26,28,30,32,-1,34,36,38,40,42,44,-1,-1,-1,-1,-1,-1,-1,-1,-1,-1,-1,-1,-1,-1,-1,-1,-1,-1],"split_conditions":[1.455E2,2.3998307E-1,9.766471E-1,-2.784339E-1,-7.525835E-1,2.2757165E0,4.184233E-1,5.646225E0,-1.0306664E0,4.53734E-1,4.5327473E0,1.2317867E1,2.3633182E-1,-2.5866938E-1,-3.0075327E-2,-1.9569825E-1,1.9049255E1,1.8655178E-4,6.469786E-1,2.674444E-1,1.0762487E-1,2.6481646E-1,6.202079E1,2.2676846E-1,5.573626E0,1.637046E0,5.103435E-4,9.1757774E-2,-2.2412768E-1,-1.2521118E-1,2.5472167E-1,-2.6891136E-1,-6.6857026E-3,2.2139685E-2,-2.431287E-1,-1.9050965E-1,1.6338228E-1,-9.156141E-2,1.4990519E-1,-2.0535311E-1,1.1505838E-1,-4.6929087E-2,2.6319128E-1,-1.6173014E-1,1.5280579E-1],"split_indices":[0,0,170,222,123,168,222,170,95,36,18,43,60,0,0,0,51,87,206,123,0,73,196,176,7,216,59,0,0,0,0,0,0,0,0,0,0,0,0,0,0,0,0,0,0],"split_type":[0,0,0,0,0,0,0,0,0,0,0,0,0,0,0,0,0,0,0,0,0,0,0,0,0,0,0,0,0,0,0,0,0,0,0,0,0,0,0,0,0,0,0,0,0],"sum_hessian":[9.369399E1,3.3881333E0,9.0305855E1,6.713229E1,2.3173563E1,1.7003359E1,5.0128933E1,2.3069599E0,2.0866604E1,1.2459488E1,4.543872E0,2.5057373E1,2.507156E1,1.3009565E0,1.0060033E0,1.9630715E0,1.8903532E1,3.0759459E0,9.383542E0,3.0911543E0,1.4527178E0,1.9744524E1,5.312848E0,1.6679688E1,8.391872E0,1.4317499E1,4.586033E0,1.5106072E0,1.5653386E0,1.1187073E0,8.264834E0,1.9672109E0,1.1239433E0,3.0031211E0,1.6741404E1,1.851296E0,3.4615521E0,4.5694904E0,1.2110197E1,6.874126E0,1.5177468E0,2.0713768E0,1.2246122E1,2.9600987E0,1.625934E0],"tree_param":{"num_deleted":"0","num_feature":"225","num_nodes":"45","size_leaf_vector":"0"}},{"base_weights":[1.9340256E-3,8.0643766E-2,-3.901403E-1,-6.8840104E-1,1.20790854E-1,1.8759776E-2,-8.0658734E-1,-8.697356E-1,-1.04003884E-1,4.9582484E-1,2.612865E-2,-3.9486295E-1,5.493983E-1,-9.183769E-1,-5.054715E-2,-2.7075997E-1,8.780647E-1,-3.4601066E-1,1.4665803E-1,1.2186079E-1,-6.151723E-1,-2.0689141E-2,7.507124E-1,-2.2525346E-1,-1.005087E0,-6.862596E-1,3.27162E-1,-6.198805E-3,9.9191266E-1,3.9590758E-1,-5.588692E-1,3.3627126E-2,6.164294E-1,-7.810276E-1,-8.833821E-2,1.0865719E0,1.6734882E-1,7.230821E-1,-2.4670306E-1,-7.654096E-1,3.0324936E-1,3.7228185E-1,-1.8944594E-1,-1.04823105E-1,8.968788E-1],"categories":[],"categories_nodes":[],"categories_segments":[],"categories_sizes":[],"default_left":[1,1,1,1,1,1,1,0,0,1,1,1,1,1,0,1,1,1,1,0,1,0,0,0,0,0,0,0,1,1,1,1,1,0,0,0,0,0,0,0,0,0,0,0,0],"id":13,"left_children":[1,3,5,7,9,11,13,-1,-1,15,17,19,21,23,-1,25,27,29,31,-1,33,-1,-1,-1,-1,-1,-1,-1,35,37,39,41,43,-1,-1,-1,-1,-1,-1,-1,-1,-1,-1,-1,-1],"loss_changes":[2.7543538E0,2.3774838E0,2.556286E0,3.1606114E-1,2.524498E0,2.0840805E0,5.803571E-1,0E0,0E0,4.442359E0,2.6578755E0,6.854178E-1,4.9118745E-1,1.5839195E-1,0E0,1.6005185E0,9.938011E-1,2.5139592E0,2.3478656E0,0E0,2.7395236E-1,0E0,0E0,0E0,0E0,0E0,0E0,0E0,4.970503E-1,9.819337E-1,2.314696E0,2.8667233E0,1.8322892E0,0E0,0E0,0E0,0E0,0E0,0E0,0E0,0E0,0E0,0E0,0E0,0E0],"parents":[2147483647,0,0,1,1,2,2,3,3,4,4,5,5,6,6,9,9,10,10,11,11,12,12,13,13,15,15,16,16,17,17,18,18,20,20,28,28,29,29,30,30,31,31,32,32],"right_children":[2,4,6,8,10,12,14,-1,-1,16,18,20,22,24,-1,26,28,30,32,-1,34,-1,-1,-1,-1,-1,-1,-1,36,38,40,42,44,-1,-1,-1,-1,-1,-1,-1,-1,-1,-1,-1,-1],"split_conditions":[3.5881172E1,-1.8962129E0,5.9372544E-1,1.2061459E1,-4.8769286E-1,8.061143E-1,4.248302E1,-2.609207E-1,-3.1201167E-2,-2.7568536E-4,-2.312061E-3,4.0642473E-1,4.817716E0,8.18442E0,-1.5164145E-2,3.0405882E-3,4.03782E0,-3.055063E-1,2.2503822E1,3.6558237E-2,-7.521651E-4,-6.2067425E-3,2.2521372E-1,-6.757604E-2,-3.0152613E-1,-2.058779E-1,9.814861E-2,-1.8596415E-3,1.751501E1,4.4941162E1,1.1962473E3,6.114047E0,-1.3138732E-2,-2.3430829E-1,-2.6501464E-2,3.259716E-1,5.0204646E-2,2.1692465E-1,-7.401092E-2,-2.2962289E-1,9.097481E-2,1.1168456E-1,-5.6833785E-2,-3.1446934E-2,2.6906365E-1],"split_indices":[141,211,109,41,112,185,223,0,0,153,118,164,128,180,0,2,206,60,3,0,186,0,0,0,0,0,0,0,186,198,144,14,59,0,0,0,0,0,0,0,0,0,0,0,0],"split_type":[0,0,0,0,0,0,0,0,0,0,0,0,0,0,0,0,0,0,0,0,0,0,0,0,0,0,0,0,0,0,0,0,0,0,0,0,0,0,0,0,0,0,0,0,0],"sum_hessian":[8.723348E1,7.331055E1,1.3922931E1,2.8361025E0,7.047445E1,7.506963E0,6.4159675E0,1.7918441E0,1.0442585E0,1.3349276E1,5.712517E1,4.362415E0,3.1445482E0,5.402433E0,1.0135343E0,4.5386434E0,8.810633E0,1.3517767E1,4.3607403E1,1.4375603E0,2.9248545E0,1.0547904E0,2.0897577E0,1.000738E0,4.4016953E0,2.590646E0,1.9479971E0,1.1128235E0,7.697809E0,2.8219404E0,1.0695827E1,3.601377E1,7.593632E0,1.8575708E0,1.0672836E0,6.620076E0,1.077733E0,1.7869292E0,1.0350113E0,8.719132E0,1.9766936E0,1.4036146E1,2.1977625E1,2.3013391E0,5.292293E0],"tree_param":{"num_deleted":"0","num_feature":"225","num_nodes":"45","size_leaf_vector":"0"}},{"base_weights":[1.3844494E-3,5.0329007E-2,-5.973758E-1,-4.8228018E-2,4.6281463E-1,-8.589366E-1,-3.4415692E-2,-1.2727608E-1,5.86067E-1,-4.0485287E-1,5.704881E-1,3.2627383E-1,-3.8425085E-1,7.154258E-1,-1.9281177E-1,-1.7216767E-1,8.55743E-1,-2.2554393E-1,7.246389E-1,5.980014E-1,-2.5569487E-1,9.964956E-1,1.3818207E-1,1.2637287E-1,-4.6627104E-1,8.5147035E-1,-2.5387484E-1,8.7342536E-1,-1.4467421E-1,-3.0970228E-1,5.846353E-1,9.292054E-1,8.01554E-2],"categories":[],"categories_nodes":[],"categories_segments":[],"categories_sizes":[],"default_left":[1,1,1,1,1,0,1,1,1,0,1,0,0,0,1,0,1,1,1,1,1,0,0,0,0,1,0,0,0,0,0,0,0],"id":14,"left_children":[1,3,5,7,9,-1,11,13,15,-1,17,-1,-1,-1,19,-1,21,23,25,27,29,-1,-1,-1,-1,31,-1,-1,-1,-1,-1,-1,-1],"loss_changes":[2.4709775E0,3.1899788E0,9.086518E-1,3.273379E0,1.6436744E0,0E0,5.118659E-1,3.316222E0,1.6293921E0,0E0,1.8650589E0,0E0,0E0,0E0,2.847432E0,0E0,4.1920614E-1,3.141166E-1,1.6874218E0,1.0040339E0,2.4908264E0,0E0,0E0,0E0,0E0,5.685239E-1,0E0,0E0,0E0,0E0,0E0,0E0,0E0],"parents":[2147483647,0,0,1,1,2,2,3,3,4,4,6,6,7,7,8,8,10,10,14,14,16,16,17,17,18,18,19,19,20,20,25,25],"right_children":[2,4,6,8,10,-1,12,14,16,-1,18,-1,-1,-1,20,-1,22,24,26,28,30,-1,-1,-1,-1,32,-1,-1,-1,-1,-1,-1,-1],"split_conditions":[9.405E2,7.315E2,3.8779188E5,7.052217E3,1.308031E-1,-2.5768098E-1,1.3813186E3,1.59E2,-3.673076E-2,-1.2145586E-1,2.1201348E0,9.788215E-2,-1.1527526E-1,2.1462774E-1,-1.8479908E0,-5.1650304E-2,3.280715E1,6.3227854E0,3.7553918E0,-7.457194E-2,6.728848E1,2.989487E-1,4.1454624E-2,3.7911862E-2,-1.3988131E-1,4.5341274E1,-7.616246E-2,2.6202762E-1,-4.3402266E-2,-9.2910685E-2,1.753906E-1,2.7876163E-1,2.4046622E-2],"split_indices":[0,0,192,202,77,0,32,0,6,0,111,0,0,0,59,0,52,140,66,30,143,0,0,0,0,178,0,0,0,0,0,0,0],"split_type":[0,0,0,0,0,0,0,0,0,0,0,0,0,0,0,0,0,0,0,0,0,0,0,0,0,0,0,0,0,0,0,0,0],"sum_hessian":[8.2290375E1,7.691873E1,5.3716364E0,6.2797363E1,1.4121373E1,3.3086371E0,2.0629992E0,5.6549328E1,6.2480326E0,1.2542464E0,1.2867127E1,1.0489023E0,1.0140969E0,3.364879E0,5.3184452E1,1.7340539E0,4.5139785E0,2.0123334E0,1.0854794E1,3.29073E0,4.989372E1,3.448763E0,1.0652156E0,1.0103495E0,1.001984E0,9.724209E0,1.1305845E0,2.2720716E0,1.0186584E0,4.747405E1,2.4196706E0,8.647944E0,1.0762644E0],"tree_param":{"num_deleted":"0","num_feature":"225","num_nodes":"33","size_leaf_vector":"0"}},{"base_weights":[1.2012849E-2,-2.7795343E-2,6.100259E-1,2.7609287E-2,-5.002889E-1,5.986873E-3,8.065215E-1,-4.269832E-2,4.5176128E-1,-6.962977E-1,2.8430536E-1,-1.6546954E-1,2.5963166E-1,-2.6422668E-1,7.8158873E-1,9.775734E-2,-8.648822E-1,-3.003961E-1,2.3648885E-1,4.5586085E-1,-3.935853E-1,3.966681E-1,-6.8219095E-1,1.6227879E-3,9.1418535E-1,9.6146815E-2,-4.5940977E-1,3.9720824E-1,-3.7412184E-1,6.007671E-1,-3.7356466E-1,3.9250517E-1,-7.263509E-1],"categories":[],"categories_nodes":[],"categories_segments":[],"categories_sizes":[],"default_left":[1,1,1,1,1,0,0,1,1,1,0,1,1,1,1,0,0,1,1,1,1,0,0,0,0,0,0,0,0,0,0,0,0],"id":15,"left_children":[1,3,5,7,9,-1,-1,11,13,15,-1,17,19,21,23,-1,-1,25,27,29,31,-1,-1,-1,-1,-1,-1,-1,-1,-1,-1,-1,-1],"loss_changes":[1.8912299E0,1.9712797E0,5.835757E-1,2.0433738E0,1.4128978E0,0E0,0E0,2.2379658E0,2.5060377E0,9.695213E-1,0E0,2.3851633E0,2.4185011E0,1.3253413E0,7.140975E-1,0E0,0E0,2.0862842E0,1.2558551E0,1.8946025E0,1.4810485E0,0E0,0E0,0E0,0E0,0E0,0E0,0E0,0E0,0E0,0E0,0E0,0E0],"parents":[2147483647,0,0,1,1,2,2,3,3,4,4,7,7,8,8,9,9,11,11,12,12,13,13,14,14,17,17,18,18,19,19,20,20],"right_children":[2,4,6,8,10,-1,-1,12,14,16,-1,18,20,22,24,-1,-1,26,28,30,32,-1,-1,-1,-1,-1,-1,-1,-1,-1,-1,-1,-1],"split_conditions":[8.572724E-1,5.072745E1,3.847876E0,2.6539711E1,6.2074795E0,1.796062E-3,2.4195646E-1,3.1855994E-1,-1.9608362E-2,1.2462589E-1,8.529161E-2,1.4895036E1,1.0173994E1,-1.5098989E-3,-2.9090043E-2,2.9327203E-2,-2.5946465E-1,-9.1913655E-2,3.197024E2,4.0195312E4,3.77E2,1.19000435E-1,-2.046573E-1,4.868364E-4,2.742556E-1,2.8844045E-2,-1.3782294E-1,1.1916248E-1,-1.1223656E-1,1.8023013E-1,-1.12069406E-1,1.1775155E-1,-2.1790528E-1],"split_indices":[151,187,182,187,40,0,0,105,212,69,0,152,137,96,153,0,0,44,203,97,0,0,0,0,0,0,0,0,0,0,0,0,0],"split_type":[0,0,0,0,0,0,0,0,0,0,0,0,0,0,0,0,0,0,0,0,0,0,0,0,0,0,0,0,0,0,0,0,0],"sum_hessian":[7.7731766E1,7.377432E1,3.9574468E0,6.6874214E1,6.9001083E0,1.2243112E0,2.7331355E0,5.8136772E1,8.737443E0,5.6109166E0,1.2891914E0,4.166855E1,1.6468224E1,2.8183265E0,5.919116E0,1.0562009E0,4.5547156E0,3.1385838E1,1.0282709E1,1.2896261E1,3.571963E0,1.1115965E0,1.7067299E0,1.0071356E0,4.9119806E0,9.096541E0,2.2289295E1,8.416805E0,1.8659045E0,1.1212964E1,1.6832976E0,1.0089654E0,2.5629976E0],"tree_param":{"num_deleted":"0","num_feature":"225","num_nodes":"33","size_leaf_vector":"0"}},{"base_weights":[1.1967969E-2,5.378423E-2,-5.261575E-1,1.1242972E-2,6.9704425E-1,-7.921093E-1,1.5103441E-2,8.431664E-2,-4.230396E-1,4.1916338E-1,-1.1823932E-2,-6.085195E-1,4.0964082E-1,6.2018037E-1,-2.6226422E-1,3.6357218E-1,-1.2363193E-1,-7.7210945E-1,2.1389416E-1,7.7642053E-1,-2.4551257E-1,2.6922262E-1,-6.289793E-1,-1.7334545E-1,7.803058E-1,-4.2155135E-1,4.1984465E-2,-1.953333E-2,-8.906942E-1],"categories":[],"categories_nodes":[],"categories_segments":[],"categories_sizes":[],"default_left":[1,1,1,1,0,0,0,1,1,1,1,1,0,1,1,1,1,1,0,0,0,0,0,0,0,0,0,0,0],"id":16,"left_children":[1,3,5,7,-1,-1,-1,9,11,13,15,17,-1,19,21,23,25,27,-1,-1,-1,-1,-1,-1,-1,-1,-1,-1,-1],"loss_changes":[1.7110553E0,1.9158312E0,8.0149436E-1,2.1603727E0,0E0,0E0,0E0,1.876717E0,1.7642623E0,1.9430201E0,1.9817852E0,1.2985806E0,0E0,1.5883393E0,8.8337797E-1,2.5615501E0,1.8088479E0,6.2906504E-1,0E0,0E0,0E0,0E0,0E0,0E0,0E0,0E0,0E0,0E0,0E0],"parents":[2147483647,0,0,1,1,2,2,3,3,7,7,8,8,9,9,10,10,11,11,13,13,14,14,15,15,16,16,17,17],"right_children":[2,4,6,8,-1,-1,-1,10,12,14,16,18,-1,20,22,24,26,28,-1,-1,-1,-1,-1,-1,-1,-1,-1,-1,-1],"split_conditions":[9.405E2,8.715E2,5.2651687E0,2.6098087E1,2.0911328E-1,-2.376328E-1,4.5310324E-3,-4.4092122E-1,2.9340849E1,3.105645E1,-7.821083E-1,1.3261315E3,1.2289225E-1,2.7468533E1,8.49608E0,-1.07526295E-2,3.7423356E0,-4.175712E-2,6.416825E-2,2.3292617E-1,-7.365377E-2,8.076679E-2,-1.886938E-1,-5.2003637E-2,2.3409174E-1,-1.2646541E-1,1.259534E-2,-5.8599995E-3,-2.6720828E-1],"split_indices":[0,0,214,111,0,0,0,222,206,110,86,144,0,25,140,209,152,188,0,0,0,0,0,0,0,0,0,0,0],"split_type":[0,0,0,0,0,0,0,0,0,0,0,0,0,0,0,0,0,0,0,0,0,0,0,0,0,0,0,0,0],"sum_hessian":[7.3781204E1,6.9296425E1,4.484783E0,6.5952225E1,3.3441963E0,2.6964262E0,1.788357E0,5.714302E1,8.809206E0,1.199743E1,4.514559E1,7.424581E0,1.3846248E0,9.333875E0,2.6635556E0,9.843665E0,3.5301926E1,6.2437716E0,1.1808095E0,7.994204E0,1.3396704E0,1.1960101E0,1.4675455E0,4.556775E0,5.28689E0,1.2060864E1,2.324106E1,1.0084636E0,5.235308E0],"tree_param":{"num_deleted":"0","num_feature":"225","num_nodes":"29","size_leaf_vector":"0"}},{"base_weights":[9.509727E-3,-2.4405003E-2,6.3115764E-1,-3.2667315E-1,5.655306E-2,4.8283055E-1,-5.040785E-1,4.5232287E-1,-4.3636415E-2,8.605235E-2,6.315629E-1,-6.6787744E-1,1.7529733E-1,6.2021166E-1,-4.3893242E-1,-1.751467E-1,2.8339157E-1,9.782628E-3,-7.9939693E-1,-2.823996E-1,5.344445E-1,7.980203E-1,-2.148733E-2,5.8939897E-2,-4.5767474E-1,5.8436716E-1,-1.8290755E-1,-2.7526188E-1,-9.3388695E-1,1.22323886E-1,8.808126E-1,3.5376668E-1,-3.7900212E-1,-3.7435532E-1,4.875264E-1,2.3583813E-1,-6.063409E-1,8.324297E-1,-1.9358313E-1,-4.1651312E-1,4.3808246E-1],"categories":[],"categories_nodes":[],"categories_segments":[],"categories_sizes":[],"default_left":[1,1,0,1,1,1,1,1,1,0,0,1,1,1,0,1,1,0,1,0,0,1,1,1,1,1,1,0,0,0,0,0,0,0,0,0,0,0,0,0,0],"id":17,"left_children":[1,3,-1,5,7,9,11,13,15,-1,-1,17,19,21,-1,23,25,-1,27,-1,-1,29,31,33,35,37,39,-1,-1,-1,-1,-1,-1,-1,-1,-1,-1,-1,-1,-1,-1],"loss_changes":[1.5147574E0,1.6923012E0,0E0,2.3397226E0,2.1927803E0,1.306473E-1,1.5039315E0,1.9419425E0,1.9696678E0,0E0,0E0,9.213114E-1,6.791055E-1,1.1358252E0,0E0,2.1736221E0,1.9574754E0,0E0,3.4885406E-1,0E0,0E0,3.232007E-1,5.501104E-1,3.643424E0,1.6711087E0,1.7536173E0,1.0432998E0,0E0,0E0,0E0,0E0,0E0,0E0,0E0,0E0,0E0,0E0,0E0,0E0,0E0,0E0],"parents":[2147483647,0,0,1,1,3,3,4,4,5,5,6,6,7,7,8,8,11,11,12,12,13,13,15,15,16,16,18,18,21,21,22,22,23,23,24,24,25,25,26,26],"right_children":[2,4,-1,6,8,10,12,14,16,-1,-1,18,20,22,-1,24,26,-1,28,-1,-1,30,32,34,36,38,40,-1,-1,-1,-1,-1,-1,-1,-1,-1,-1,-1,-1,-1,-1],"split_conditions":[8.708764E-2,-7.772897E-2,1.893473E-1,1.4091589E-1,-1.3366139E-1,2.951595E0,1.4647493E-1,2.9900279E-2,1.9065748E1,2.5815707E-2,1.8946888E-1,4.2300825E0,7.4232893E0,4.784809E1,-1.3167973E-1,1.1766133E2,6.02707E-1,2.9347886E-3,-2.0435429E-1,-8.471988E-2,1.6033337E-1,2.855E2,9.697519E-1,1.0269936E1,-1.310044E-1,9.889997E1,5.973362E0,-8.257857E-2,-2.801661E-1,3.6697168E-2,2.6424378E-1,1.0613001E-1,-1.1370064E-1,-1.123066E-1,1.4625792E-1,7.075144E-2,-1.8190227E-1,2.4972892E-1,-5.807494E-2,-1.2495394E-1,1.3142474E-1],"split_indices":[31,186,0,221,30,7,191,169,104,0,0,133,146,141,0,175,109,0,132,0,0,0,172,4,89,116,76,0,0,0,0,0,0,0,0,0,0,0,0,0,0],"split_type":[0,0,0,0,0,0,0,0,0,0,0,0,0,0,0,0,0,0,0,0,0,0,0,0,0,0,0,0,0,0,0,0,0,0,0,0,0,0,0,0,0],"sum_hessian":[7.011666E1,6.74003E1,2.716361E0,1.3597406E1,5.3802895E1,2.134774E0,1.1462632E1,1.0158798E1,4.3644096E1,1.0124362E0,1.1223378E0,9.249487E0,2.2131455E0,8.804399E0,1.3544004E0,3.1458055E1,1.2186042E1,1.6538044E0,7.5956826E0,1.0670242E0,1.1461211E0,6.703357E0,2.1010408E0,1.7636688E1,1.3821367E1,7.251995E0,4.9340467E0,2.1731563E0,5.4225264E0,1.0021278E0,5.7012296E0,1.0302038E0,1.0708369E0,8.833088E0,8.803599E0,2.3363168E0,1.148505E1,5.445558E0,1.8064374E0,3.8245816E0,1.1094651E0],"tree_param":{"num_deleted":"0","num_feature":"225","num_nodes":"41","size_leaf_vector":"0"}},{"base_weights":[1.4719413E-2,6.9706154E-1,-1.8530274E-2,-7.6199524E-2,3.4587976E-1,1.2972407E-1,-2.2192657E-1,-3.3202899E-1,6.515014E-1,-1.1893505E-1,3.7542716E-1,-4.4040936E-1,9.901356E-3,-6.791043E-1,2.4120386E-1,-1.7291453E-1,8.4262145E-1,-3.6868832E-1,4.1479266E-1,5.9359884E-1,-3.491673E-1,-6.779506E-1,-1.1989744E-2,-2.9886717E-1,4.351825E-1,-6.9830185E-1,4.9991035E-1,-1.2144749E-1,6.565673E-1,-1.26919E-1,7.134777E-1,-6.5191394E-1,1.7463914E-1,-1.208086E-2,-8.4374654E-1,-4.328054E-1,3.5168022E-1,2.8435287E-1,-6.579874E-1,-3.9233702E-1,6.512975E-1],"categories":[],"categories_nodes":[],"categories_segments":[],"categories_sizes":[],"default_left":[1,0,1,1,1,1,1,1,1,1,1,1,1,0,0,0,0,1,1,1,1,1,1,1,1,0,0,0,0,0,0,0,0,0,0,0,0,0,0,0,0],"id":18,"left_children":[1,-1,3,5,7,9,11,13,15,17,19,21,23,-1,-1,-1,-1,25,27,29,31,33,35,37,39,-1,-1,-1,-1,-1,-1,-1,-1,-1,-1,-1,-1,-1,-1,-1,-1],"loss_changes":[1.5269849E0,0E0,1.3841218E0,1.727293E0,2.0826457E0,1.5162679E0,1.7018416E0,8.5250115E-1,1.1771858E0,1.8499504E0,2.1605778E0,1.7499452E0,2.3936756E0,0E0,0E0,0E0,0E0,2.983635E0,6.6689783E-1,9.428134E-1,6.6714096E-1,1.2147279E0,1.2510164E0,2.403052E0,1.6251154E0,0E0,0E0,0E0,0E0,0E0,0E0,0E0,0E0,0E0,0E0,0E0,0E0,0E0,0E0,0E0,0E0],"parents":[2147483647,0,0,2,2,3,3,4,4,5,5,6,6,7,7,8,8,9,9,10,10,11,11,12,12,17,17,18,18,19,19,20,20,21,21,22,22,23,23,24,24],"right_children":[2,-1,4,6,8,10,12,14,16,18,20,22,24,-1,-1,-1,-1,26,28,30,32,34,36,38,40,-1,-1,-1,-1,-1,-1,-1,-1,-1,-1,-1,-1,-1,-1,-1,-1],"split_conditions":[1.455E2,2.0911847E-1,8.527076E-2,3.5657668E-1,2.9858718E0,2.5457483E-2,2.076944E3,2.6195616E1,2.5928361E0,8.274211E-1,1.7491512E1,4.9363937E-2,8.783098E0,-2.0373131E-1,7.2361164E-2,-5.1874362E-2,2.5278646E-1,1.14895226E2,-7.590145E-2,-1.604852E0,7.900148E-3,-4.2356002E-1,1.3210844E-2,3.517008E4,2.785E2,-2.0949057E-1,1.4997311E-1,-3.6434248E-2,1.969702E-1,-3.80757E-2,2.140433E-1,-1.955742E-1,5.239174E-2,-3.6242583E-3,-2.5312397E-1,-1.2984163E-1,1.0550407E-1,8.530586E-2,-1.9739623E-1,-1.1770111E-1,1.9538926E-1],"split_indices":[0,0,101,71,179,118,22,88,4,123,1,170,146,0,0,0,0,36,161,42,103,10,95,192,0,0,0,0,0,0,0,0,0,0,0,0,0,0,0,0,0],"split_type":[0,0,0,0,0,0,0,0,0,0,0,0,0,0,0,0,0,0,0,0,0,0,0,0,0,0,0,0,0,0,0,0,0,0,0,0,0,0,0,0,0],"sum_hessian":[6.573531E1,2.1267245E0,6.3608585E1,5.5600494E1,8.00809E0,2.308683E1,3.2513664E1,2.4615796E0,5.5465107E0,1.1730818E1,1.1356011E1,1.6275415E1,1.623825E1,1.4182062E0,1.0433733E0,1.0617596E0,4.484751E0,8.201988E0,3.5288293E0,8.86699E0,2.4890213E0,1.0095451E1,6.1799636E0,9.580054E0,6.6581955E0,6.087847E0,2.1141412E0,1.2512726E0,2.2775567E0,1.2564591E0,7.6105313E0,1.4223621E0,1.0666591E0,2.2264488E0,7.869003E0,2.7767644E0,3.4031992E0,3.730244E0,5.8498106E0,1.2099198E0,5.448276E0],"tree_param":{"num_deleted":"0","num_feature":"225","num_nodes":"41","size_leaf_vector":"0"}},{"base_weights":[1.3434855E-2,5.8840085E-2,-5.452207E-1,-1.9184167E-2,4.0450636E-1,-7.5156516E-1,-5.1689204E-2,3.6225848E-2,-6.8191725E-1,-3.173055E-1,5.1328975E-1,-3.222486E-2,6.9371724E-1,-1.605634E-1,6.550593E-1,-3.569527E-1,9.272654E-2,2.002175E-1,7.9683E-1,7.84874E-1,-1.3130827E-1,-7.1068484E-1,4.112151E-3,2.3378347E-1,-3.1941792E-1,8.6243874E-1,1.6156511E-1],"categories":[],"categories_nodes":[],"categories_segments":[],"categories_sizes":[],"default_left":[1,1,1,1,1,0,0,1,0,0,1,1,1,0,1,1,1,0,0,1,0,0,0,0,0,0,0],"id":19,"left_children":[1,3,5,7,9,-1,-1,11,-1,-1,13,15,17,-1,19,21,23,-1,-1,25,-1,-1,-1,-1,-1,-1,-1],"loss_changes":[1.5936099E0,1.5676047E0,4.4230223E-1,1.7924883E0,1.0027255E0,0E0,0E0,2.064484E0,0E0,0E0,1.0296488E0,1.7393657E0,6.0435534E-2,0E0,9.393072E-1,1.5216556E0,1.8862373E0,0E0,0E0,2.0752382E-1,0E0,0E0,0E0,0E0,0E0,0E0,0E0],"parents":[2147483647,0,0,1,1,2,2,3,3,4,4,7,7,10,10,11,11,12,12,14,14,15,15,16,16,19,19],"right_children":[2,4,6,8,10,-1,-1,12,-1,-1,14,16,18,-1,20,22,24,-1,-1,26,-1,-1,-1,-1,-1,-1,-1],"split_conditions":[9.405E2,7.315E2,5.2651687E0,6.915E2,1.352509E-1,-2.2546956E-1,-1.5506762E-2,7.230611E3,-2.0457518E-1,-9.519166E-2,2.1201348E0,1.5430534E0,-2.4144305E-2,-4.816902E-2,4.994285E-2,1.0243013E1,3.3802544E5,6.006525E-2,2.39049E-1,2.021188E-2,-3.9392482E-2,-2.1320546E-1,1.2336454E-3,7.013504E-2,-9.582538E-2,2.5873163E-1,4.8469536E-2],"split_indices":[0,0,214,0,77,0,0,202,0,0,111,34,6,0,169,4,11,0,0,205,0,0,0,0,0,0,0],"split_type":[0,0,0,0,0,0,0,0,0,0,0,0,0,0,0,0,0,0,0,0,0,0,0,0,0,0,0],"sum_hessian":[6.056021E1,5.683553E1,3.7246833E0,4.7139614E1,9.695916E0,2.2578495E0,1.4668338E0,4.4374844E1,2.7647686E0,1.0188268E0,8.677089E0,4.105196E1,3.3228862E0,1.4851878E0,7.191901E0,1.0891093E1,3.0160866E1,1.0827162E0,2.24017E0,6.174504E0,1.0173972E0,5.012292E0,5.8788013E0,2.2792774E1,7.36809E0,5.149992E0,1.0245118E0],"tree_param":{"num_deleted":"0","num_feature":"225","num_nodes":"27","size_leaf_vector":"0"}},{"base_weights":[6.3969567E-3,5.4641914E-1,-3.0284045E-2,6.758776E-1,9.357894E-2,3.227744E-1,-8.468663E-2,5.9019953E-1,-2.4921575E-1,1.9661827E-1,-1.9186887E-1,-1.273507E-1,7.8858846E-1,-5.226487E-1,1.6405152E-1,3.6420393E-1,-4.6053532E-1,-4.9969706E-1,-3.469886E-2,-2.1655528E-1,6.5191656E-1,-2.9440619E-2,-6.532225E-1,-8.565174E-2,-7.4327874E-1,2.0990261E-1,-2.9923135E-1,-4.999783E-1,3.4179807E-1,1.2395259E-2,7.703E-1,4.626248E-1,-5.403691E-1,-8.4588546E-1,-2.0047598E-1,4.3695837E-1,-4.744842E-1,1.888151E-1,-5.6491745E-1],"categories":[],"categories_nodes":[],"categories_segments":[],"categories_sizes":[],"default_left":[1,1,1,0,0,1,1,1,1,1,1,0,0,0,0,1,1,1,1,1,1,0,0,1,1,1,1,0,0,0,0,0,0,0,0,0,0,0,0],"id":20,"left_children":[1,3,5,-1,-1,7,9,11,13,15,17,-1,-1,-1,-1,19,21,23,25,27,29,-1,-1,31,33,35,37,-1,-1,-1,-1,-1,-1,-1,-1,-1,-1,-1,-1],"loss_changes":[1.1781393E0,1.5848851E-1,1.1002264E0,0E0,0E0,1.319691E0,1.5209289E0,8.8629544E-1,4.4116682E-1,1.7168087E0,1.7305213E0,0E0,0E0,0E0,0E0,2.107211E0,2.5486988E-1,1.1603258E0,1.6798185E0,9.065376E-1,6.0502267E-1,0E0,0E0,1.6524745E0,2.4873638E-1,2.3163536E0,1.7169178E0,0E0,0E0,0E0,0E0,0E0,0E0,0E0,0E0,0E0,0E0,0E0,0E0],"parents":[2147483647,0,0,1,1,2,2,5,5,6,6,7,7,8,8,9,9,10,10,15,15,16,16,17,17,18,18,19,19,20,20,23,23,24,24,25,25,26,26],"right_children":[2,4,6,-1,-1,8,10,12,14,16,18,-1,-1,-1,-1,20,22,24,26,28,30,-1,-1,32,34,36,38,-1,-1,-1,-1,-1,-1,-1,-1,-1,-1,-1,-1],"split_conditions":[1.605E2,8.281777E0,-3.196361E-1,2.0276327E-1,2.8073683E-2,1.4431921E2,3.1694776E-1,1.5494781E1,5.251122E-1,2.8375462E1,9.011772E0,-3.8205214E-2,2.3657654E-1,-1.5679461E-1,4.921546E-2,6.568949E1,3.4410495E-4,-3.2212723E-2,5.0962492E4,2.1473038E1,-4.7757447E-2,-8.832186E-3,-1.9596677E-1,-3.0274665E-1,9.1118824E-1,3.9064247E1,5.2508526E-3,-1.499935E-1,1.0253943E-1,3.7185778E-3,2.3109E-1,1.3878745E-1,-1.6211073E-1,-2.5376564E-1,-6.0142796E-2,1.3108751E-1,-1.4234526E-1,5.6644533E-2,-1.6947524E-1],"split_indices":[0,61,80,0,0,130,119,158,95,25,127,0,0,0,0,155,6,184,192,128,96,0,0,173,123,187,16,0,0,0,0,0,0,0,0,0,0,0,0],"split_type":[0,0,0,0,0,0,0,0,0,0,0,0,0,0,0,0,0,0,0,0,0,0,0,0,0,0,0,0,0,0,0,0,0,0,0,0,0,0,0],"sum_hessian":[5.7640907E1,2.7823465E0,5.4858562E1,1.7807373E0,1.0016093E0,6.6658535E0,4.8192707E1,4.5205197E0,2.145334E0,1.3065983E1,3.5126724E1,1.056685E0,3.4638348E0,1.131811E0,1.013523E0,1.07662E1,2.2997832E0,1.113626E1,2.3990465E1,3.648626E0,7.1175737E0,1.0665051E0,1.2332783E0,4.6254525E0,6.510807E0,1.2572108E1,1.1418357E1,2.4894946E0,1.1591316E0,1.2843057E0,5.833268E0,2.0891116E0,2.536341E0,5.0061264E0,1.5046806E0,9.711653E0,2.8604555E0,4.1268873E0,7.291469E0],"tree_param":{"num_deleted":"0","num_feature":"225","num_nodes":"39","size_leaf_vector":"0"}},{"base_weights":[2.5248092E-3,-7.629042E-2,2.408176E-1,-1.4738989E-1,3.2145548E-1,4.3685323E-1,-4.4103026E-1,2.756014E-1,-2.1356155E-1,-2.3557232E-1,5.746678E-1,-2.4415416E-1,5.825669E-1,7.1407974E-2,-6.9896245E-1,6.2591475E-1,-3.2685363E-1,-2.7950454E-1,2.6731902E-1,-1.7997334E-2,7.666309E-1,7.2764164E-1,-2.338102E-1,9.46206E-2,-3.924584E-1,5.049606E-1,-2.3096798E-1,6.7068525E-2,8.2590854E-1,-3.9531025E-1,3.8806707E-1,-4.571561E-1,3.9134678E-1,1.4945304E-1,6.092292E-1,9.00721E-1,2.041394E-1],"categories":[],"categories_nodes":[],"categories_segments":[],"categories_sizes":[],"default_left":[1,1,1,1,1,1,1,1,1,0,1,0,1,0,0,0,0,1,1,0,0,1,0,1,1,1,0,0,1,0,0,0,0,0,0,0,0],"id":21,"left_children":[1,3,5,7,9,11,13,15,17,-1,19,-1,21,-1,-1,-1,-1,23,25,-1,-1,27,-1,29,31,33,-1,-1,35,-1,-1,-1,-1,-1,-1,-1,-1],"loss_changes":[1.0443548E0,1.2297549E0,2.0396883E0,1.0708517E0,1.0740134E0,1.257096E0,5.2352893E-1,1.328948E0,1.0840037E0,0E0,5.673821E-1,0E0,1.3011901E0,0E0,0E0,0E0,0E0,1.2406087E0,6.316541E-1,0E0,0E0,4.867673E-1,0E0,1.218723E0,1.2980165E0,2.9744744E-2,0E0,0E0,1.502161E-1,0E0,0E0,0E0,0E0,0E0,0E0,0E0,0E0],"parents":[2147483647,0,0,1,1,2,2,3,3,4,4,5,5,6,6,7,7,8,8,10,10,12,12,17,17,18,18,21,21,23,23,24,24,25,25,28,28],"right_children":[2,4,6,8,10,12,14,16,18,-1,20,-1,22,-1,-1,-1,-1,24,26,-1,-1,28,-1,30,32,34,-1,-1,36,-1,-1,-1,-1,-1,-1,-1,-1],"split_conditions":[6.497141E-1,8.7074414E-2,7.462058E0,-2.9404001E-2,2.9858718E0,-6.830771E-1,1.9838044E-1,6.382474E2,2.0156665E0,-7.06717E-2,3.5555973E0,-7.324625E-2,2.805554E1,2.1422394E-2,-2.0968874E-1,1.8777443E-1,-9.805609E-2,-4.601791E-1,5.549525E-1,-5.3992E-3,2.2998928E-1,6.657135E1,-7.014307E-2,5.4684436E-1,4.0766327E1,-5.155496E-1,-6.92904E-2,2.0120557E-2,7.672851E1,-1.1859308E-1,1.1642013E-1,-1.3714683E-1,1.17404036E-1,4.4835914E-2,1.8276876E-1,2.7021632E-1,6.124182E-2],"split_indices":[161,101,89,210,179,132,173,93,185,0,21,0,110,0,0,0,0,28,211,0,0,22,0,163,152,211,0,0,73,0,0,0,0,0,0,0,0],"split_type":[0,0,0,0,0,0,0,0,0,0,0,0,0,0,0,0,0,0,0,0,0,0,0,0,0,0,0,0,0,0,0,0,0,0,0,0,0],"sum_hessian":[5.3628464E1,4.0810318E1,1.2818148E1,3.51555E1,5.6548185E0,1.0234868E1,2.58328E0,4.3275323E0,3.0827967E1,1.7889876E0,3.8658307E0,1.6848732E0,8.549994E0,1.1070455E0,1.4762344E0,2.7117648E0,1.6157677E0,2.7478601E1,3.349365E0,1.1675117E0,2.698319E0,7.352168E0,1.1978264E0,6.4099417E0,2.1068659E1,2.2587404E0,1.0906246E0,1.1699572E0,6.182211E0,2.2710779E0,4.1388636E0,1.9847162E1,1.2214973E0,1.0640774E0,1.194663E0,5.117787E0,1.0644244E0],"tree_param":{"num_deleted":"0","num_feature":"225","num_nodes":"37","size_leaf_vector":"0"}},{"base_weights":[1.2519313E-2,2.9887232E-1,-5.4061413E-2,-1.8417607E-1,4.7302896E-1,-2.4759147E-1,1.1855608E-1,2.3952135E-1,-5.391119E-1,-2.3627028E-2,6.114207E-1,-3.6116138E-1,3.3682406E-1,3.0838132E-1,-2.3447622E-1,9.17768E-2,7.387507E-1,1.614659E-1,-5.123943E-1,-1.8778665E-1,6.666132E-1,-9.582619E-2,5.154023E-1,8.2818426E-2,-6.196176E-1,-3.3719084E-1,5.5649745E-1,1.2327842E-1,-5.971156E-1,2.1073882E-1,-5.539288E-1,-2.2859988E-1,6.506239E-1,-2.571156E-1,4.1011426E-1,-7.340416E-1,-1.5460752E-1,-7.2614795E-1,1.8568411E-2,-2.545483E-1,5.046872E-1,-1.7718641E-2,7.69774E-1,-5.4311764E-1,1.8688236E-1,8.1168674E-2,5.611849E-1],"categories":[],"categories_nodes":[],"categories_segments":[],"categories_sizes":[],"default_left":[1,1,1,1,1,1,1,0,0,0,1,1,1,1,1,0,0,1,1,0,0,1,1,1,1,0,0,0,1,1,0,0,1,1,1,0,0,0,0,0,0,0,0,0,0,0,0],"id":22,"left_children":[1,3,5,7,9,11,13,-1,-1,-1,15,17,19,21,23,-1,-1,25,27,-1,-1,29,31,33,35,-1,-1,-1,37,39,-1,-1,41,43,45,-1,-1,-1,-1,-1,-1,-1,-1,-1,-1,-1,-1],"loss_changes":[9.986795E-1,9.178651E-1,1.4544417E0,6.309035E-1,5.325836E-1,1.4779572E0,1.6286402E0,0E0,0E0,0E0,3.2475185E-1,1.4732206E0,7.899629E-1,1.3493412E0,1.1131315E0,0E0,0E0,1.1151776E0,8.2132864E-1,0E0,0E0,9.7408754E-1,1.1980503E0,7.336356E-1,1.0161924E-1,0E0,0E0,0E0,1.0003438E0,7.277593E-1,0E0,0E0,7.3718214E-1,5.312485E-1,1.1654693E-1,0E0,0E0,0E0,0E0,0E0,0E0,0E0,0E0,0E0,0E0,0E0,0E0],"parents":[2147483647,0,0,1,1,2,2,3,3,4,4,5,5,6,6,10,10,11,11,12,12,13,13,14,14,17,17,18,18,21,21,22,22,23,23,24,24,28,28,29,29,32,32,33,33,34,34],"right_children":[2,4,6,8,10,12,14,-1,-1,-1,16,18,20,22,24,-1,-1,26,28,-1,-1,30,32,34,36,-1,-1,-1,38,40,-1,-1,42,44,46,-1,-1,-1,-1,-1,-1,-1,-1,-1,-1,-1,-1],"split_conditions":[-1.0168068E0,-1.497858E-1,1.6950339E0,-6.096038E-1,-5.354692E-2,3.685E0,1.3967626E-1,7.185641E-2,-1.6173358E-1,-7.0881085E-3,-1.6993287E-1,-2.329928E-2,6.223979E-2,2.4854574E0,9.863158E-4,2.7533041E-2,2.2162522E-1,6.5940876E0,5.212889E-3,-5.6335997E-2,1.9998397E-1,1.8736675E1,4.1870756E0,-1.8370178E-1,5.675E2,-1.01157255E-1,1.6694924E-1,3.6983527E-2,1.1494931E2,3.966533E-4,-1.6617864E-1,-6.8579964E-2,3.4314213E0,2.7761127E2,3.7490537E0,-2.2021247E-1,-4.6382256E-2,-2.178444E-1,5.5705234E-3,-7.6364495E-2,1.5140617E-1,-5.3155925E-3,2.3093222E-1,-1.629353E-1,5.606471E-2,2.4350604E-2,1.6835546E-1],"split_indices":[208,172,208,172,2,153,106,0,0,0,170,53,178,147,30,0,0,110,47,0,0,146,143,105,0,0,0,0,159,89,0,0,14,144,134,0,0,0,0,0,0,0,0,0,0,0,0],"split_type":[0,0,0,0,0,0,0,0,0,0,0,0,0,0,0,0,0,0,0,0,0,0,0,0,0,0,0,0,0,0,0,0,0,0,0,0,0,0,0,0,0,0,0,0,0,0,0],"sum_hessian":[5.0533783E1,8.874992E0,4.165879E1,2.3365912E0,6.5384016E0,1.9434958E1,2.2223833E1,1.2133497E0,1.1232414E0,1.6055884E0,4.932813E0,1.6592531E1,2.8424263E0,1.4534903E1,7.6889296E0,1.3094839E0,3.6233292E0,3.7086384E0,1.2883892E1,1.2633474E0,1.579079E0,5.104842E0,9.43006E0,4.646185E0,3.0427442E0,1.704028E0,2.0046105E0,1.4616761E0,1.1422216E1,3.381738E0,1.7231045E0,1.3441051E0,8.085956E0,2.3842719E0,2.2619133E0,1.9775765E0,1.0651677E0,9.294829E0,2.1273866E0,1.3611803E0,2.0205576E0,1.3522334E0,6.733722E0,1.3143728E0,1.069899E0,1.1956846E0,1.0662287E0],"tree_param":{"num_deleted":"0","num_feature":"225","num_nodes":"47","size_leaf_vector":"0"}},{"base_weights":[1.1982339E-2,5.962184E-1,-1.8761698E-2,-5.2317336E-2,5.215554E-1,-1.527934E-1,1.7951186E-1,-2.6808643E-1,2.0763098E-1,3.8420734E-1,-3.3020058E-1,6.606448E-2,-3.6406127E-1,5.152065E-1,-1.3523877E-1,4.9353283E-2,6.3971895E-1,-5.91055E-1,2.0091319E-1,-4.2315254E-1,2.9232916E-1,2.017204E-2,-4.9754024E-1,7.776917E-1,-1.7224284E-1,-4.177521E-1,3.6865768E-1,4.1211456E-1,-3.8347414E-1,8.566383E-2,7.409815E-1],"categories":[],"categories_nodes":[],"categories_segments":[],"categories_sizes":[],"default_left":[1,0,1,1,0,1,1,1,1,1,1,1,1,1,1,1,1,0,0,0,0,0,0,0,0,0,0,0,0,0,0],"id":23,"left_children":[1,-1,3,5,-1,7,9,11,13,15,17,19,21,23,25,27,29,-1,-1,-1,-1,-1,-1,-1,-1,-1,-1,-1,-1,-1,-1],"loss_changes":[8.683316E-1,0E0,8.668166E-1,1.0641122E0,0E0,1.3683302E0,1.578863E0,8.055918E-1,9.3647575E-1,8.5750103E-1,7.456927E-1,8.1930083E-1,9.8888516E-1,9.5328045E-1,8.200645E-1,1.0343236E0,2.625141E-1,0E0,0E0,0E0,0E0,0E0,0E0,0E0,0E0,0E0,0E0,0E0,0E0,0E0,0E0],"parents":[2147483647,0,0,2,2,3,3,5,5,6,6,7,7,8,8,9,9,10,10,11,11,12,12,13,13,14,14,15,15,16,16],"right_children":[2,-1,4,6,-1,8,10,12,14,16,18,20,22,24,26,28,30,-1,-1,-1,-1,-1,-1,-1,-1,-1,-1,-1,-1,-1,-1],"split_conditions":[1.455E2,1.7886552E-1,8.708764E-2,3.235574E-1,1.5646663E-1,1.4189344E1,1.6847664E1,-7.228737E-1,1.016504E3,3.9640992E0,6.2622826E1,-1.9019436E-2,2.2048783E-1,2.1055374E0,1.3659982E-3,1.3779874E-1,-7.7953327E-1,-1.773165E-1,6.027396E-2,-1.2694576E-1,8.769875E-2,6.0516126E-3,-1.4926207E-1,2.3330753E-1,-5.1672854E-2,-1.2532564E-1,1.10597305E-1,1.23634376E-1,-1.1504225E-1,2.5699152E-2,2.2229446E-1],"split_indices":[0,0,31,105,0,137,194,105,115,128,133,30,93,200,29,86,103,0,0,0,0,0,0,0,0,0,0,0,0,0,0],"split_type":[0,0,0,0,0,0,0,0,0,0,0,0,0,0,0,0,0,0,0,0,0,0,0,0,0,0,0,0,0,0,0],"sum_hessian":[4.672053E1,1.416149E0,4.5304382E1,4.3505695E1,1.7986873E0,3.058912E1,1.29165745E1,2.3369764E1,7.2193575E0,9.391335E0,3.5252397E0,5.2840824E0,1.8085682E1,3.5405936E0,3.6787639E0,4.5809913E0,4.8103437E0,2.288428E0,1.2368118E0,1.3958614E0,3.8882208E0,4.881795E0,1.3203887E1,2.467261E0,1.0733325E0,2.4667296E0,1.2120342E0,2.5182505E0,2.062741E0,1.0285608E0,3.7817826E0],"tree_param":{"num_deleted":"0","num_feature":"225","num_nodes":"31","size_leaf_vector":"0"}},{"base_weights":[2.0760847E-2,7.589126E-2,-2.718446E-1,-1.3506152E-1,1.7608936E-1,3.8559094E-1,-4.5558566E-1,3.2883865E-1,-2.8815752E-1,5.425323E-1,6.79559E-2,-6.368329E-2,-6.9035846E-1,6.519547E-1,-1.3812654E-1,-4.1927254E-1,2.6253474E-1,6.9091815E-1,-7.103476E-2,-4.6425825E-1,1.6744335E-1,-3.1624848E-1,2.667461E-1,1.3289176E-1,-5.736022E-1,7.652829E-1,2.082195E-1,-2.6368141E-2,-6.392528E-1,-1.1742387E-2,4.2645958E-1,-7.218597E-1,1.22091584E-1,1.8321638E-1,-3.2651743E-1,5.8465064E-1,-7.975902E-2],"categories":[],"categories_nodes":[],"categories_segments":[],"categories_sizes":[],"default_left":[1,1,1,1,1,0,1,1,1,1,1,1,0,0,0,1,0,1,0,1,1,0,0,0,1,0,0,0,0,1,1,0,0,0,0,0,0],"id":24,"left_children":[1,3,5,7,9,-1,11,13,15,17,19,21,-1,-1,-1,23,-1,25,-1,27,29,-1,-1,-1,31,-1,-1,-1,-1,33,35,-1,-1,-1,-1,-1,-1],"loss_changes":[7.4742466E-1,8.4164447E-1,1.0648904E0,1.0198864E0,1.0198107E0,0E0,5.275605E-1,6.4820385E-1,8.5571563E-1,5.8924603E-1,1.2285309E0,3.705016E-1,0E0,0E0,0E0,8.1981766E-1,0E0,1.5494108E-2,0E0,2.6575E-1,8.88978E-1,0E0,0E0,0E0,8.1094766E-1,0E0,0E0,0E0,0E0,8.104277E-1,6.7244923E-1,0E0,0E0,0E0,0E0,0E0,0E0],"parents":[2147483647,0,0,1,1,2,2,3,3,4,4,6,6,7,7,8,8,9,9,10,10,11,11,15,15,17,17,19,19,20,20,24,24,29,29,30,30],"right_children":[2,4,6,8,10,-1,12,14,16,18,20,22,-1,-1,-1,24,-1,26,-1,28,30,-1,-1,-1,32,-1,-1,-1,-1,34,36,-1,-1,-1,-1,-1,-1],"split_conditions":[3.6745674E1,1.7662268E0,-1.2779484E0,4.4837303E0,2.4093078E-1,1.1567729E-1,5.693156E-1,-1.2589124E-2,7.3683414E0,1.7015991E1,1.7849529E0,7.944081E-1,-2.0710754E-1,1.9558643E-1,-4.143796E-2,2.9783905E0,7.876042E-2,4.932937E2,-2.1310428E-2,6.003207E-1,3.063881E-4,-9.4874546E-2,8.002383E-2,3.9867528E-2,3.5790873E0,2.2958489E-1,6.246585E-2,-7.910443E-3,-1.9177584E-1,2.744482E-3,9.420332E-1,-2.1655792E-1,3.6627475E-2,5.4964915E-2,-9.7955234E-2,1.7539519E-1,-2.3927705E-2],"split_indices":[141,34,10,117,93,0,109,29,208,4,93,123,0,0,0,33,0,127,0,69,87,0,0,0,106,0,0,0,0,169,204,0,0,0,0,0,0],"split_type":[0,0,0,0,0,0,0,0,0,0,0,0,0,0,0,0,0,0,0,0,0,0,0,0,0,0,0,0,0,0,0,0,0,0,0,0,0],"sum_hessian":[4.405446E1,3.7693233E1,6.361226E0,1.2026086E1,2.5667147E1,1.1495429E0,5.2116833E0,2.6992111E0,9.326875E0,4.932986E0,2.0734161E1,2.4287186E0,2.7829645E0,1.3611869E0,1.3380244E0,7.726021E0,1.6008538E0,3.8707988E0,1.0621867E0,2.6880064E0,1.8046154E1,1.4008722E0,1.0278463E0,1.71805E0,6.007971E0,2.8467946E0,1.0240043E0,1.0960449E0,1.5919616E0,1.123117E1,6.8149843E0,4.921542E0,1.0864284E0,7.1936584E0,4.037512E0,5.074339E0,1.7406453E0],"tree_param":{"num_deleted":"0","num_feature":"225","num_nodes":"37","size_leaf_vector":"0"}},{"base_weights":[1.9179113E-2,1.785071E-1,-8.223109E-2,-1.6311772E-1,2.966134E-1,2.8894317E-1,-1.636334E-1,-4.8200604E-1,2.4288873E-1,3.9706045E-1,-1.9679727E-1,5.5131555E-1,-2.52037E-1,-2.3226567E-1,3.07342E-1,-1.2534115E-1,-5.991828E-1,-1.1459062E-1,5.50827E-1,1.1461536E-1,6.781973E-1,3.1984E-1,-2.978558E-1,5.056723E-1,-5.2928142E-2,-3.676645E-1,2.2954443E-1,6.809404E-1,1.0845666E-2,-4.6236756E-1,-5.2087963E-2,8.204993E-1,8.8837974E-2,-1.0703245E-1,-5.943038E-1,-2.5992793E-1,4.020865E-1],"categories":[],"categories_nodes":[],"categories_segments":[],"categories_sizes":[],"default_left":[1,1,1,1,1,1,1,1,0,1,0,1,0,1,1,0,0,1,1,0,0,0,1,0,0,0,0,1,0,1,1,0,0,0,0,0,0],"id":25,"left_children":[1,3,5,7,9,11,13,15,-1,17,-1,19,-1,21,23,-1,-1,25,27,-1,-1,-1,29,-1,-1,-1,-1,31,-1,33,35,-1,-1,-1,-1,-1,-1],"loss_changes":[7.00821E-1,7.2751516E-1,8.520138E-1,7.604581E-1,7.156277E-1,8.702278E-1,7.980948E-1,5.5222273E-2,0E0,9.299818E-1,0E0,1.3189006E-1,0E0,8.264754E-1,2.6183566E-1,0E0,0E0,3.7823614E-1,5.999572E-1,0E0,0E0,0E0,7.26562E-1,0E0,0E0,0E0,0E0,5.0138307E-1,0E0,4.5182562E-1,9.1361284E-1,0E0,0E0,0E0,0E0,0E0,0E0],"parents":[2147483647,0,0,1,1,2,2,3,3,4,4,5,5,6,6,7,7,9,9,11,11,13,13,14,14,17,17,18,18,22,22,27,27,29,29,30,30],"right_children":[2,4,6,8,10,12,14,16,-1,18,-1,20,-1,22,24,-1,-1,26,28,-1,-1,-1,30,-1,-1,-1,-1,32,-1,34,36,-1,-1,-1,-1,-1,-1],"split_conditions":[3.5657668E-1,-7.6738317E-3,-5.396035E-1,1.024301E1,1.5371988E1,2.9505898E3,1.4647493E-1,1.9784265E0,7.2866626E-2,2.4922879E0,-5.9039183E-2,2.2013612E0,-7.56111E-2,1.4077902E0,1.6995064E1,-3.7602346E-2,-1.7975484E-1,9.950966E0,1.9020524E-2,3.438461E-2,2.034592E-1,9.595201E-2,4.192646E-1,1.5170169E-1,-1.5878443E-2,-1.1029935E-1,6.886333E-2,3.8130737E1,3.2537E-3,-3.565811E-1,1.020196E0,2.461498E-1,2.6651394E-2,-3.2109737E-2,-1.7829114E-1,-7.797838E-2,1.2062595E-1],"split_indices":[71,59,193,4,171,54,191,197,0,147,0,147,0,100,12,0,0,216,44,0,0,0,222,0,0,0,0,141,0,10,91,0,0,0,0,0,0],"split_type":[0,0,0,0,0,0,0,0,0,0,0,0,0,0,0,0,0,0,0,0,0,0,0,0,0,0,0,0,0,0,0,0,0,0,0,0,0],"sum_hessian":[4.1465904E1,1.5831853E1,2.563405E1,3.969342E0,1.1862511E1,4.1520715E0,2.148198E1,2.1183472E0,1.8509947E0,1.0018291E1,1.8442196E0,2.7831528E0,1.3689185E0,1.919208E1,2.2898986E0,1.03566E0,1.0826873E0,2.3739288E0,7.6443624E0,1.055088E0,1.7280649E0,1.6263039E0,1.7565777E1,1.2165762E0,1.0733224E0,1.3285513E0,1.0453774E0,5.949687E0,1.6946751E0,9.9944105E0,7.571366E0,4.502667E0,1.44702E0,3.1965628E0,6.7978473E0,5.4877467E0,2.083619E0],"tree_param":{"num_deleted":"0","num_feature":"225","num_nodes":"37","size_leaf_vector":"0"}},{"base_weights":[2.2539863E-2,6.2643066E-2,-4.166286E-1,-1.7299946E-2,3.90545E-1,-6.1045647E-1,1.8640603E-3,4.810864E-2,-4.4668502E-1,-1.1977158E-1,5.18168E-1,-3.2836117E-2,5.416322E-1,-6.1047417E-1,3.2612767E-2,6.832185E-2,6.1974245E-1,6.103237E-2,-7.320162E-1,1.1299844E-2,7.227783E-1,7.32136E-1,1.335041E-1,-1.7552607E-2,6.710643E-1],"categories":[],"categories_nodes":[],"categories_segments":[],"categories_sizes":[],"default_left":[1,1,1,1,1,0,0,1,1,0,1,1,1,0,0,0,1,1,0,0,0,0,0,0,0],"id":26,"left_children":[1,3,5,7,9,-1,-1,11,13,-1,15,17,19,-1,-1,-1,21,23,-1,-1,-1,-1,-1,-1,-1],"loss_changes":[7.3465073E-1,9.958956E-1,2.848031E-1,9.004305E-1,5.465356E-1,0E0,0E0,1.1387684E0,3.5231453E-1,0E0,2.381376E-1,1.6887264E0,3.7716544E-1,0E0,0E0,0E0,1.6915405E-1,1.1147645E0,0E0,0E0,0E0,0E0,0E0,0E0,0E0],"parents":[2147483647,0,0,1,1,2,2,3,3,4,4,7,7,8,8,10,10,11,11,12,12,16,16,17,17],"right_children":[2,4,6,8,10,-1,-1,12,14,-1,16,18,20,-1,-1,-1,22,24,-1,-1,-1,-1,-1,-1,-1],"split_conditions":[9.405E2,7.315E2,5.2651687E0,6.59E2,-7.396319E-1,-1.8313694E-1,5.592181E-4,5.995E2,3.6791466E-2,-3.5931475E-2,-6.706112E-4,5.485E2,3.6011062E0,-1.8314226E-1,9.7838305E-3,2.0496555E-2,2.7629686E1,5.095E2,-2.1960486E-1,3.3899534E-3,2.168335E-1,2.196408E-1,4.005123E-2,-5.265782E-3,2.013193E-1],"split_indices":[0,0,214,0,29,0,0,0,101,0,67,0,182,0,0,0,67,0,0,0,0,0,0,0,0],"split_type":[0,0,0,0,0,0,0,0,0,0,0,0,0,0,0,0,0,0,0,0,0,0,0,0,0],"sum_hessian":[3.9231056E1,3.6734005E1,2.4970505E0,3.0295223E1,6.438782E0,1.393116E0,1.1039345E0,2.7060963E1,3.23426E0,1.3004175E0,5.138365E0,2.4049908E1,3.0110552E0,2.2065403E0,1.0277197E0,1.2546195E0,3.8837452E0,2.2007938E1,2.0419693E0,1.0371181E0,1.9739372E0,2.7438033E0,1.1399419E0,2.0356783E1,1.6511562E0],"tree_param":{"num_deleted":"0","num_feature":"225","num_nodes":"25","size_leaf_vector":"0"}},{"base_weights":[1.9686917E-2,4.6328577E-1,-1.6035555E-2,2.6033688E-2,-4.1426983E-1,4.35699E-1,-3.849423E-2,-9.287072E-3,-5.91853E-1,6.208751E-1,-4.255048E-2,1.2992583E-1,-1.9077675E-1,-3.0331412E-1,2.6586348E-1,-4.1929272E-1,3.402731E-2,1.1367374E-1,-5.1754355E-1,-1.1567747E-1,4.0759054E-1,8.539996E-2,-5.4556096E-1,-3.0422825E-1,2.393275E-1],"categories":[],"categories_nodes":[],"categories_segments":[],"categories_sizes":[],"default_left":[1,0,1,1,1,1,1,0,0,0,0,1,1,1,1,1,1,0,0,0,0,0,0,0,0],"id":27,"left_children":[1,-1,3,5,7,9,11,-1,-1,-1,-1,13,15,17,19,21,23,-1,-1,-1,-1,-1,-1,-1,-1],"loss_changes":[6.1469716E-1,0E0,6.211545E-1,9.127133E-1,2.4910164E-1,4.4205385E-1,7.993187E-1,0E0,0E0,0E0,0E0,9.6019673E-1,8.4979767E-1,4.1919026E-1,6.9067526E-1,5.6537294E-1,7.064021E-1,0E0,0E0,0E0,0E0,0E0,0E0,0E0,0E0],"parents":[2147483647,0,0,2,2,3,3,4,4,5,5,6,6,11,11,12,12,13,13,14,14,15,15,16,16],"right_children":[2,-1,4,6,8,10,12,-1,-1,-1,-1,14,16,18,20,22,24,-1,-1,-1,-1,-1,-1,-1,-1],"split_conditions":[1.605E2,1.3898574E-1,3.605527E2,-3.196361E-1,3.1142498E1,7.6907883E0,6.1177766E-1,-2.7861218E-3,-1.7755592E-1,1.8626255E-1,-1.2765145E-2,1.7006177E-1,7.830266E0,1.0403605E1,1.105561E0,9.1972786E-1,-6.4302534E-3,3.4102123E-2,-1.5526307E-1,-3.4703244E-2,1.2227716E-1,2.561999E-2,-1.6366829E-1,-9.126848E-2,7.179826E-2],"split_indices":[0,0,130,80,217,171,109,0,0,0,0,51,146,220,34,74,151,0,0,0,0,0,0,0,0],"split_type":[0,0,0,0,0,0,0,0,0,0,0,0,0,0,0,0,0,0,0,0,0,0,0,0,0],"sum_hessian":[3.7322037E1,1.8894882E0,3.543255E1,3.2892437E1,2.540111E0,3.6932402E0,2.9199196E1,1.0950713E0,1.4450396E0,2.4473948E0,1.2458453E0,1.3934668E1,1.5264529E1,3.0339727E0,1.0900694E1,7.1407375E0,8.123792E0,1.1890074E0,1.8449653E0,3.0022342E0,7.8984604E0,1.4937798E0,5.646958E0,2.886342E0,5.237449E0],"tree_param":{"num_deleted":"0","num_feature":"225","num_nodes":"25","size_leaf_vector":"0"}},{"base_weights":[1.2669668E-2,-6.268358E-2,2.1033354E-1,1.9765234E-1,-1.5294E-1,3.9291984E-1,-1.1327747E-1,-7.0909075E-2,3.815932E-1,-2.4096444E-1,2.5502256E-1,-8.284232E-3,5.7606786E-1,-4.462231E-1,3.7592688E-1,1.8034647E-1,-3.6395586E-1,-4.8277736E-2,5.1705086E-1,-3.03112E-1,2.2384898E-1,-1.3576245E-1,5.260528E-1,2.474615E-1,-2.714757E-1,7.243071E-1,3.6089066E-2,-4.1383174E-3,-4.273035E-1,3.0255872E-1,-3.0055434E-1,-5.8159906E-1,2.7214479E-2],"categories":[],"categories_nodes":[],"categories_segments":[],"categories_sizes":[],"default_left":[1,1,1,1,1,1,1,1,1,1,1,1,1,0,0,0,0,0,0,1,0,0,0,0,0,0,0,1,1,0,0,0,0],"id":28,"left_children":[1,3,5,7,9,11,13,15,17,19,21,23,25,-1,-1,-1,-1,-1,-1,27,-1,-1,-1,-1,-1,-1,-1,29,31,-1,-1,-1,-1],"loss_changes":[5.587629E-1,6.714595E-1,6.5542865E-1,3.9566404E-1,8.0940473E-1,5.069108E-1,9.016183E-1,3.510613E-1,2.919591E-1,5.775887E-1,5.1438147E-1,2.777019E-1,3.505615E-1,0E0,0E0,0E0,0E0,0E0,0E0,5.919256E-1,0E0,0E0,0E0,0E0,0E0,0E0,0E0,6.093442E-1,8.073976E-1,0E0,0E0,0E0,0E0],"parents":[2147483647,0,0,1,1,2,2,3,3,4,4,5,5,6,6,7,7,8,8,9,9,10,10,11,11,12,12,19,19,27,27,28,28],"right_children":[2,4,6,8,10,12,14,16,18,20,22,24,26,-1,-1,-1,-1,-1,-1,28,-1,-1,-1,-1,-1,-1,-1,30,32,-1,-1,-1,-1],"split_conditions":[9.493311E-1,-2.5007796E-1,1.2586682E3,9.003424E2,2.4310602E1,-3.3534425E-1,6.2110545E-3,1.5948339E0,-7.776593E-1,1.7159845E0,1.4122804E0,7.741759E-1,6.27365E-3,-1.3386694E-1,1.1277807E-1,5.4103944E-2,-1.0918676E-1,-1.4483321E-2,1.5511526E-1,-2.1321097E-1,6.71547E-2,-4.0728737E-2,1.5781584E-1,7.423845E-2,-8.1442714E-2,2.1729214E-1,1.082672E-2,1.927789E0,9.526324E-1,9.076762E-2,-9.01663E-2,-1.7447972E-1,8.164344E-3],"split_indices":[170,222,149,97,3,211,59,124,103,91,136,36,30,0,0,0,0,0,0,60,0,0,0,0,0,0,0,7,161,0,0,0,0],"split_type":[0,0,0,0,0,0,0,0,0,0,0,0,0,0,0,0,0,0,0,0,0,0,0,0,0,0,0,0,0,0,0,0,0],"sum_hessian":[3.5629242E1,2.6289904E1,9.339336E0,6.4617405E0,1.9828163E1,5.8337E0,3.5056362E0,2.8764715E0,3.5852692E0,1.6645893E1,3.1822703E0,2.127646E0,3.7060542E0,2.1382396E0,1.3673965E0,1.7557172E0,1.1207542E0,1.0132728E0,2.5719965E0,1.4989603E1,1.6562904E0,1.5076097E0,1.6746606E0,1.1093987E0,1.0182474E0,2.6399515E0,1.0661029E0,4.702445E0,1.0287158E1,2.3009572E0,2.4014878E0,7.471281E0,2.815877E0],"tree_param":{"num_deleted":"0","num_feature":"225","num_nodes":"33","size_leaf_vector":"0"}},{"base_weights":[1.8660564E-2,5.451705E-2,-3.5762998E-1,-1.7726842E-2,3.506591E-1,-5.521188E-1,2.8978135E-2,-7.3353566E-2,3.686308E-1,-8.1324875E-2,4.70902E-1,5.141255E-1,-1.2881261E-1,-1.3495494E-2,5.778114E-1,3.2645945E-2,6.178859E-1,8.002145E-2,-2.4853787E-1,3.2080817E-1,-2.2604783E-1,-4.3670517E-1,8.3797365E-2],"categories":[],"categories_nodes":[],"categories_segments":[],"categories_sizes":[],"default_left":[1,1,1,1,1,0,0,1,1,0,1,0,1,0,0,0,0,1,1,0,0,0,0],"id":29,"left_children":[1,3,5,7,9,-1,-1,11,13,-1,15,-1,17,-1,-1,-1,-1,19,21,-1,-1,-1,-1],"loss_changes":[4.884587E-1,7.037007E-1,2.5331226E-1,6.1075103E-1,3.7288767E-1,0E0,0E0,8.6692023E-1,2.942946E-1,0E0,3.139056E-1,0E0,6.013335E-1,0E0,0E0,0E0,0E0,7.5278544E-1,9.7616076E-1,0E0,0E0,0E0,0E0],"parents":[2147483647,0,0,1,1,2,2,3,3,4,4,7,7,8,8,10,10,12,12,17,17,18,18],"right_children":[2,4,6,8,10,-1,-1,12,14,-1,16,-1,18,-1,-1,-1,-1,20,22,-1,-1,-1,-1],"split_conditions":[9.405E2,7.315E2,6.2589407E-1,6.6034355E3,1.2426416E0,-1.6563565E-1,8.693441E-3,1.59E2,7.787749E0,-2.4397464E-2,2.4720725E-1,1.5423766E-1,2.0737948E0,-4.0486483E-3,1.7334343E-1,9.793784E-3,1.8536577E-1,9.550241E0,1.2376902E-1,9.624246E-2,-6.781435E-2,-1.3101156E-1,2.513921E-2],"split_indices":[0,0,10,202,148,0,0,0,25,0,40,0,33,0,0,0,0,82,105,0,0,0,0],"split_type":[0,0,0,0,0,0,0,0,0,0,0,0,0,0,0,0,0,0,0,0,0,0,0],"sum_hessian":[3.3757328E1,3.1601189E1,2.1561372E0,2.6159674E1,5.4415154E0,1.1496698E0,1.0064673E0,2.3575481E1,2.5841932E0,1.2553203E0,4.186195E0,1.3202002E0,2.2255281E1,1.2451202E0,1.339073E0,1.358303E0,2.827892E0,8.230548E0,1.4024734E1,4.5795946E0,3.6509528E0,8.754123E0,5.2706103E0],"tree_param":{"num_deleted":"0","num_feature":"225","num_nodes":"23","size_leaf_vector":"0"}},{"base_weights":[2.2182062E-2,6.338555E-2,-3.072399E-1,-2.8702542E-2,2.8391775E-1,9.164818E-2,-5.178066E-1,-1.3967931E-1,3.2156187E-1,4.231529E-1,-3.3830217E-1,6.4290725E-2,-3.664873E-1,-1.9394428E-1,4.7635734E-1,5.2870905E-1,-5.833461E-2,-3.611462E-1,2.094629E-1,1.0155841E-1,-4.8204625E-1,-3.9108735E-2,6.3155437E-1,6.5238506E-1,-7.391631E-2,3.2552913E-1,-1.8728799E-1,9.730092E-2,-5.958494E-1,1.7484033E-1,7.637603E-1],"categories":[],"categories_nodes":[],"categories_segments":[],"categories_sizes":[],"default_left":[1,1,1,1,1,0,0,1,1,1,0,1,1,0,1,1,0,0,1,0,1,0,0,1,0,0,0,0,0,0,0],"id":30,"left_children":[1,3,5,7,9,-1,-1,11,13,15,-1,17,19,-1,21,23,-1,-1,25,-1,27,-1,-1,29,-1,-1,-1,-1,-1,-1,-1],"loss_changes":[4.7228095E-1,6.271539E-1,3.7332606E-1,9.16016E-1,9.289608E-1,0E0,0E0,8.4310055E-1,5.4681754E-1,4.3011868E-1,0E0,7.042515E-1,5.1070774E-1,0E0,3.9821267E-1,5.3586173E-1,0E0,0E0,4.3955845E-1,0E0,5.208688E-1,0E0,0E0,1.6061234E-1,0E0,0E0,0E0,0E0,0E0,0E0,0E0],"parents":[2147483647,0,0,1,1,2,2,3,3,4,4,7,7,8,8,9,9,11,11,12,12,14,14,15,15,18,18,20,20,23,23],"right_children":[2,4,6,8,10,-1,-1,12,14,16,-1,18,20,-1,22,24,-1,-1,26,-1,28,-1,-1,30,-1,-1,-1,-1,-1,-1,-1],"split_conditions":[7.80409E2,3.8590294E-1,1.8077747E0,1.1481171E3,8.335089E4,2.7494455E-2,-1.5534198E-1,6.342138E-4,5.321314E0,2.9344791E1,-1.01490654E-1,-7.193719E-2,-8.5983396E-1,-5.8183286E-2,6.200125E1,3.3052194E0,-1.7500384E-2,-1.0834387E-1,2.8716019E1,3.0467523E-2,-2.9224324E-1,-1.1732621E-2,1.8946631E-1,-3.079824E-1,-2.2174893E-2,9.7658746E-2,-5.6186397E-2,2.9190276E-2,-1.7875482E-1,5.2452102E-2,2.291281E-1],"split_indices":[93,139,33,144,57,0,0,94,116,141,0,59,72,0,180,24,0,0,25,0,60,0,0,105,0,0,0,0,0,0,0],"split_type":[0,0,0,0,0,0,0,0,0,0,0,0,0,0,0,0,0,0,0,0,0,0,0,0,0,0,0,0,0,0,0],"sum_hessian":[3.2359993E1,2.9480246E1,2.8797495E0,2.1409912E1,8.0703335E0,1.1900767E0,1.6896728E0,1.6715149E1,4.694762E0,6.85607E0,1.2142637E0,9.17792E0,7.537228E0,1.0257759E0,3.6689866E0,5.542843E0,1.3132273E0,1.9565138E0,7.221407E0,1.5164282E0,6.0208E0,1.0221288E0,2.6468577E0,4.5304856E0,1.0123572E0,5.7258644E0,1.4955426E0,1.0123175E0,5.0084825E0,1.3427966E0,3.187689E0],"tree_param":{"num_deleted":"0","num_feature":"225","num_nodes":"31","size_leaf_vector":"0"}},{"base_weights":[1.605071E-2,1.9068599E-1,-5.8448907E-2,-2.1835275E-1,3.008056E-1,-3.129371E-1,9.025002E-2,4.3020326E-1,-2.445013E-1,-3.8602874E-2,-6.357651E-1,-7.222322E-2,2.8342548E-1,5.454205E-1,-8.517035E-2,3.0979884E-1,-2.3106179E-1,2.0059747E-1,-2.4026926E-1,-6.6341616E-2,4.704691E-1,-4.340091E-3,6.6671926E-1,1.0021589E-1,-4.6238366E-1,-2.0854223E-1,4.1556108E-1,1.5405078E-1,-4.4059148E-1,2.490626E-1,-3.188372E-1,5.7329774E-1,4.1216914E-2,-5.462924E-1,-4.8923966E-2],"categories":[],"categories_nodes":[],"categories_segments":[],"categories_sizes":[],"default_left":[1,1,1,0,1,1,1,1,0,1,0,1,1,1,0,0,1,1,1,1,1,0,0,0,0,0,0,0,1,0,0,0,0,0,0],"id":31,"left_children":[1,3,5,-1,7,9,11,13,-1,15,-1,17,19,21,-1,-1,23,25,27,29,31,-1,-1,-1,-1,-1,-1,-1,33,-1,-1,-1,-1,-1,-1],"loss_changes":[4.2165825E-1,5.012497E-1,8.94184E-1,0E0,6.7246187E-1,7.4270266E-1,4.9815327E-1,4.538008E-1,0E0,4.5700672E-1,0E0,4.637366E-1,4.9936885E-1,3.857777E-1,0E0,0E0,3.7397444E-1,4.3844754E-1,5.4686666E-1,3.4777611E-1,1.8762946E-1,0E0,0E0,0E0,0E0,0E0,0E0,0E0,1.5047032E-1,0E0,0E0,0E0,0E0,0E0,0E0],"parents":[2147483647,0,0,1,1,2,2,4,4,5,5,6,6,7,7,9,9,11,11,12,12,13,13,16,16,17,17,18,18,19,19,20,20,28,28],"right_children":[2,4,6,-1,8,10,12,14,-1,16,-1,18,20,22,-1,-1,24,26,28,30,32,-1,-1,-1,-1,-1,-1,-1,34,-1,-1,-1,-1,-1,-1],"split_conditions":[3.5244602E-1,3.7103438E0,1.4715716E0,-6.5505825E-2,2.6965473E1,1.0079254E0,8.980436E0,2.6553009E1,-7.335039E-2,6.234215E0,-1.9072953E-1,4.4834995E0,4.6795115E0,-1.7223416E-3,-2.5551107E-2,9.293965E-2,1.1479211E3,-8.141926E-3,-5.5958427E-2,-5.7431087E-2,2.6469074E1,-1.3020273E-3,2.0001578E-1,3.0064767E-2,-1.387151E-1,-6.2562674E-2,1.2466833E-1,4.6215236E-2,8.1945264E-1,7.471878E-2,-9.5651165E-2,1.7198932E-1,1.2365075E-2,-1.6388774E-1,-1.467719E-2],"split_indices":[119,25,119,0,68,71,126,25,0,100,0,117,111,165,0,0,149,59,28,96,111,0,0,0,0,0,0,0,78,0,0,0,0,0,0],"split_type":[0,0,0,0,0,0,0,0,0,0,0,0,0,0,0,0,0,0,0,0,0,0,0,0,0,0,0,0,0,0,0,0,0,0,0],"sum_hessian":[3.0553007E1,8.670006E0,2.1883001E1,1.6305327E0,7.0394735E0,7.663292E0,1.4219709E1,5.8600125E0,1.179461E0,4.7480497E0,2.9152424E0,8.063719E0,6.155991E0,4.741662E0,1.1183504E0,1.4725875E0,3.2754622E0,2.9998286E0,5.06389E0,2.3698127E0,3.7861784E0,1.0313784E0,3.7102835E0,1.579795E0,1.6956671E0,1.0435379E0,1.9562908E0,1.7837298E0,3.2801604E0,1.0596943E0,1.3101183E0,2.7837493E0,1.0024289E0,2.2721732E0,1.0079871E0],"tree_param":{"num_deleted":"0","num_feature":"225","num_nodes":"35","size_leaf_vector":"0"}},{"base_weights":[9.899469E-3,2.39038E-1,-4.815029E-2,-7.619038E-2,4.2738947E-1,-2.1166053E-1,8.7905474E-2,-3.0538338E-1,1.9561534E-1,9.172649E-3,5.654964E-1,-5.3306505E-2,-4.8706758E-1,2.1098508E-1,-1.9907926E-1,-3.8291743E-1,1.522955E-1,-7.635247E-2,-6.0652024E-1,-2.2879119E-1,3.1181335E-1,6.083715E-2,-4.7811463E-1,-5.862444E-1,4.2768307E-3,2.865901E-1,-1.6713133E-1,-1.5429747E-1,4.288549E-1,-2.7153367E-1,3.2881746E-1,-1.6039161E-1,4.6551618E-1,-3.7723143E-2,5.783122E-1],"categories":[],"categories_nodes":[],"categories_segments":[],"categories_sizes":[],"default_left":[1,1,1,1,1,1,1,0,0,0,0,1,1,1,1,1,1,0,0,0,1,1,0,0,0,1,0,0,1,0,0,0,0,0,0],"id":32,"left_children":[1,3,5,7,9,11,13,-1,-1,-1,-1,15,17,19,21,23,25,-1,-1,-1,27,29,-1,-1,-1,31,-1,-1,33,-1,-1,-1,-1,-1,-1],"loss_changes":[4.081388E-1,4.0037835E-1,5.663953E-1,2.5695157E-1,2.2753167E-1,4.745643E-1,5.416921E-1,0E0,0E0,0E0,0E0,6.2824404E-1,1.5322179E-1,5.318791E-1,3.743543E-1,2.7924943E-1,3.0076417E-1,0E0,0E0,0E0,5.501878E-1,3.8783154E-1,0E0,0E0,0E0,4.3602383E-1,0E0,0E0,5.347818E-1,0E0,0E0,0E0,0E0,0E0,0E0],"parents":[2147483647,0,0,1,1,2,2,3,3,4,4,5,5,6,6,11,11,12,12,13,13,14,14,15,15,16,16,20,20,21,21,25,25,28,28],"right_children":[2,4,6,8,10,12,14,-1,-1,-1,-1,16,18,20,22,24,26,-1,-1,-1,28,30,-1,-1,-1,32,-1,-1,34,-1,-1,-1,-1,-1,-1],"split_conditions":[-1.0168068E0,3.200656E-3,1.5848293E0,2.2796425E2,2.2044868E0,1.0596018E1,3.4562707E-1,-9.161502E-2,5.8684602E-2,2.7517949E-3,1.6964892E-1,1.7682162E2,8.191782E0,2.0248191E0,5.870484E-3,3.5225272E-2,7.695986E-1,-2.290574E-2,-1.8195608E-1,-6.863736E-2,4.1870756E0,8.1763E0,-1.4343439E-1,-1.7587332E-1,1.2830492E-3,2.76556E0,-5.01394E-2,-4.6289243E-2,2.4854574E0,-8.14601E-2,9.864524E-2,-4.8117485E-2,1.3965486E-1,-1.1316943E-2,1.7349367E-1],"split_indices":[208,172,208,57,84,85,106,0,0,0,0,196,81,179,30,105,95,0,0,0,143,25,0,0,0,126,0,0,147,0,0,0,0,0,0],"split_type":[0,0,0,0,0,0,0,0,0,0,0,0,0,0,0,0,0,0,0,0,0,0,0,0,0,0,0,0,0,0,0,0,0,0,0],"sum_hessian":[2.8818514E1,5.194917E0,2.3623596E1,2.1657567E0,3.0291607E0,1.0476895E1,1.3146701E1,1.1079618E0,1.0577949E0,1.0167236E0,2.012437E0,7.4098954E0,3.0669994E0,9.386093E0,3.7606075E0,2.5152118E0,4.894684E0,1.0603555E0,2.006644E0,1.5138991E0,7.8721943E0,2.351863E0,1.4087446E0,1.3121043E0,1.2031074E0,3.5183043E0,1.3763795E0,1.516101E0,6.356093E0,1.0438884E0,1.3079745E0,1.0353775E0,2.4829266E0,1.7234378E0,4.632655E0],"tree_param":{"num_deleted":"0","num_feature":"225","num_nodes":"35","size_leaf_vector":"0"}},{"base_weights":[-1.786E-3,-1.3626334E-1,9.57495E-2,-2.4313372E-1,1.637627E-1,-1.8031538E-1,1.9129299E-1,-4.3678185E-1,2.2426298E-2,-2.1239664E-1,4.2891085E-1,-3.7240514E-1,2.728974E-1,2.0026262E-3,3.7334022E-1,3.1335946E-2,-5.512269E-1,2.4816775E-1,-2.3501842E-1,-4.9831206E-1,-1.5043782E-2,-1.4700672E-1,3.2195148E-1,5.8879775E-1,-1.1141859E-3,-6.21188E-1,-1.5905571E-1,6.9942637E-3,3.6135754E-1,4.0207468E-2,-3.6112276E-1,2.4134149E-1,-2.9338947E-1,2.4163428E-1,-2.5119042E-1],"categories":[],"categories_nodes":[],"categories_segments":[],"categories_sizes":[],"default_left":[1,1,1,1,1,1,1,1,1,0,0,1,0,1,1,0,1,1,0,0,0,1,0,0,1,0,0,0,0,1,0,0,0,0,0],"id":33,"left_children":[1,3,5,7,9,11,13,15,17,-1,-1,19,-1,21,23,-1,25,27,-1,-1,-1,29,-1,-1,31,-1,-1,-1,-1,33,-1,-1,-1,-1,-1],"loss_changes":[3.8335156E-1,4.3360078E-1,4.8159888E-1,4.9617863E-1,4.7241458E-1,5.2586293E-1,4.4991994E-1,3.1291687E-1,3.4539545E-1,0E0,0E0,1.6552258E-1,0E0,4.0093166E-1,5.380745E-1,0E0,2.433598E-2,8.259608E-2,0E0,0E0,0E0,2.448806E-1,0E0,0E0,3.139424E-1,0E0,0E0,0E0,0E0,2.934693E-1,0E0,0E0,0E0,0E0,0E0],"parents":[2147483647,0,0,1,1,2,2,3,3,4,4,5,5,6,6,7,7,8,8,11,11,13,13,14,14,16,16,17,17,21,21,24,24,29,29],"right_children":[2,4,6,8,10,12,14,16,18,-1,-1,20,-1,22,24,-1,26,28,-1,-1,-1,30,-1,-1,32,-1,-1,-1,-1,34,-1,-1,-1,-1,-1],"split_conditions":[-2.4379808E-5,1.4240138E-3,2.4822907E0,5.623359E-1,-1.066968E0,4.4005E-1,1.0021969E-3,1.7436407E0,2.625212E0,-6.3719E-2,1.2867326E-1,2.413519E0,8.186922E-2,3.2630908E-1,8.153368E0,9.400784E-3,1.473562E1,7.37171E0,-7.050553E-2,-1.4949362E-1,-4.5131347E-3,3.209919E0,9.6585445E-2,1.7663933E-1,2.6784152E-1,-1.863564E-1,-4.7716714E-2,2.0982793E-3,1.0840727E-1,4.819287E-2,-1.0833683E-1,7.240245E-2,-8.8016845E-2,7.249029E-2,-7.535713E-2],"split_indices":[186,101,25,135,170,173,2,152,77,0,0,183,0,195,171,0,216,200,0,0,0,61,0,0,173,0,0,0,0,204,0,0,0,0,0],"split_type":[0,0,0,0,0,0,0,0,0,0,0,0,0,0,0,0,0,0,0,0,0,0,0,0,0,0,0,0,0,0,0,0,0,0,0],"sum_hessian":[2.7232355E1,1.1281244E1,1.595111E1,8.458073E0,2.823172E0,3.8730364E0,1.20780735E1,4.518439E0,3.9396334E0,1.2494948E0,1.5736773E0,2.8453586E0,1.0276777E0,6.416883E0,5.661191E0,1.0303131E0,3.4881258E0,2.1182618E0,1.8213717E0,1.8123899E0,1.0329689E0,4.746727E0,1.6701561E0,3.2301676E0,2.4310234E0,2.4645016E0,1.0236243E0,1.0157646E0,1.1024971E0,2.9657843E0,1.7809424E0,1.4240092E0,1.007014E0,1.8545883E0,1.111196E0],"tree_param":{"num_deleted":"0","num_feature":"225","num_nodes":"35","size_leaf_vector":"0"}},{"base_weights":[-3.005233E-3,3.6019012E-2,-3.5668552E-1,-3.428994E-2,3.1008363E-1,8.24475E-2,-1.9517528E-1,2.686378E-2,5.031088E-1,-8.0971956E-2,3.395552E-1,-4.0234995E-1,4.7360417E-2,-2.0113635E-1,2.590431E-1,-3.377817E-1,1.9397363E-1,-1.4215173E-1,4.9272656E-1,-6.16046E-1,4.808795E-2,3.948625E-1,-1.6489907E-1,-5.487939E-1,6.359448E-2,3.6640355E-1,-2.190399E-1,7.640828E-2,6.120463E-1,1.08936794E-1,-3.6966833E-1],"categories":[],"categories_nodes":[],"categories_segments":[],"categories_sizes":[],"default_left":[1,1,0,1,1,1,1,1,0,1,1,1,1,0,0,1,1,0,1,0,0,0,1,0,0,0,0,0,0,0,0],"id":34,"left_children":[1,3,-1,5,7,9,11,13,-1,15,17,19,21,-1,-1,23,25,-1,27,-1,-1,-1,29,-1,-1,-1,-1,-1,-1,-1,-1],"loss_changes":[3.8392064E-1,4.9471095E-1,0E0,4.0849584E-1,2.7232313E-1,5.6576276E-1,4.7542042E-1,2.2020848E-1,0E0,6.7557716E-1,4.5157355E-1,5.112535E-1,4.3972814E-1,0E0,0E0,4.44156E-1,4.2265332E-1,0E0,1.5925169E-1,0E0,0E0,0E0,2.566205E-1,0E0,0E0,0E0,0E0,0E0,0E0,0E0,0E0],"parents":[2147483647,0,0,1,1,3,3,4,4,5,5,6,6,7,7,9,9,10,10,11,11,12,12,15,15,16,16,18,18,22,22],"right_children":[2,4,-1,6,8,10,12,14,-1,16,18,20,22,-1,-1,24,26,-1,28,-1,-1,-1,30,-1,-1,-1,-1,-1,-1,-1,-1],"split_conditions":[9.405E2,7.315E2,-1.0700566E-1,4.64E2,1.00716166E-1,3.385E2,5.2707605E2,6.0135126E-1,1.5093264E-1,2.5157757E0,-8.525219E-1,6.065E2,5.485E2,-6.0340907E-2,7.771293E-2,9.816103E-2,1.354434E2,-4.264552E-2,1.5700632E-1,-1.8481381E-1,1.4426386E-2,1.18458755E-1,2.4649876E-1,-1.6463818E-1,1.9078346E-2,1.0992107E-1,-6.5711975E-2,2.2922486E-2,1.836139E-1,3.268104E-2,-1.1090051E-1],"split_indices":[0,0,0,0,173,0,57,132,0,90,162,0,0,0,0,184,215,0,112,0,0,0,50,0,0,0,0,0,0,0,0],"split_type":[0,0,0,0,0,0,0,0,0,0,0,0,0,0,0,0,0,0,0,0,0,0,0,0,0,0,0,0,0,0,0],"sum_hessian":[2.5885258E1,2.4121866E1,1.7633901E0,1.9893293E1,4.2285724E0,1.1810908E1,8.082386E0,2.1755817E0,2.0529907E0,7.6399612E0,4.170947E0,4.0035834E0,4.078803E0,1.1651282E0,1.0104536E0,3.832096E0,3.807865E0,1.0236439E0,3.147303E0,2.4660046E0,1.5375786E0,1.220451E0,2.858352E0,2.270935E0,1.561161E0,2.7659543E0,1.0419109E0,1.0665101E0,2.0807931E0,1.4231672E0,1.4351848E0],"tree_param":{"num_deleted":"0","num_feature":"225","num_nodes":"31","size_leaf_vector":"0"}},{"base_weights":[-2.59872E-3,-2.0550193E-1,6.0086206E-2,-3.4754488E-1,2.1585926E-1,-3.0933374E-1,1.0706933E-1,-4.8036355E-1,4.5635927E-2,3.1387907E-1,-2.154203E-2,-5.578361E-1,-1.3428347E-1,4.8268685E-1,-2.6746096E-2,2.3693712E-1,-1.3536017E-1,6.486254E-1,1.1473776E-1,2.3450376E-1,-2.4616021E-1,-1.3812836E-1,4.1906968E-1,-3.452296E-1,5.0966244E-2,-4.818287E-1,6.2257525E-2,2.1615912E-1,-2.3414075E-1],"categories":[],"categories_nodes":[],"categories_segments":[],"categories_sizes":[],"default_left":[1,1,1,1,0,0,1,1,0,1,1,0,0,1,1,1,1,0,0,0,0,0,0,1,1,0,0,0,0],"id":35,"left_children":[1,3,5,7,-1,-1,9,11,-1,13,15,-1,-1,17,19,21,23,-1,-1,-1,-1,-1,-1,25,27,-1,-1,-1,-1],"loss_changes":[3.3614302E-1,4.481841E-1,3.841176E-1,2.8543633E-1,0E0,0E0,5.037183E-1,2.8549075E-2,0E0,4.2853582E-1,3.985132E-1,0E0,0E0,2.23876E-1,2.4933435E-1,3.4284818E-1,3.8064522E-1,0E0,0E0,0E0,0E0,0E0,0E0,2.8019315E-1,3.232736E-1,0E0,0E0,0E0,0E0],"parents":[2147483647,0,0,1,1,2,2,3,3,6,6,7,7,9,9,10,10,13,13,14,14,15,15,16,16,23,23,24,24],"right_children":[2,4,6,8,-1,-1,10,12,-1,14,16,-1,-1,18,20,22,24,-1,-1,-1,-1,-1,-1,26,28,-1,-1,-1,-1],"split_conditions":[3.5831141E0,9.259066E-1,3.8770534E-4,1.0389698E0,6.475778E-2,-9.2800125E-2,7.826296E0,4.5054644E-1,1.3690779E-2,2.423079E1,-6.962004E-1,-1.6735084E-1,-4.0285043E-2,-4.3287328E-1,1.1335969E3,-7.558393E-2,1.9144433E0,1.9458762E-1,3.442133E-2,7.035113E-2,-7.384807E-2,-4.143851E-2,1.257209E-1,3.1486566E0,1.700716E1,-1.4454861E-1,1.8677259E-2,6.484774E-2,-7.0242226E-2],"split_indices":[216,185,121,66,0,0,81,162,0,133,208,0,0,106,8,172,208,0,0,0,0,0,0,134,131,0,0,0,0],"split_type":[0,0,0,0,0,0,0,0,0,0,0,0,0,0,0,0,0,0,0,0,0,0,0,0,0,0,0,0,0],"sum_hessian":[2.4457653E1,5.2348313E0,1.922282E1,4.046067E0,1.1887641E0,1.5388876E0,1.7683933E1,2.8586595E0,1.187408E0,6.228252E0,1.1455681E1,1.8358263E0,1.0228331E0,3.8855705E0,2.3426814E0,3.1715121E0,8.284169E0,2.152168E0,1.7334025E0,1.0379969E0,1.3046845E0,1.1156532E0,2.0558589E0,3.4948785E0,4.7892904E0,2.4808135E0,1.0140651E0,3.1854508E0,1.6038398E0],"tree_param":{"num_deleted":"0","num_feature":"225","num_nodes":"29","size_leaf_vector":"0"}},{"base_weights":[-3.3995644E-3,-7.347988E-2,1.8394753E-1,1.5918036E-1,-1.578859E-1,3.459944E-1,-1.1588872E-1,-9.779665E-2,3.3662227E-1,2.2365087E-1,-2.2533199E-1,4.5958477E-1,-3.778019E-2,1.1702304E-1,-2.8067845E-1,4.9311036E-1,3.0415691E-2,-3.1580713E-2,-3.9128762E-1,5.572023E-1,9.633076E-2,-1.8270668E-1,3.1957695E-1,3.3768963E-2,-5.207874E-1,-3.673552E-1,1.3584138E-1,-5.7880497E-1,-1.4353454E-1],"categories":[],"categories_nodes":[],"categories_segments":[],"categories_sizes":[],"default_left":[1,1,1,1,1,1,1,0,1,0,1,1,0,0,0,0,0,1,1,0,0,1,0,0,1,0,0,0,0],"id":36,"left_children":[1,3,5,7,9,11,13,-1,15,-1,17,19,-1,-1,-1,-1,-1,21,23,-1,-1,25,-1,-1,27,-1,-1,-1,-1],"loss_changes":[3.335364E-1,3.8751948E-1,3.7636942E-1,2.796283E-1,4.1176662E-1,2.2415662E-1,1.5479308E-1,0E0,1.4914948E-1,0E0,3.873698E-1,7.88129E-2,0E0,0E0,0E0,0E0,0E0,4.204937E-1,3.813393E-1,0E0,0E0,3.6791247E-1,0E0,0E0,2.9116511E-2,0E0,0E0,0E0,0E0],"parents":[2147483647,0,0,1,1,2,2,3,3,4,4,5,5,6,6,8,8,10,10,11,11,17,17,18,18,21,21,24,24],"right_children":[2,4,6,8,10,12,14,-1,16,-1,18,20,-1,-1,-1,-1,-1,22,24,-1,-1,26,-1,-1,28,-1,-1,-1,-1],"split_conditions":[9.493311E-1,-4.1551107E-1,5.1241646E1,-9.432967E-2,-4.620096E-1,1.1411285E1,2.346384E0,-2.9338995E-2,1.3664947E-1,6.7095265E-2,2.231022E0,1.9440874E3,-1.1334058E-2,3.5106916E-2,-8.420354E-2,1.4793311E-1,9.124707E-3,1.897821E1,3.8442512E0,1.6716069E-1,2.889923E-2,4.8373423E0,9.587309E-2,1.01306895E-2,5.9183186E-1,-1.1020657E-1,4.075242E-2,-1.736415E-1,-4.3060362E-2],"split_indices":[170,10,181,161,70,110,77,0,222,0,215,149,0,0,0,0,0,104,117,0,0,7,0,0,132,0,0,0,0],"split_type":[0,0,0,0,0,0,0,0,0,0,0,0,0,0,0,0,0,0,0,0,0,0,0,0,0,0,0,0,0],"sum_hessian":[2.3374401E1,1.7453438E1,5.9209633E0,4.410437E0,1.3043001E1,3.7437203E0,2.177243E0,1.9848161E0,2.4256208E0,1.6114085E0,1.1431592E1,2.7362897E0,1.0074304E0,1.022259E0,1.154984E0,1.2013047E0,1.2243161E0,5.8232784E0,5.608314E0,1.7358851E0,1.0004046E0,4.4065537E0,1.4167247E0,1.4822772E0,4.1260366E0,2.69257E0,1.7139838E0,3.1130238E0,1.0130132E0],"tree_param":{"num_deleted":"0","num_feature":"225","num_nodes":"29","size_leaf_vector":"0"}},{"base_weights":[3.775831E-3,-7.958238E-2,1.5161423E-1,1.5713467E-1,-2.04337E-1,3.510216E-1,-5.6845676E-2,4.4752023E-1,-1.2645802E-1,-3.6913177E-1,1.140375E-2,4.6596938E-1,-2.3630453E-2,-3.067044E-1,2.0060776E-1,1.325115E-1,-3.685728E-1,7.2499044E-2,-4.82149E-1,-3.563345E-1,2.2679763E-1,-6.471527E-2,-3.9680347E-1,4.1345915E-1,-1.2799384E-1,-2.8387532E-2,-5.9388137E-1,3.9848757E-1,-1.5346615E-1,8.356868E-2,5.0973904E-1],"categories":[],"categories_nodes":[],"categories_segments":[],"categories_sizes":[],"default_left":[1,1,1,1,1,1,1,0,1,1,1,0,0,1,1,0,0,0,1,0,1,0,0,0,0,0,0,1,0,0,0],"id":37,"left_children":[1,3,5,7,9,11,13,-1,15,17,19,-1,-1,21,23,-1,-1,-1,25,-1,27,-1,-1,-1,-1,-1,-1,29,-1,-1,-1],"loss_changes":[3.011712E-1,4.9448365E-1,3.8586453E-1,5.481458E-1,3.8419965E-1,2.1076411E-1,3.9372745E-1,0E0,2.870698E-1,3.3889008E-1,5.2427155E-1,0E0,0E0,4.008317E-2,2.7310407E-1,0E0,0E0,0E0,2.3559237E-1,0E0,3.3155417E-1,0E0,0E0,0E0,0E0,0E0,0E0,6.711161E-2,0E0,0E0,0E0],"parents":[2147483647,0,0,1,1,2,2,3,3,4,4,5,5,6,6,8,8,9,9,10,10,13,13,14,14,18,18,20,20,27,27],"right_children":[2,4,6,8,10,12,14,-1,16,18,20,-1,-1,22,24,-1,-1,-1,26,-1,28,-1,-1,-1,-1,-1,-1,30,-1,-1,-1],"split_conditions":[1.2005619E1,-1.5886769E-1,1.780712E1,-2.1528333E-2,9.227154E0,3.9711967E1,1.9224812E1,1.3425608E-1,2.4453744E-1,6.9725114E-1,5.6920967E0,1.3979082E-1,-7.089136E-3,6.06371E-4,5.971831E-1,3.9753452E-2,-1.1057185E-1,2.1749714E-2,6.174434E-1,-1.0690036E-1,1.9343839E0,-1.9414583E-2,-1.1904105E-1,1.2403775E-1,-3.8398154E-2,-8.5162595E-3,-1.7816442E-1,-3.763048E-5,-4.6039846E-2,2.5070604E-2,1.5292172E-1],"split_indices":[190,24,88,10,152,190,104,0,28,140,110,0,0,188,109,0,0,0,199,0,99,0,0,0,0,0,0,186,0,0,0],"split_type":[0,0,0,0,0,0,0,0,0,0,0,0,0,0,0,0,0,0,0,0,0,0,0,0,0,0,0,0,0,0,0],"sum_hessian":[2.2459597E1,1.4656993E1,7.802604E0,4.9689856E0,9.688007E0,3.6383617E0,4.1642423E0,2.1694908E0,2.799495E0,5.0894246E0,4.5985823E0,2.5976362E0,1.0407255E0,2.0162096E0,2.148033E0,1.5713971E0,1.2280979E0,1.110093E0,3.9793317E0,1.4569011E0,3.1416812E0,1.0132037E0,1.0030059E0,1.1468947E0,1.0011383E0,1.0340341E0,2.9452975E0,2.1314175E0,1.0102637E0,1.0135467E0,1.1178708E0],"tree_param":{"num_deleted":"0","num_feature":"225","num_nodes":"31","size_leaf_vector":"0"}},{"base_weights":[2.861756E-3,3.6389557E-1,-3.371516E-2,2.5834593E-1,-8.247232E-2,4.1988638E-1,-4.6362743E-2,-2.3157524E-1,2.201331E-2,2.003957E-1,-3.4273267E-1,-1.2715088E-1,1.9233954E-1,-4.4063342E-1,5.1135164E-2,1.8672355E-1,-3.2658744E-1,-1.3584833E-1,4.1103455E-1,-4.7046626E-3,-5.393244E-1,-1.23488426E-1,4.3548673E-1,-4.221331E-2,-4.822474E-1,-3.6079773E-1,1.7180678E-1,8.8596016E-2,4.931327E-1],"categories":[],"categories_nodes":[],"categories_segments":[],"categories_sizes":[],"default_left":[1,0,1,1,1,0,0,1,1,0,1,1,1,1,0,1,1,1,1,0,0,0,0,0,0,0,0,0,0],"id":38,"left_children":[1,-1,3,5,7,-1,-1,9,11,-1,13,15,17,19,-1,21,23,25,27,-1,-1,-1,-1,-1,-1,-1,-1,-1,-1],"loss_changes":[3.0709514E-1,0E0,3.230166E-1,1.80575E-1,2.9976696E-1,0E0,0E0,4.4705743E-1,3.3020684E-1,0E0,2.7842677E-1,5.0027794E-1,4.8766667E-1,2.3060548E-1,0E0,3.132853E-1,1.8569496E-1,2.8051415E-1,5.846411E-2,0E0,0E0,0E0,0E0,0E0,0E0,0E0,0E0,0E0,0E0],"parents":[2147483647,0,0,2,2,3,3,4,4,7,7,8,8,10,10,11,11,12,12,13,13,15,15,16,16,17,17,18,18],"right_children":[2,-1,4,6,8,-1,-1,10,12,-1,14,16,18,20,-1,22,24,26,28,-1,-1,-1,-1,-1,-1,-1,-1,-1,-1],"split_conditions":[1.605E2,1.0916867E-1,-2.5709875E-2,2.2859678E0,5.659127E0,1.2596592E-1,-1.3908823E-2,-9.682908E-1,8.783098E0,6.0118712E-2,6.0540354E-1,3.9054813E0,-8.3260844E-4,-7.1385306E-1,1.534055E-2,2.5554322E-2,1.199176E0,1.4608223E2,-1.0857239E-1,-1.4113989E-3,-1.6179733E-1,-3.704653E-2,1.3064602E-1,-1.2663993E-2,-1.4467423E-1,-1.0823932E-1,5.1542036E-2,2.6578806E-2,1.4793982E-1],"split_indices":[0,0,16,55,41,0,0,195,146,0,162,217,113,105,0,197,83,210,95,0,0,0,0,0,0,0,0,0,0],"split_type":[0,0,0,0,0,0,0,0,0,0,0,0,0,0,0,0,0,0,0,0,0,0,0,0,0,0,0,0,0],"sum_hessian":[2.132602E1,1.1386045E0,2.0187414E1,2.2730358E0,1.791438E1,1.238471E0,1.0345649E0,6.8800645E0,1.1034314E1,1.2437795E0,5.636285E0,6.017735E0,5.0165796E0,4.4191227E0,1.2171623E0,2.3628354E0,3.6548994E0,2.1575875E0,2.8589923E0,1.0091717E0,3.4099507E0,1.2756584E0,1.0871772E0,1.7425805E0,1.9123188E0,1.1465359E0,1.0110517E0,1.002164E0,1.8568282E0],"tree_param":{"num_deleted":"0","num_feature":"225","num_nodes":"29","size_leaf_vector":"0"}},{"base_weights":[1.0454194E-2,-1.8926537E-1,7.617075E-2,-3.459817E-1,1.1556507E-1,1.7485784E-1,-1.4418434E-1,-1.0712652E-2,-4.6445537E-1,-6.1865732E-2,2.7289236E-1,-3.0532598E-1,1.754208E-1,2.694148E-1,-2.7197465E-1,-5.6336127E-2,3.709591E-1,-4.2269576E-1,4.788222E-3,-4.039676E-1,-3.524223E-3,4.58876E-1,-1.4623191E-2,3.6118817E-2,5.636172E-1],"categories":[],"categories_nodes":[],"categories_segments":[],"categories_sizes":[],"default_left":[1,1,1,1,0,1,1,0,0,1,1,1,0,0,1,0,1,0,0,0,0,1,0,0,0],"id":39,"left_children":[1,3,5,7,-1,9,11,-1,-1,13,15,17,-1,-1,19,-1,21,-1,-1,-1,-1,23,-1,-1,-1],"loss_changes":[2.941386E-1,3.057609E-1,3.8943642E-1,1.5091974E-1,0E0,2.958317E-1,3.48608E-1,0E0,0E0,3.7503055E-1,3.0129677E-1,1.5393162E-1,0E0,0E0,1.1020701E-1,0E0,2.3801726E-1,0E0,0E0,0E0,0E0,2.270503E-1,0E0,0E0,0E0],"parents":[2147483647,0,0,1,1,2,2,3,3,5,5,6,6,9,9,10,10,11,11,14,14,16,16,21,21],"right_children":[2,4,6,8,-1,10,12,-1,-1,14,16,18,-1,-1,20,-1,22,-1,-1,-1,-1,24,-1,-1,-1],"split_conditions":[4.0592647E0,7.00359E3,2.1447695E1,-4.3541595E-2,3.4669522E-2,-3.0342442E-1,1.3599073E1,-3.2137956E-3,-1.3933662E-1,4.964143E0,-2.1295433E0,1.5342178E1,5.2626245E-2,8.082445E-2,-7.6503E-4,-1.690084E-2,1.3780283E3,-1.2680873E-1,1.4364666E-3,-1.2119028E-1,-1.057267E-3,5.996798E-1,-4.3869577E-3,1.0835646E-2,1.6908517E-1],"split_indices":[21,150,21,222,0,105,104,0,0,130,170,4,0,0,191,0,115,0,0,0,0,187,0,0,0],"split_type":[0,0,0,0,0,0,0,0,0,0,0,0,0,0,0,0,0,0,0,0,0,0,0,0,0],"sum_hessian":[2.0312353E1,4.5634675E0,1.5748886E1,2.924801E0,1.6386664E0,1.1019999E1,4.7288876E0,1.0483875E0,1.8764136E0,3.3352711E0,7.6847277E0,3.1735122E0,1.5553753E0,1.1848483E0,2.1504228E0,1.8613526E0,5.823375E0,2.038836E0,1.1346762E0,1.1031893E0,1.0472336E0,4.5873294E0,1.236046E0,1.177904E0,3.4094253E0],"tree_param":{"num_deleted":"0","num_feature":"225","num_nodes":"25","size_leaf_vector":"0"}},{"base_weights":[4.8803897E-3,4.376084E-2,-2.9706293E-1,-2.4992142E-2,2.869032E-1,3.8016018E-2,-3.4266332E-1,