{"learner":{"attributes":{"best_iteration":"99","best_ntree_limit":"100","scikit_learn":"{\"use_label_encoder\": false, \"n_estimators\": 100, \"objective\": \"binary:logistic\", \"max_depth\": null, \"max_leaves\": null, \"max_bin\": null, \"grow_policy\": null, \"learning_rate\": null, \"verbosity\": null, \"booster\": null, \"tree_method\": null, \"gamma\": null, \"min_child_weight\": null, \"max_delta_step\": null, \"subsample\": null, \"sampling_method\": null, \"colsample_bytree\": null, \"colsample_bylevel\": null, \"colsample_bynode\": null, \"reg_alpha\": null, \"reg_lambda\": null, \"scale_pos_weight\": null, \"base_score\": null, \"missing\": NaN, \"num_parallel_tree\": null, \"random_state\": null, \"n_jobs\": null, \"monotone_constraints\": null, \"interaction_constraints\": null, \"importance_type\": null, \"gpu_id\": null, \"validate_parameters\": null, \"predictor\": null, \"enable_categorical\": false, \"max_cat_to_onehot\": null, \"eval_metric\": null, \"early_stopping_rounds\": null, \"callbacks\": null, \"classes_\": [0.0, 1.0], \"n_classes_\": 2, \"_estimator_type\": \"classifier\"}"},"feature_names":[],"feature_types":[],"gradient_booster":{"model":{"gbtree_model_param":{"num_parallel_tree":"1","num_trees":"100","size_leaf_vector":"0"},"tree_info":[0,0,0,0,0,0,0,0,0,0,0,0,0,0,0,0,0,0,0,0,0,0,0,0,0,0,0,0,0,0,0,0,0,0,0,0,0,0,0,0,0,0,0,0,0,0,0,0,0,0,0,0,0,0,0,0,0,0,0,0,0,0,0,0,0,0,0,0,0,0,0,0,0,0,0,0,0,0,0,0,0,0,0,0,0,0,0,0,0,0,0,0,0,0,0,0,0,0,0,0],"trees":[{"base_weights":[3.54067E-1,1.849624E0,7.072136E-2,1.8181819E-1,1.9365079E0,2.730159E-1,-1.5061729E0,-1.5384616E-1,1.3519553E0,-2.2222222E-1,-1.761194E0,-6.3583815E-1,1.3986014E-1,-4E-1,1.4761904E0,9.0909094E-1,-1.2727273E0,-1.8730159E0,-0E0,1.5873016E-1,-1.0526316E0,3.0588236E-1,-1.0857143E0,-1.2E0,6.666667E-1,5.945946E-1,1.674074E0,1.2307693E0,-5.365854E-1,-1.245283E0,1E0,4.524887E-2,1.7894737E0,6.666667E-1,-1.4666667E0,1.4E0,-2.857143E-1,1.7741935E0,4E-1],"categories":[],"categories_nodes":[],"categories_segments":[],"categories_sizes":[],"default_left":[1,1,1,0,0,1,1,1,1,1,1,1,1,1,1,0,0,0,0,1,1,1,1,0,0,1,1,0,0,0,0,0,0,0,0,0,0,0,0],"id":0,"left_children":[1,3,5,-1,-1,7,9,11,13,15,17,19,21,23,25,-1,-1,-1,-1,27,29,31,33,-1,-1,35,37,-1,-1,-1,-1,-1,-1,-1,-1,-1,-1,-1,-1],"loss_changes":[8.843494E1,4.4660187E0,5.6793934E1,0E0,0E0,7.274592E1,6.239174E0,1.6191843E1,1.0330513E1,6.5050507E0,3.2987442E0,1.4490223E1,1.488039E1,4E0,6.331642E0,0E0,0E0,0E0,0E0,1.2400548E1,1.2515394E1,2.456947E1,6.819048E0,0E0,0E0,6.9583015E0,3.595459E0,0E0,0E0,0E0,0E0,0E0,0E0,0E0,0E0,0E0,0E0,0E0,0E0],"parents":[2147483647,0,0,1,1,2,2,5,5,6,6,7,7,8,8,9,9,10,10,11,11,12,12,13,13,14,14,19,19,20,20,21,21,22,22,25,25,26,26],"right_children":[2,4,6,-1,-1,8,10,12,14,16,18,20,22,24,26,-1,-1,-1,-1,28,30,32,34,-1,-1,36,38,-1,-1,-1,-1,-1,-1,-1,-1,-1,-1,-1,-1],"split_conditions":[1.605E2,1.04895525E-1,9.405E2,5.454546E-2,5.809524E-1,7.315E2,-6.774318E-1,5.7485194E0,1.308031E-1,2.9347675E1,8.743183E0,3.9500587E0,6.59E2,8.785E2,3.876739E0,2.7272728E-1,-3.818182E-1,-5.619048E-1,-0E0,-2.3792014E-1,4.879913E0,5.99E2,6.0133797E-1,-3.6E-1,2.0000002E-1,8.3E2,5.4439507E1,3.692308E-1,-1.6097562E-1,-3.7358493E-1,3E-1,1.3574662E-2,5.368421E-1,2.0000002E-1,-4.4000003E-1,4.2000002E-1,-8.5714296E-2,5.322581E-1,1.20000005E-1],"split_indices":[0,20,0,0,0,0,5,29,20,11,23,46,0,0,28,0,0,0,0,42,2,0,34,0,0,0,28,0,0,0,0,0,0,0,0,0,0,0,0],"split_type":[0,0,0,0,0,0,0,0,0,0,0,0,0,0,0,0,0,0,0,0,0,0,0,0,0,0,0,0,0,0,0,0,0,0,0,0,0,0,0],"sum_hessian":[2.08E2,3.225E1,1.7575E2,1.75E0,3.05E1,1.565E2,1.925E1,1.1275E2,4.375E1,3.5E0,1.575E1,4.225E1,7.05E1,2.75E0,4.1E1,1.75E0,1.75E0,1.475E1,1E0,1.475E1,2.75E1,6.275E1,7.75E0,1.5E0,1.25E0,8.25E0,3.275E1,5.5E0,9.25E0,2.55E1,2E0,5.425E1,8.5E0,1.25E0,6.5E0,4E0,4.25E0,3E1,2.75E0],"tree_param":{"num_deleted":"0","num_feature":"49","num_nodes":"39","size_leaf_vector":"0"}},{"base_weights":[2.6695487E-1,1.5136284E0,6.6966325E-2,2.170395E-1,-1.1673237E0,-8.4125645E-2,1.0256623E0,-1.4855716E0,-3.24389E-1,-1.8047719E-1,1.0117087E0,-3.292474E-1,1.1255543E0,6.8301916E-1,-1.2030617E0,3.323569E-1,-4.3137324E-1,-6.742252E-1,1.3519099E0,6.2258893E-1,-1.0597086E0,1.1995109E0,-3.363987E-1,1.0996592E0,-1.0292294E-1,-6.0434264E-1,5.5018145E-1,8.404717E-1,-5.2663517E-1,1.8355948E-1,1.5351747E0,-2.1743299E-1,1.260761E0],"categories":[],"categories_nodes":[],"categories_segments":[],"categories_sizes":[],"default_left":[1,0,1,1,1,1,1,0,1,1,1,1,1,1,0,1,1,0,1,0,0,1,0,0,0,0,0,0,0,0,0,0,0],"id":1,"left_children":[1,-1,3,5,7,9,11,-1,13,15,17,19,21,23,-1,25,27,-1,29,-1,-1,31,-1,-1,-1,-1,-1,-1,-1,-1,-1,-1,-1],"loss_changes":[5.0018394E1,0E0,3.253623E1,3.813325E1,4.628479E0,1.2299465E1,6.1190414E0,0E0,6.575773E0,1.3825026E1,6.3179073E0,3.2253535E0,4.7048607E0,1.3137056E0,0E0,7.575106E0,9.146188E0,0E0,1.4688673E0,0E0,0E0,3.579548E0,0E0,0E0,0E0,0E0,0E0,0E0,0E0,0E0,0E0,0E0,0E0],"parents":[2147483647,0,0,2,2,3,3,4,4,5,5,6,6,8,8,9,9,10,10,11,11,12,12,13,13,15,15,16,16,18,18,21,21],"right_children":[2,-1,4,6,8,10,12,-1,14,16,18,20,22,24,-1,26,28,-1,30,-1,-1,32,-1,-1,-1,-1,-1,-1,-1,-1,-1,-1,-1],"split_conditions":[1.455E2,4.5408854E-1,9.405E2,7.315E2,5.2651687E0,2.4670612E1,1.308031E-1,-4.456715E-1,1.0075E3,2.8354636E-1,-6.5074635E-1,2.1471949E0,9.404491E1,4.314879E-1,-3.6091852E-1,2.5119238E0,-1.8479908E0,-2.0226757E-1,1.7872086E1,1.8677668E-1,-3.1791258E-1,-5.457195E-1,-1.0091961E-1,3.2989776E-1,-3.0876882E-2,-1.813028E-1,1.6505444E-1,2.521415E-1,-1.5799056E-1,5.5067845E-2,4.6055242E-1,-6.52299E-2,3.7822834E-1],"split_indices":[0,0,0,0,44,25,20,0,0,12,39,1,27,17,0,38,13,0,10,0,0,24,0,0,0,0,0,0,0,0,0,0,0],"split_type":[0,0,0,0,0,0,0,0,0,0,0,0,0,0,0,0,0,0,0,0,0,0,0,0,0,0,0,0,0,0,0,0,0],"sum_hessian":[2.0002548E2,2.674375E1,1.7328174E2,1.5523178E2,1.8049952E1,1.1375908E2,4.1472702E1,1.2549527E1,5.500424E0,1.0533296E2,8.426124E0,2.6900136E0,3.878269E1,2.6662304E0,2.8341937E0,3.4496693E1,7.0836266E1,1.2499424E0,7.176181E0,1.232138E0,1.4578755E0,3.708611E1,1.6965796E0,1.4816331E0,1.1845974E0,6.17372E0,2.8322973E1,4.3908696E0,6.64454E1,1.2444122E0,5.931769E0,1.4310336E0,3.5655075E1],"tree_param":{"num_deleted":"0","num_feature":"49","num_nodes":"33","size_leaf_vector":"0"}},{"base_weights":[2.0677051E-1,1.2408086E0,3.6905132E-2,-2.1729441E-3,1.325139E0,1.524533E-1,-9.790313E-1,-7.893829E-2,8.093843E-1,-1.2712826E0,-2.5804767E-1,-6.8671906E-1,1.1195945E-1,1.3197929E0,5.1458496E-1,5.760445E-1,-1.0308385E0,5.3918993E-1,-8.8850313E-1,6.3936263E-1,-1.4905606E-1,-2.3078461E-1,1.1967727E0,9.946903E-1,-1.6806656E-1,-6.865289E-1,1.2262111E0,2.254753E-2,-1.1861049E0,-1.1727471E0,7.659851E-1,2.0522058E-1,-6.533132E-1,-1.1386703E0,7.0566595E-1,1.3788252E0,-2.4964385E-1],"categories":[],"categories_nodes":[],"categories_segments":[],"categories_sizes":[],"default_left":[1,1,1,0,0,1,1,1,1,0,1,1,1,0,1,1,0,1,1,1,1,1,1,0,0,0,0,0,0,0,0,0,0,0,0,0,0],"id":2,"left_children":[1,3,5,-1,-1,7,9,11,13,-1,15,17,19,-1,21,23,-1,25,27,29,31,33,35,-1,-1,-1,-1,-1,-1,-1,-1,-1,-1,-1,-1,-1,-1],"loss_changes":[3.3207146E1,2.7996216E0,1.9358362E1,0E0,0E0,2.2529226E1,3.2214012E0,1.2863272E1,5.1267376E0,0E0,4.5344033E0,7.029644E0,1.1758402E1,0E0,1.3546451E1,1.2829177E0,0E0,4.5176105E0,6.294174E0,7.377592E0,1.0403722E1,1.2119297E1,3.974945E0,0E0,0E0,0E0,0E0,0E0,0E0,0E0,0E0,0E0,0E0,0E0,0E0,0E0,0E0],"parents":[2147483647,0,0,1,1,2,2,5,5,6,6,7,7,8,8,10,10,11,11,12,12,14,14,15,15,17,17,18,18,19,19,20,20,21,21,22,22],"right_children":[2,4,6,-1,-1,8,10,12,14,-1,16,18,20,-1,22,24,-1,26,28,30,32,34,36,-1,-1,-1,-1,-1,-1,-1,-1,-1,-1,-1,-1,-1,-1],"split_conditions":[1.605E2,1.04895525E-1,9.405E2,-6.5188325E-4,3.9754173E-1,7.315E2,5.2651687E0,4.140996E0,8.05E2,-3.813848E-1,1.0075E3,-1.1942024E0,-2.4972681E-2,3.959379E-1,8.715E2,5.70028E0,-3.0925155E-1,2.1267769E-1,8.68218E-2,2.015E2,6.7218363E-1,5.860134E2,8.558137E-2,2.984071E-1,-5.041997E-2,-2.0595868E-1,3.6786333E-1,6.764259E-3,-3.5583147E-1,-3.5182416E-1,2.2979553E-1,6.1566178E-2,-1.9599397E-1,-3.416011E-1,2.116998E-1,4.1364756E-1,-7.4893154E-2],"split_indices":[0,20,0,0,0,0,44,28,0,0,0,13,17,0,0,21,0,18,45,0,44,38,41,0,0,0,0,0,0,0,0,0,0,0,0,0,0],"split_type":[0,0,0,0,0,0,0,0,0,0,0,0,0,0,0,0,0,0,0,0,0,0,0,0,0,0,0,0,0,0,0,0,0,0,0,0,0],"sum_hessian":[1.8831656E2,2.5681065E1,1.626355E2,1.6935382E0,2.3987526E1,1.4679016E2,1.5845334E1,1.092047E2,3.7585464E1,1.0731893E1,5.1134415E0,2.5480978E1,8.3723724E1,1.2487679E1,2.5097788E1,2.5816236E0,2.531818E0,3.3650444E0,2.2115932E1,2.7237865E1,5.6485855E1,1.2309702E1,1.2788085E1,1.4366162E0,1.1450073E0,1.2089196E0,2.1561246E0,5.67309E0,1.6442842E1,1.2393669E0,2.5998499E1,3.3525105E1,2.2960754E1,6.140533E0,6.169169E0,1.1399964E1,1.3881204E0],"tree_param":{"num_deleted":"0","num_feature":"49","num_nodes":"37","size_leaf_vector":"0"}},{"base_weights":[1.63387E-1,1.187699E0,3.7023526E-2,1.26419E-1,-8.545745E-1,-4.6122607E-2,6.831394E-1,-2.6459835E-2,-1.0594591E0,4.3867182E-2,-1.0864893E0,1.9317736E-1,9.4455E-1,6.53224E-1,-7.658415E-1,-1.1529015E0,-5.5143666E-2,-5.472712E-1,2.3979267E-1,2.2084531E-1,-1.4086069E0,-5.9052616E-1,7.735734E-1,1.0850186E0,-3.569817E-2,9.10245E-1,-7.337322E-1,5.9851503E-1,-1.1037728E-1,-1.6858243E0,1.6395913E-1,-7.4417543E-1,1.1416358E0,1.2836356E-1,1.2030962E0,-7.090541E-1,7.7598387E-1],"categories":[],"categories_nodes":[],"categories_segments":[],"categories_sizes":[],"default_left":[1,0,1,1,1,1,1,1,1,1,1,1,1,0,0,0,0,1,1,0,0,1,1,1,1,0,0,0,0,0,0,0,0,0,0,0,0],"id":3,"left_children":[1,-1,3,5,7,9,11,13,15,17,19,21,23,-1,-1,-1,-1,25,27,-1,-1,29,31,33,35,-1,-1,-1,-1,-1,-1,-1,-1,-1,-1,-1,-1],"loss_changes":[2.2721195E1,0E0,1.266934E1,1.38741E1,2.4305162E0,1.0434947E1,4.192626E0,2.4600065E0,1.0241661E0,1.2069527E1,4.0470705E0,6.434237E0,3.070406E0,0E0,0E0,0E0,0E0,7.724078E0,9.878162E0,0E0,0E0,5.365654E0,5.3090043E0,2.024517E0,2.5876327E0,0E0,0E0,0E0,0E0,0E0,0E0,0E0,0E0,0E0,0E0,0E0,0E0],"parents":[2147483647,0,0,2,2,3,3,4,4,5,5,6,6,7,7,8,8,9,9,10,10,11,11,12,12,17,17,18,18,21,21,22,22,23,23,24,24],"right_children":[2,-1,4,6,8,10,12,14,16,18,20,22,24,-1,-1,-1,-1,26,28,-1,-1,30,32,34,36,-1,-1,-1,-1,-1,-1,-1,-1,-1,-1,-1,-1],"split_conditions":[1.455E2,3.563097E-1,9.405E2,7.315E2,-6.774318E-1,6.915E2,5.9226875E0,2.9347675E1,8.4332E0,1.1277726E0,-6.372433E-1,7.1870744E-2,2.7105377E1,1.9596721E-1,-2.2975245E-1,-3.4587047E-1,-1.65431E-2,9.9456996E-2,1.2084701E3,6.6253595E-2,-4.225821E-1,-3.104149E-4,9.554504E-1,-8.4909606E-1,2.608413E1,2.7307352E-1,-2.2011967E-1,1.7955452E-1,-3.3113185E-2,-5.057473E-1,4.9187742E-2,-2.2325264E-1,3.4249073E-1,3.850907E-2,3.6092886E-1,-2.1271624E-1,2.3279516E-1],"split_indices":[0,0,0,0,5,0,34,11,23,36,32,32,15,0,0,0,0,36,37,0,0,15,28,5,4,0,0,0,0,0,0,0,0,0,0,0,0],"split_type":[0,0,0,0,0,0,0,0,0,0,0,0,0,0,0,0,0,0,0,0,0,0,0,0,0,0,0,0,0,0,0,0,0,0,0,0,0],"sum_hessian":[1.7488025E2,1.8282427E1,1.5659782E2,1.4310747E2,1.3490361E1,1.09948746E2,3.3158714E1,2.899626E0,1.0590735E1,1.020771E2,7.8716445E0,1.2141281E1,2.1017435E1,1.5715187E0,1.3281074E0,9.553885E0,1.03685E0,2.4963871E1,7.711323E1,1.6182536E0,6.2533913E0,5.158437E0,6.9828444E0,1.8289661E1,2.7277737E0,2.3911557E0,2.2572716E1,3.7741123E1,3.937211E1,1.6005256E0,3.5579112E0,1.1634301E0,5.819414E0,2.2387335E0,1.6050928E1,1.5600361E0,1.1677376E0],"tree_param":{"num_deleted":"0","num_feature":"49","num_nodes":"37","size_leaf_vector":"0"}},{"base_weights":[1.2738365E-1,1.1020683E0,2.5588294E-2,-2.6178953E-1,2.6077136E-1,3.5979536E-1,-4.2576224E-1,-1.1182257E0,3.2332402E-1,-6.983481E-1,7.8579676E-1,-6.554783E-1,3.608459E-2,8.72039E-2,7.312285E-1,2.7519304E-1,-1.1826527E0,1.0857307E0,-4.970984E-1,8.086704E-1,-7.534028E-1,7.932764E-1,-3.4708604E-1,2.4181578E-1,-9.771957E-1,1.1632031E0,2.3997666E-1,-5.6584302E-2,1.3075655E0,7.4227625E-1,-8.650898E-1,-9.401389E-4,1.1711049E0,-8.5551244E-1,5.087424E-1,-4.738816E-1,4.6012938E-1,-1.3646057E0,3.348958E-1,-3.309912E-1,1.3281928E0,-1.0379565E0,5.6218505E-1],"categories":[],"categories_nodes":[],"categories_segments":[],"categories_sizes":[],"default_left":[1,0,1,1,1,1,1,0,1,1,1,1,1,1,1,0,0,1,0,0,1,1,1,1,1,1,1,0,0,0,0,0,0,0,0,0,0,0,0,0,0,0,0],"id":4,"left_children":[1,-1,3,5,7,9,11,-1,13,15,17,19,21,23,25,-1,-1,27,-1,-1,29,31,33,35,37,39,41,-1,-1,-1,-1,-1,-1,-1,-1,-1,-1,-1,-1,-1,-1,-1,-1],"loss_changes":[1.6250103E1,0E0,1.0177478E1,7.065235E0,7.50027E0,7.174E0,5.765312E0,0E0,7.6358852E0,2.5641801E0,4.752868E0,5.798664E0,5.7659507E0,8.755805E0,5.911871E0,0E0,0E0,2.4024353E0,0E0,0E0,6.3957767E0,2.0005546E0,6.205574E0,7.406049E0,3.8954544E0,4.202547E0,6.723064E0,0E0,0E0,0E0,0E0,0E0,0E0,0E0,0E0,0E0,0E0,0E0,0E0,0E0,0E0,0E0,0E0],"parents":[2147483647,0,0,2,2,3,3,4,4,5,5,6,6,8,8,9,9,10,10,11,11,12,12,13,13,14,14,17,17,20,20,21,21,22,22,23,23,24,24,25,25,26,26],"right_children":[2,-1,4,6,8,10,12,-1,14,16,18,20,22,24,26,-1,-1,28,-1,-1,30,32,34,36,38,40,42,-1,-1,-1,-1,-1,-1,-1,-1,-1,-1,-1,-1,-1,-1,-1,-1],"split_conditions":[1.455E2,3.306205E-1,7.2456455E0,7.687233E0,1.855E2,9.39327E-1,4.373265E-1,-3.3546773E-1,2.566108E-1,6.275482E-3,4.9477927E-2,-2.7113838E0,1.6748303E-1,9.489555E-3,2.5969896E0,8.255792E-2,-3.547958E-1,1.5572395E0,-1.4912952E-1,2.4260113E-1,1.675E2,2.0256603E1,6.408355E-1,-8.881317E-2,5.8128405E-1,2.5997677E0,3.6125462E0,-1.6975291E-2,3.9226964E-1,2.2268288E-1,-2.5952694E-1,-2.8204167E-4,3.5133147E-1,-2.5665376E-1,1.5262273E-1,-1.4216448E-1,1.3803881E-1,-4.0938172E-1,1.0046874E-1,-9.929737E-2,3.9845785E-1,-3.1138694E-1,1.6865551E-1],"split_indices":[0,0,29,38,0,46,32,0,26,10,42,2,17,6,25,0,0,27,0,0,0,46,24,13,24,28,9,0,0,0,0,0,0,0,0,0,0,0,0,0,0,0,0],"split_type":[0,0,0,0,0,0,0,0,0,0,0,0,0,0,0,0,0,0,0,0,0,0,0,0,0,0,0,0,0,0,0,0,0,0,0,0,0,0,0,0,0,0,0],"sum_hessian":[1.6306541E2,1.4490775E1,1.4857463E2,6.681639E1,8.175825E1,1.3697587E1,5.3118805E1,2.8153884E0,7.8942856E1,3.7481816E0,9.949405E0,3.519437E1,1.7924433E1,5.076864E1,2.817422E1,1.3886058E0,2.3595757E0,8.188634E0,1.7607712E0,1.7512927E0,3.3443077E1,5.663121E0,1.22613125E1,4.5004253E1,5.7643843E0,1.4263764E1,1.3910454E1,1.4527538E0,6.7358804E0,1.9314615E0,3.1511616E1,2.1471674E0,3.5159535E0,7.6920347E0,4.569278E0,1.0245567E1,3.4758686E1,4.4194636E0,1.3449204E0,1.3183434E0,1.2945421E1,2.35374E0,1.1556714E1],"tree_param":{"num_deleted":"0","num_feature":"49","num_nodes":"43","size_leaf_vector":"0"}},{"base_weights":[1.0072318E-1,1.0373183E0,1.890953E-2,7.3970065E-2,-9.3760747E-1,1.4843789E-1,-7.322593E-1,7.418553E-2,-1.1203852E0,8.4397435E-1,2.7125534E-2,-1.0476208E0,-8.4543064E-2,-1.9456193E-1,-1.2688371E0,-5.3263605E-1,1.057309E0,-1.6773099E-1,3.5362417E-1,5.529146E-1,-7.801563E-1,-3.163147E-1,1.2027465E0,-2.0134961E-2,-1.4925454E0,5.6640245E-2,8.6941475E-1,9.059604E-2,7.584501E-1],"categories":[],"categories_nodes":[],"categories_segments":[],"categories_sizes":[],"default_left":[1,0,1,1,1,1,1,0,1,1,1,0,1,0,0,0,1,1,1,1,0,0,0,0,0,0,0,0,0],"id":5,"left_children":[1,-1,3,5,7,9,11,-1,13,15,17,-1,19,-1,-1,-1,21,23,25,27,-1,-1,-1,-1,-1,-1,-1,-1,-1],"loss_changes":[1.1779382E1,0E0,7.5811343E0,8.261461E0,1.5323472E0,1.0536278E1,2.2912393E0,0E0,6.7392254E-1,6.0114994E0,6.9042616E0,0E0,2.6053774E0,0E0,0E0,0E0,3.656332E0,1.3277594E1,6.159765E0,2.2999883E-1,0E0,0E0,0E0,0E0,0E0,0E0,0E0,0E0,0E0],"parents":[2147483647,0,0,2,2,3,3,4,4,5,5,6,6,8,8,9,9,10,10,12,12,16,16,17,17,18,18,19,19],"right_children":[2,-1,4,6,8,10,12,-1,14,16,18,-1,20,-1,-1,-1,22,24,26,28,-1,-1,-1,-1,-1,-1,-1,-1,-1],"split_conditions":[1.455E2,3.1119552E-1,5.0121254E1,9.405E2,7.63777E-1,-4.109785E-1,5.2651687E0,2.225566E-2,3.8789574E1,2.79E2,5.995E2,-3.1428623E-1,1.0075E3,-5.8368582E-2,-3.8065115E-1,-1.5979081E-1,1.6457453E0,5.46E2,1.0771169E1,1.3890654E-2,-2.340469E-1,-9.489442E-2,3.6082396E-1,-6.040489E-3,-4.4776362E-1,1.6992074E-2,2.6082444E-1,2.7178815E-2,2.2753504E-1],"split_indices":[0,0,19,0,39,7,44,0,40,0,0,0,0,0,0,0,34,0,8,15,0,0,0,0,0,0,0,0,0],"split_type":[0,0,0,0,0,0,0,0,0,0,0,0,0,0,0,0,0,0,0,0,0,0,0,0,0,0,0,0,0],"sum_hessian":[1.529811E2,1.1351467E1,1.4162962E2,1.3479312E2,6.836506E0,1.2414251E2,1.0650606E1,1.1369385E0,5.699568E0,1.7552034E1,1.0659048E2,6.74781E0,3.9027967E0,1.1069099E0,4.592658E0,2.154261E0,1.5397773E1,6.705681E1,3.953367E1,2.1435738E0,1.759223E0,1.3617198E0,1.4036053E1,6.1248394E1,5.808414E0,2.5792545E1,1.3741121E1,1.1031034E0,1.0404704E0],"tree_param":{"num_deleted":"0","num_feature":"49","num_nodes":"29","size_leaf_vector":"0"}},{"base_weights":[7.3915035E-2,9.8351204E-1,7.775796E-3,1.1868963E-1,-3.9772034E-1,1.6840912E-1,-8.8992995E-1,-6.82884E-1,4.0113145E-1,-4.613641E-1,2.631888E-1,-1.0948235E0,-1.04028605E-1,-9.214209E-1,4.1647613E-1,-9.9662375E-1,7.641456E-1,-1.0453284E0,-2.9716205E-2,-3.284508E-1,3.936988E-1,4.6556783E-1,-1.0369879E0,-6.471769E-1,9.503169E-1,-3.34036E-1,1.2193172E0,-1.1551639E0,-2.5979015E-1,6.356183E-1,-4.9908936E-1,-5.536739E-1,9.892846E-1,4.6507493E-1,-6.453489E-1,-1.1462029E0,1.888703E-1,1.1490337E0,2.2782816E-1],"categories":[],"categories_nodes":[],"categories_segments":[],"categories_sizes":[],"default_left":[1,0,1,1,1,1,1,1,1,1,1,0,0,1,1,0,1,1,1,1,1,0,1,0,1,0,0,0,0,0,0,0,0,0,0,0,0,0,0],"id":6,"left_children":[1,-1,3,5,7,9,11,13,15,17,19,-1,-1,21,23,-1,25,27,29,31,33,-1,35,-1,37,-1,-1,-1,-1,-1,-1,-1,-1,-1,-1,-1,-1,-1,-1],"loss_changes":[8.736346E0,0E0,6.1863728E0,5.563555E0,7.0049314E0,6.312638E0,7.283821E-1,6.190918E0,5.025173E0,3.4805865E0,7.1397963E0,0E0,0E0,3.4493914E0,3.247972E0,0E0,4.024493E0,2.0824146E-1,3.1402242E0,5.5792704E0,5.8503914E0,0E0,2.5452385E0,0E0,2.3963952E-1,0E0,0E0,0E0,0E0,0E0,0E0,0E0,0E0,0E0,0E0,0E0,0E0,0E0,0E0],"parents":[2147483647,0,0,2,2,3,3,4,4,5,5,6,6,7,7,8,8,9,9,10,10,13,13,14,14,16,16,17,17,18,18,19,19,20,20,22,22,24,24],"right_children":[2,-1,4,6,8,10,12,14,16,18,20,-1,-1,22,24,-1,26,28,30,32,34,-1,36,-1,38,-1,-1,-1,-1,-1,-1,-1,-1,-1,-1,-1,-1,-1,-1],"split_conditions":[1.455E2,2.9505363E-1,3.878526E-3,5.219075E1,1.8366093E1,2.0810714E0,9.031803E0,1.4026936E1,1.3289404E0,1.5452107E0,2.765E2,-3.2844704E-1,-3.1208582E-2,-1.8672963E0,5.56153E0,-2.9898715E-1,2.0044667E-1,1.4200544E3,3.594911E-1,1.0784218E2,2.9630667E1,1.3967036E-1,1.9376423E0,-1.9415309E-1,3.3937454E-2,-1.002108E-1,3.6579517E-1,-3.4654918E-1,-7.793705E-2,1.9068551E-1,-1.4972681E-1,-1.6610219E-1,2.9678538E-1,1.3952248E-1,-1.9360468E-1,-3.438609E-1,5.666109E-2,3.447101E-1,6.834845E-2],"split_indices":[0,0,7,19,28,28,36,39,22,16,0,0,0,2,12,0,44,30,12,36,11,0,32,0,48,0,0,0,0,0,0,0,0,0,0,0,0,0,0],"split_type":[0,0,0,0,0,0,0,0,0,0,0,0,0,0,0,0,0,0,0,0,0,0,0,0,0,0,0,0,0,0,0,0,0,0,0,0,0,0,0],"sum_hessian":[1.4434552E2,8.844122E0,1.355014E2,1.0695398E2,2.854742E1,1.02723305E2,4.2306743E0,2.114465E1,7.4027715E0,1.2931418E1,8.9791885E1,3.0439909E0,1.1866835E0,1.7507717E1,3.6369321E0,1.1663659E0,6.236406E0,4.891768E0,8.03965E0,1.5953479E1,7.38384E1,1.1136447E0,1.6394073E1,1.1444217E0,2.4925106E0,1.9054071E0,4.3309984E0,3.8788774E0,1.0128905E0,3.1791015E0,4.860549E0,1.4119968E1,1.8335104E0,6.960909E1,4.22931E0,1.5112627E1,1.2814453E0,1.4918126E0,1.0006979E0],"tree_param":{"num_deleted":"0","num_feature":"49","num_nodes":"39","size_leaf_vector":"0"}},{"base_weights":[5.2477434E-2,8.2711643E-1,-1.2129165E-2,1.0322773E0,-2.950016E-1,-1.0618567E-1,3.7847826E-1,1.7600864E-1,-2.7698243E-1,-3.1462524E-2,7.891721E-1,-2.5675985E-1,4.551294E-1,-1.24674775E-1,-8.5210073E-1,6.493495E-1,-5.3473014E-1,1.1517175E0,-1.01853825E-1,-5.973014E-1,8.322673E-1,1.0308475E0,2.1132186E-1,4.5361218E-1,-2.5082055E-1,-9.776659E-1,3.5304698E-1,9.3465716E-1,-2.9803804E-1,4.051124E-1,-9.044598E-1,1.3455458E0,1.4736879E-1,-6.419187E-1,7.2942895E-1,5.4878145E-1,-7.528395E-1,1.13141E0,-3.465934E-2,1.1772858E0,1.7885567E-1,-4.285003E-2,7.893059E-1,8.110812E-1,-3.4724486E-1,-8.373299E-1,-4.1643918E-2,1.5806855E-1,-1.096088E0,1.0668741E0,2.1399364E-1,3.883305E-2,5.7274836E-1,-1.3185844E0,-3.358061E-2,-6.7479715E-2,-9.285072E-1],"categories":[],"categories_nodes":[],"categories_segments":[],"categories_sizes":[],"default_left":[1,1,1,0,0,1,1,1,1,1,1,1,1,1,1,1,1,1,1,1,1,1,1,1,1,1,0,1,0,1,1,0,0,1,0,0,0,0,0,0,0,0,0,0,0,0,0,0,0,0,0,0,0,0,0,0,0],"id":7,"left_children":[1,3,5,-1,-1,7,9,11,13,15,17,19,21,23,25,27,29,31,33,35,37,39,41,43,45,47,-1,49,-1,51,53,-1,-1,55,-1,-1,-1,-1,-1,-1,-1,-1,-1,-1,-1,-1,-1,-1,-1,-1,-1,-1,-1,-1,-1,-1,-1],"loss_changes":[6.9207277E0,2.755035E0,4.7589765E0,0E0,0E0,5.0755644E0,4.2582283E0,4.9408193E0,5.618981E0,4.9883804E0,4.187335E0,6.541115E0,3.2404442E0,3.968845E0,2.390108E0,1.9568064E0,3.2633297E0,1.5608892E0,2.5165884E0,2.730029E0,1.1543651E0,6.717529E-1,2.7613063E0,3.0927877E0,5.36654E0,1.8549719E0,0E0,2.4941301E-1,0E0,1.6468689E-1,2.2250915E0,0E0,0E0,4.8022854E-1,0E0,0E0,0E0,0E0,0E0,0E0,0E0,0E0,0E0,0E0,0E0,0E0,0E0,0E0,0E0,0E0,0E0,0E0,0E0,0E0,0E0,0E0,0E0],"parents":[2147483647,0,0,1,1,2,2,5,5,6,6,7,7,8,8,9,9,10,10,11,11,12,12,13,13,14,14,15,15,16,16,17,17,18,18,19,19,20,20,21,21,22,22,23,23,24,24,25,25,27,27,29,29,30,30,33,33],"right_children":[2,4,6,-1,-1,8,10,12,14,16,18,20,22,24,26,28,30,32,34,36,38,40,42,44,46,48,-1,50,-1,52,54,-1,-1,56,-1,-1,-1,-1,-1,-1,-1,-1,-1,-1,-1,-1,-1,-1,-1,-1,-1,-1,-1,-1,-1,-1,-1],"split_conditions":[1.605E2,7.564981E-1,1.3638097E0,3.096832E-1,-8.8500485E-2,-2.5431862E-1,6.010482E0,7.296029E0,1.3552799E-3,-2.8666893E-1,3.0518894E0,1.4206233E0,-4.4015044E-1,-9.042267E-1,2.7006336E1,2.1115112E-1,9.9798197E-1,8.87007E-2,1.3046047E1,4.865763E-2,8.176347E-3,1.3461891E1,3.9909685E-1,5.2837634E0,-4.8169535E-2,-2.9077005E0,1.059141E-1,4.4752455E0,-8.9411415E-2,1.8709789E2,6.145E2,4.0366375E-1,4.421064E-2,3.584299E-1,2.188287E-1,1.6463444E-1,-2.2585186E-1,3.39423E-1,-1.0397803E-2,3.5318574E-1,5.3656705E-2,-1.2855009E-2,2.3679179E-1,2.4332435E-1,-1.0417346E-1,-2.5119898E-1,-1.2493175E-2,4.742057E-2,-3.2882643E-1,3.2006225E-1,6.419809E-2,1.1649915E-2,1.7182451E-1,-3.9557534E-1,-1.0074183E-2,-2.0243915E-2,-2.7855217E-1],"split_indices":[0,43,32,0,0,32,27,29,7,5,32,5,18,42,28,17,30,48,31,16,47,31,3,19,2,42,0,22,0,38,0,0,0,14,0,0,0,0,0,0,0,0,0,0,0,0,0,0,0,0,0,0,0,0,0,0,0],"split_type":[0,0,0,0,0,0,0,0,0,0,0,0,0,0,0,0,0,0,0,0,0,0,0,0,0,0,0,0,0,0,0,0,0,0,0,0,0,0,0,0,0,0,0,0,0,0,0,0,0,0,0,0,0,0,0,0,0],"sum_hessian":[1.3708469E2,9.644454E0,1.2744024E2,8.221374E0,1.4230804E0,1.03295334E2,2.41449E1,3.89352E1,6.436014E1,1.2545648E1,1.1599251E1,1.52973E1,2.36379E1,5.1846493E1,1.2513643E1,5.208886E0,7.3367615E0,8.036673E0,3.562579E0,1.1997255E1,3.3000448E0,6.0718756E0,1.7566023E1,8.819508E0,4.302699E1,1.1503812E1,1.0098315E0,4.013615E0,1.1952711E0,2.044359E0,5.2924023E0,6.451822E0,1.5848507E0,2.2976482E0,1.2649307E0,1.1315018E0,1.0865754E1,2.2266374E0,1.0734075E0,4.855518E0,1.216358E0,1.2843765E1,4.7222586E0,6.0889077E0,2.7305996E0,1.0521848E1,3.250514E1,1.0546212E0,1.044919E1,2.9854772E0,1.0281379E0,1.0285847E0,1.0157743E0,3.2383857E0,2.0540166E0,1.175976E0,1.1216722E0],"tree_param":{"num_deleted":"0","num_feature":"49","num_nodes":"57","size_leaf_vector":"0"}},{"base_weights":[5.160838E-2,1.0493889E-1,-6.4308506E-1,8.927098E-1,6.0342256E-2,-9.5996994E-1,-2.135231E-2,4.9580466E-3,8.012504E-1,4.6591133E-1,-6.4048374E-1,5.555388E-2,-7.2629255E-1,1.0268086E0,-1.9284385E-1,-3.3298248E-1,1.4825934E-1,-1.190678E0,1.0824521E-1,-7.059273E-1,3.033549E-1,7.062416E-1,3.786023E-2,-5.145178E-1,7.9848135E-1],"categories":[],"categories_nodes":[],"categories_segments":[],"categories_sizes":[],"default_left":[1,1,1,0,1,0,1,1,1,0,0,1,1,0,0,1,1,0,1,0,0,0,0,0,0],"id":8,"left_children":[1,3,5,-1,7,-1,9,11,13,-1,-1,15,17,-1,-1,19,21,-1,23,-1,-1,-1,-1,-1,-1],"loss_changes":[4.8906918E0,4.2239647E0,1.8357992E0,0E0,4.7689023E0,0E0,1.5665773E0,4.081655E0,2.0105844E0,0E0,0E0,3.7626143E0,2.8958426E0,0E0,0E0,5.0001864E0,5.1429763E0,0E0,1.9020842E0,0E0,0E0,0E0,0E0,0E0,0E0],"parents":[2147483647,0,0,1,1,2,2,4,4,6,6,7,7,8,8,11,11,12,12,15,15,16,16,18,18],"right_children":[2,4,6,-1,8,-1,10,12,14,-1,-1,16,18,-1,-1,20,22,-1,24,-1,-1,-1,-1,-1,-1],"split_conditions":[9.405E2,1.455E2,5.2651687E0,2.6781294E-1,8.715E2,-2.87991E-1,1.0075E3,3.7796775E3,5.3104527E-2,1.397734E-1,-1.9214512E-1,2.6339553E-2,-6.635235E-2,3.080426E-1,-5.785316E-2,4.5703785E1,1.1266531E-1,-3.5720342E-1,6.842557E0,-2.1177821E-1,9.100647E-2,2.1187249E-1,1.1358069E-2,-1.5435535E-1,2.395444E-1],"split_indices":[0,0,44,0,0,0,0,30,42,0,0,40,42,0,0,38,10,0,29,0,0,0,0,0,0],"split_type":[0,0,0,0,0,0,0,0,0,0,0,0,0,0,0,0,0,0,0,0,0,0,0,0,0],"sum_hessian":[1.291868E2,1.20764824E2,8.42198E0,5.451427E0,1.1531339E2,5.218295E0,3.2036848E0,1.0822972E2,7.0836735E0,1.9312469E0,1.2724379E0,1.0209006E2,6.139666E0,5.7468214E0,1.3368522E0,1.916714E1,8.292291E1,3.670458E0,2.4692082E0,1.2015646E1,7.151494E0,1.2805225E1,7.011769E1,1.4318783E0,1.0373298E0],"tree_param":{"num_deleted":"0","num_feature":"49","num_nodes":"25","size_leaf_vector":"0"}},{"base_weights":[3.8796864E-2,7.053025E-1,-4.8631914E-3,-3.1928074E-1,9.374849E-1,2.9927481E-2,-8.03877E-1,4.58383E-1,-5.0814506E-2,-9.4879323E-1,-1.6840823E-1,6.607773E-1,-3.1006527E-1,5.345675E-2,-4.4786188E-1,-3.1094146E-1,8.258953E-1,-7.589428E-1,3.7678817E-1,-9.159616E-2,4.2477575E-1,-8.911307E-1,3.4803507E-1,9.9182284E-1,-2.0283468E-1,-6.541139E-1,5.8647633E-2,-7.642843E-1,6.0591745E-1,-4.356127E-1,-1.1955233E0,-6.2507755E-1,6.56345E-1],"categories":[],"categories_nodes":[],"categories_segments":[],"categories_sizes":[],"default_left":[1,1,1,0,0,1,1,1,1,0,0,1,1,1,1,0,1,0,0,1,1,1,1,0,0,0,0,0,0,0,0,0,0],"id":9,"left_children":[1,3,5,-1,-1,7,9,11,13,-1,-1,15,17,19,21,-1,23,-1,-1,25,27,29,31,-1,-1,-1,-1,-1,-1,-1,-1,-1,-1],"loss_changes":[3.6390762E0,2.128186E0,3.311194E0,0E0,0E0,3.976733E0,2.9789186E-1,3.0387626E0,4.0422497E0,0E0,0E0,2.6220798E0,1.6669476E0,4.2273884E0,7.469914E0,0E0,2.3987074E0,0E0,0E0,4.833956E0,5.206401E0,1.3255062E0,2.8040502E0,0E0,0E0,0E0,0E0,0E0,0E0,0E0,0E0,0E0,0E0],"parents":[2147483647,0,0,1,1,2,2,5,5,6,6,7,7,8,8,11,11,12,12,13,13,14,14,16,16,19,19,20,20,21,21,22,22],"right_children":[2,4,6,-1,-1,8,10,12,14,-1,-1,16,18,20,22,-1,24,-1,-1,26,28,30,32,-1,-1,-1,-1,-1,-1,-1,-1,-1,-1],"split_conditions":[1.605E2,1.04895525E-1,4.189027E1,-9.5784225E-2,2.812455E-1,-4.109785E-1,6.302116E-1,8.635E2,7.65018E-1,-2.84638E-1,-5.0522473E-2,2.79E2,4.598003E-1,1.7242523E1,5.220489E-1,-9.328244E-2,3.3050298E3,-2.2768284E-1,1.1303645E-1,-2.5626525E-1,6.349786E-2,2.0772955E0,3.16E2,2.9754686E-1,-6.0850408E-2,-1.9623418E-1,1.759429E-2,-2.292853E-1,1.8177524E-1,-1.3068382E-1,-3.58657E-1,-1.8752328E-1,1.9690351E-1],"split_indices":[0,20,40,0,0,7,32,0,2,0,0,0,3,28,25,0,38,0,0,43,30,2,0,0,0,0,0,0,0,0,0,0,0],"split_type":[0,0,0,0,0,0,0,0,0,0,0,0,0,0,0,0,0,0,0,0,0,0,0,0,0,0,0,0,0,0,0,0,0],"sum_hessian":[1.239377E2,6.6878543E0,1.1724985E2,1.1662506E0,5.5216036E0,1.1327995E2,3.969893E0,1.7220837E1,9.605911E1,2.8311903E0,1.1387026E0,1.3741666E1,3.4791718E0,7.676477E1,1.9294344E1,1.8676151E0,1.187405E1,2.040617E0,1.4385548E0,5.5742653E1,2.1022116E1,1.2315604E1,6.978739E0,1.0255742E1,1.6183084E0,1.104313E1,4.4699524E1,2.3535504E0,1.8668566E1,5.906989E0,6.408615E0,1.4318829E0,5.546856E0],"tree_param":{"num_deleted":"0","num_feature":"49","num_nodes":"33","size_leaf_vector":"0"}},{"base_weights":[2.308954E-2,6.673355E-2,-5.9820086E-1,-1.6952839E-2,4.8376024E-1,9.737448E-2,-7.863505E-1,5.934634E-1,-8.315711E-2,7.4225664E-1,-1.0956965E-1,-9.198964E-1,-6.445129E-2,-5.881555E-1,8.4162295E-1,5.5620724E-1,-1.4559796E-1,2.1223317E-1,1.0284303E0,-5.1541364E-1,6.0796034E-1,-1.5419878E-1,1.0141892E0,-9.160635E-2,1.0697186E0,-5.538809E-1,-3.241679E-2,-4.9937007E-1,6.6498935E-1,3.314462E-1,1.1334621E0,-9.0566725E-1,3.8727072E-1,4.125631E-2,1.1832253E0,5.937363E-1,-1.0274007E0,1.258433E0,2.878714E-1,1.9278556E-2,-9.9604326E-1,-8.3367896E-1,5.7276886E-2,3.4454495E-2,8.662476E-1],"categories":[],"categories_nodes":[],"categories_segments":[],"categories_sizes":[],"default_left":[1,1,1,1,1,0,1,1,1,1,1,0,0,0,1,1,1,1,1,1,0,0,1,1,1,1,1,0,1,0,0,0,0,0,0,0,0,0,0,0,0,0,0,0,0],"id":10,"left_children":[1,3,5,7,9,-1,11,13,15,17,19,-1,-1,-1,21,23,25,27,29,31,-1,-1,33,35,37,39,41,-1,43,-1,-1,-1,-1,-1,-1,-1,-1,-1,-1,-1,-1,-1,-1,-1,-1],"loss_changes":[3.2862928E0,3.9436316E0,1.1181293E0,3.8838212E0,2.977137E0,0E0,5.552423E-1,3.2533844E0,3.5333645E0,1.7959952E0,2.2355814E0,0E0,0E0,0E0,1.5630326E0,2.7265003E0,3.659233E0,2.238162E0,2.365818E-1,2.026655E0,0E0,0E0,1.1202598E0,3.441506E0,2.996993E-1,4.380558E0,4.6017737E0,0E0,4.834113E-1,0E0,0E0,0E0,0E0,0E0,0E0,0E0,0E0,0E0,0E0,0E0,0E0,0E0,0E0,0E0,0E0],"parents":[2147483647,0,0,1,1,2,2,3,3,4,4,6,6,7,7,8,8,9,9,10,10,14,14,15,15,16,16,17,17,18,18,19,19,22,22,23,23,24,24,25,25,26,26,28,28],"right_children":[2,4,6,8,10,-1,12,14,16,18,20,-1,-1,-1,22,24,26,28,30,32,-1,-1,34,36,38,40,42,-1,44,-1,-1,-1,-1,-1,-1,-1,-1,-1,-1,-1,-1,-1,-1,-1,-1],"split_conditions":[9.405E2,1.3638097E0,-6.774318E-1,3.0392932E-2,3.228189E0,2.9212344E-2,8.024395E0,6.483726E-2,-2.2223648E-1,-2.307475E-2,5.12E2,-2.7596894E-1,-1.933539E-2,-1.7644666E-1,-1.4171277E-2,9.3367314E-1,2.369171E0,-4.8021875E-2,2.0213103E0,7.899189E4,1.8238811E-1,-4.6259634E-2,1.054714E0,2.7766862E0,7.73337E0,1.0192199E0,-6.3688254E-1,-1.4981103E-1,7.2872357E0,9.943386E-2,3.4003863E-1,-2.7170017E-1,1.1618122E-1,1.2376893E-2,3.549676E-1,1.781209E-1,-3.0822024E-1,3.7752992E-1,8.636142E-2,5.783567E-3,-2.98813E-1,-2.501037E-1,1.7183067E-2,1.0336349E-2,2.5987428E-1],"split_indices":[0,32,5,16,32,0,23,30,34,35,0,0,0,0,2,1,34,42,34,37,0,0,36,4,27,12,43,0,29,0,0,0,0,0,0,0,0,0,0,0,0,0,0,0,0],"split_type":[0,0,0,0,0,0,0,0,0,0,0,0,0,0,0,0,0,0,0,0,0,0,0,0,0,0,0,0,0,0,0,0,0,0,0,0,0,0,0,0,0,0,0,0,0],"sum_hessian":[1.1872341E2,1.1176482E2,6.958594E0,9.388407E1,1.788074E1,1.5842394E0,5.374355E0,8.406879E0,8.5477196E1,1.2279793E1,5.600947E0,4.3038936E0,1.0704609E0,1.2213439E0,7.185536E0,6.901491E0,7.857571E1,4.9161654E0,7.3636274E0,3.7573984E0,1.8435485E0,1.0769962E0,6.1085396E0,3.414978E0,3.4865131E0,1.6209343E1,6.236636E1,1.8715959E0,3.0445695E0,1.5085645E0,5.855063E0,2.6209779E0,1.1364205E0,1.0883445E0,5.0201955E0,2.1822803E0,1.2326977E0,2.3175602E0,1.168953E0,7.4755073E0,8.733835E0,5.443461E0,5.69229E1,1.0200344E0,2.024535E0],"tree_param":{"num_deleted":"0","num_feature":"49","num_nodes":"45","size_leaf_vector":"0"}},{"base_weights":[2.0033646E-2,7.961338E-1,-1.0099927E-2,1.08700834E-1,-1.9999987E-1,8.732691E-3,7.770083E-1,-4.125561E-4,-7.2970736E-1,1.0005683E-1,-6.2408817E-1,-2.2877227E-1,9.3244106E-1,-3.868952E-1,3.510256E-1,1.0675217E-1,-1.024038E0,-2.077161E-3,8.106225E-1,2.0012909E-1,-8.1943905E-1,1.0753894E0,2.0103935E-2,4.9309653E-1,-6.0150474E-1,-5.821718E-1,4.5696312E-1,5.56037E-1,-5.022347E-1,-7.998775E-2,-1.1395755E0,-8.892596E-2,7.371497E-1,1.061117E0,-1.5646991E-1,-1.0082762E0,-9.362623E-2,7.586766E-1,-5.0688848E-2,2.9014862E-1,-7.736098E-1,6.6003674E-1,-1.3528223E-1,-1.2293073E0,-2.8789482E-1],"categories":[],"categories_nodes":[],"categories_segments":[],"categories_sizes":[],"default_left":[1,0,1,1,1,1,1,1,1,1,1,0,1,1,1,1,1,1,1,0,1,0,0,1,1,0,1,0,0,0,1,0,0,0,0,0,0,0,0,0,0,0,0,0,0],"id":11,"left_children":[1,-1,3,5,7,9,11,13,15,17,19,-1,21,23,25,27,29,31,33,-1,35,-1,-1,37,39,-1,41,-1,-1,-1,43,-1,-1,-1,-1,-1,-1,-1,-1,-1,-1,-1,-1,-1,-1],"loss_changes":[2.6967897E0,0E0,2.5408118E0,4.6255364E0,4.5799723E0,3.6065643E0,1.6219678E0,4.5457096E0,3.0281687E0,3.9535322E0,1.431498E0,0E0,1.021924E0,3.3066635E0,1.9989631E0,1.3713741E0,8.7570477E-1,3.1862087E0,1.8244524E0,0E0,8.047304E-1,0E0,0E0,5.6911606E-1,2.2599401E0,0E0,2.0499523E0,0E0,0E0,0E0,2.438879E-1,0E0,0E0,0E0,0E0,0E0,0E0,0E0,0E0,0E0,0E0,0E0,0E0,0E0,0E0],"parents":[2147483647,0,0,2,2,3,3,4,4,5,5,6,6,7,7,8,8,9,9,10,10,12,12,13,13,14,14,15,15,16,16,17,17,18,18,20,20,23,23,24,24,26,26,30,30],"right_children":[2,-1,4,6,8,10,12,14,16,18,20,-1,22,24,26,28,30,32,34,-1,36,-1,-1,38,40,-1,42,-1,-1,-1,44,-1,-1,-1,-1,-1,-1,-1,-1,-1,-1,-1,-1,-1,-1],"split_conditions":[1.455E2,2.3884015E-1,1.2038453E3,7.719814E2,7.526908E0,7.323915E-1,3.539257E0,5.135952E-2,-8.0460954E-1,1.2050314E0,1.6209834E0,-6.8631686E-2,1.8222408E1,-1.8479908E0,-1.8830698E0,2.0127905E2,1.6536742E0,1.6611326E0,3.1278086E0,6.003873E-2,1.0870998E0,3.2261682E-1,6.0311807E-3,2.0959473E0,6.4381742E0,-1.7465155E-1,1.457691E1,1.6681111E-1,-1.5067041E-1,-2.3996325E-2,3.9801094E1,-2.667779E-2,2.2114493E-1,3.1833512E-1,-4.6940975E-2,-3.0248287E-1,-2.8087871E-2,2.2760299E-1,-1.5206655E-2,8.704459E-2,-2.3208295E-1,1.9801103E-1,-4.0584672E-2,-3.687922E-1,-8.636845E-2],"split_indices":[0,0,37,37,23,2,29,2,42,32,37,0,28,13,35,31,27,24,32,0,1,0,0,11,36,0,22,0,0,0,25,0,0,0,0,0,0,0,0,0,0,0,0,0,0],"split_type":[0,0,0,0,0,0,0,0,0,0,0,0,0,0,0,0,0,0,0,0,0,0,0,0,0,0,0,0,0,0,0,0,0,0,0,0,0,0,0,0,0,0,0,0,0],"sum_hessian":[1.13969284E2,3.309588E0,1.106597E2,6.833632E1,4.2323383E1,6.032563E1,8.010686E0,3.1467567E1,1.0855815E1,5.34535E1,6.8721347E0,1.0091023E0,7.0015836E0,1.4938522E1,1.6529045E1,2.991516E0,7.864299E0,4.7607635E1,5.845862E0,1.3120254E0,5.560109E0,5.8986425E0,1.1029409E0,2.6744554E0,1.2264068E1,1.2268008E0,1.5302243E1,1.7715147E0,1.2200015E0,1.042053E0,6.822246E0,4.3389664E1,4.2179728E0,4.565969E0,1.279893E0,4.103357E0,1.4567525E0,1.5313706E0,1.1430846E0,1.8732305E0,1.0390837E1,1.1309791E1,3.992453E0,5.7708473E0,1.0513985E0],"tree_param":{"num_deleted":"0","num_feature":"49","num_nodes":"45","size_leaf_vector":"0"}},{"base_weights":[1.8218225E-2,9.1461015E-1,-6.2761614E-3,7.784531E-1,-3.384572E-2,9.2332536E-1,2.3817237E-1,6.8314355E-3,-6.531893E-1,3.4464583E-2,-9.451922E-1,-8.764155E-1,-1.16039135E-1,5.187688E-3,8.212495E-1,3.907806E-1,-5.6792754E-1,8.264584E-2,-3.3033377E-1],"categories":[],"categories_nodes":[],"categories_segments":[],"categories_sizes":[],"default_left":[1,0,1,1,1,0,0,1,1,1,0,0,1,1,0,0,0,0,0],"id":12,"left_children":[1,-1,3,5,7,-1,-1,9,11,13,-1,-1,15,17,-1,-1,-1,-1,-1],"loss_changes":[2.411244E0,0E0,2.3550231E0,6.929302E-2,2.64827E0,0E0,0E0,2.6492074E0,6.750419E-1,2.2444465E0,0E0,0E0,9.214604E-1,2.4995437E0,0E0,0E0,0E0,0E0,0E0],"parents":[2147483647,0,0,2,2,3,3,4,4,7,7,8,8,9,9,12,12,13,13],"right_children":[2,-1,4,6,8,-1,-1,10,12,14,-1,-1,16,18,-1,-1,-1,-1,-1],"split_conditions":[-3.7029157E0,2.7438307E-1,9.9456996E-2,7.6527536E-2,2.8837702E1,2.7699763E-1,7.1451716E-2,5.6792984E0,8.495E2,5.665535E1,-2.8355768E-1,-2.6292467E-1,1.0065E3,2.0136833E0,2.4637486E-1,1.17234185E-1,-1.7037827E-1,2.4793753E-2,-9.9100135E-2],"split_indices":[32,0,36,35,11,0,0,3,0,25,0,0,0,25,0,0,0,0,0],"split_type":[0,0,0,0,0,0,0,0,0,0,0,0,0,0,0,0,0,0,0],"sum_hessian":[1.0855736E2,1.9208994E0,1.0663645E2,2.694866E0,1.0394159E2,1.5659854E0,1.1288805E0,9.846368E1,5.4779124E0,9.6622925E1,1.840749E0,3.4235632E0,2.0543494E0,9.412698E1,2.4959466E0,1.0320601E0,1.0222892E0,7.7084915E1,1.7042067E1],"tree_param":{"num_deleted":"0","num_feature":"49","num_nodes":"19","size_leaf_vector":"0"}},{"base_weights":[1.4899738E-2,5.3238306E-2,-5.55902E-1,1.0144276E-2,7.238916E-1,-8.404597E-1,-5.5763002E-2,-1.1189609E-1,2.0959423E-1,-8.072811E-2,9.180689E-1,4.3845338E-1,-5.004276E-1,-1.6696365E-1,7.59916E-1,-5.2152723E-2,5.654037E-1,3.928783E-2,-4.033224E-1,9.0280986E-1,1.87642E-1,-5.581692E-1,2.2362351E-1,-8.265851E-2,7.6892585E-1,6.202433E-1,-1.3356125E-1,3.8366228E-1,-5.4061806E-1,5.1442057E-1,-1.0169986E0,4.7955728E-1,-6.7712885E-1,-6.1234117E-1,5.102843E-1,9.4987726E-1,1.06458955E-1],"categories":[],"categories_nodes":[],"categories_segments":[],"categories_sizes":[],"default_left":[1,1,1,1,1,0,1,1,1,0,0,0,0,1,1,1,1,1,1,0,0,1,1,1,1,0,0,0,0,0,0,0,0,0,0,0,0],"id":13,"left_children":[1,3,5,7,9,-1,11,13,15,-1,-1,-1,-1,17,19,21,23,25,27,-1,-1,29,31,33,35,-1,-1,-1,-1,-1,-1,-1,-1,-1,-1,-1,-1],"loss_changes":[2.390109E0,2.9402804E0,9.3176746E-1,2.3807805E0,1.0339901E0,0E0,1.0027877E0,3.042656E0,3.4857726E0,0E0,0E0,0E0,0E0,2.8406775E0,1.4039588E-1,3.236403E0,2.1493416E0,3.2816503E0,3.134584E0,0E0,0E0,4.5348196E0,3.8164148E0,1.7830616E0,1.353147E0,0E0,0E0,0E0,0E0,0E0,0E0,0E0,0E0,0E0,0E0,0E0,0E0],"parents":[2147483647,0,0,1,1,2,2,3,3,4,4,6,6,7,7,8,8,13,13,14,14,15,15,16,16,17,17,18,18,21,21,22,22,23,23,24,24],"right_children":[2,4,6,8,10,-1,12,14,16,-1,-1,-1,-1,18,20,22,24,26,28,-1,-1,30,32,34,36,-1,-1,-1,-1,-1,-1,-1,-1,-1,-1,-1,-1],"split_conditions":[9.405E2,8.715E2,5.2651687E0,5.2444464E-1,-2.5039327E-1,-2.5213793E-1,7.4826264E-1,5.933663E1,8.91773E0,-2.4218434E-2,2.7542067E-1,1.3153602E-1,-1.5012829E-1,2.506543E-1,1.125157E2,6.7757783E0,-1.0095208E-3,-4.2850727E-1,-4.338442E-1,2.7084297E-1,5.62926E-2,4.91871E-1,5.970532E-2,3.107361E0,1.7793356E1,1.86073E-1,-4.0068377E-2,1.1509869E-1,-1.6218543E-1,1.5432617E-1,-3.050996E-1,1.438672E-1,-2.0313866E-1,-1.8370235E-1,1.5308529E-1,2.849632E-1,3.193769E-2],"split_indices":[0,0,44,18,43,0,3,28,9,0,0,0,0,43,28,29,15,32,7,0,0,30,6,21,27,0,0,0,0,0,0,0,0,0,0,0,0],"split_type":[0,0,0,0,0,0,0,0,0,0,0,0,0,0,0,0,0,0,0,0,0,0,0,0,0,0,0,0,0,0,0,0,0,0,0,0,0],"sum_hessian":[1.068662E2,1.0098984E2,5.87637E0,9.584619E1,5.143643E0,3.311701E0,2.564669E0,5.9734528E1,3.6111664E1,1.1135672E0,4.0300756E0,1.2212716E0,1.3433973E0,5.694605E1,2.788481E0,2.1297695E1,1.4813968E1,3.0855066E1,2.6090982E1,1.7691503E0,1.0193307E0,7.1515193E0,1.4146176E1,3.6823523E0,1.1131616E1,6.4816213E0,2.4373444E1,3.6090906E0,2.2481892E1,2.1063707E0,5.0451484E0,1.1380267E1,2.7659094E0,1.9276472E0,1.7547051E0,8.402611E0,2.7290041E0],"tree_param":{"num_deleted":"0","num_feature":"49","num_nodes":"37","size_leaf_vector":"0"}},{"base_weights":[1.6530812E-2,7.479083E-1,-1.0354565E-2,-2.955655E-1,5.969488E-2,-1.1171087E-2,-8.929709E-1,4.0742043E-1,-8.3544366E-2,-1.0342704E0,1.9528529E-1,-3.3935207E-1,-1.0422868E0,6.717808E-1,-2.4778605E-1,-6.330859E-1,2.8747171E-2,6.9064E-1,-2.6034245E-1,4.334473E-2,8.413895E-1,-7.601485E-1,9.5516086E-1,5.498827E-1,-9.085327E-1,1.0568981E0,-8.9956224E-2,-2.3725726E-2,9.041491E-1,-7.4896693E-1,6.143761E-1,-5.3368604E-1,6.680385E-1,9.6907103E-1,-6.455434E-2,-9.747506E-1,8.819281E-3,5.26077E-2,-1.1022134E0,-1.1601425E0,8.18884E-2],"categories":[],"categories_nodes":[],"categories_segments":[],"categories_sizes":[],"default_left":[1,0,1,1,1,1,1,1,1,0,1,0,0,1,1,1,1,1,1,1,1,1,0,0,1,0,1,0,0,0,0,0,0,0,0,0,0,0,0,0,0],"id":14,"left_children":[1,-1,3,5,7,9,11,13,15,-1,17,-1,-1,19,21,23,25,27,29,31,33,35,-1,-1,37,-1,39,-1,-1,-1,-1,-1,-1,-1,-1,-1,-1,-1,-1,-1,-1],"loss_changes":[2.0282805E0,0E0,2.0175154E0,3.3719273E0,4.078142E0,3.2643788E0,1.7593813E-1,4.299012E0,3.6180117E0,0E0,3.09243E0,0E0,0E0,1.8042078E0,5.403801E0,3.7388294E0,6.12341E0,1.0062532E0,3.643616E0,2.059556E0,1.6292887E0,9.788189E-1,0E0,0E0,1.6292315E0,0E0,8.408175E0,0E0,0E0,0E0,0E0,0E0,0E0,0E0,0E0,0E0,0E0,0E0,0E0,0E0,0E0],"parents":[2147483647,0,0,2,2,3,3,4,4,5,5,6,6,7,7,8,8,10,10,13,13,14,14,15,15,16,16,17,17,18,18,19,19,20,20,21,21,24,24,26,26],"right_children":[2,-1,4,6,8,10,12,14,16,-1,18,-1,-1,20,22,24,26,28,30,32,34,36,-1,-1,38,-1,40,-1,-1,-1,-1,-1,-1,-1,-1,-1,-1,-1,-1,-1,-1],"split_conditions":[1.455E2,2.2437249E-1,2.765E2,1.1424877E-2,4.47E2,8.183965E-2,4.156808E-1,2.795816E1,5.095E2,-3.1028113E-1,2.506543E-1,-1.0180563E-1,-3.1268603E-1,2.3577545E0,1.2587452E0,1.2412299E0,5.485E2,-2.8312877E-1,2.804956E0,-7.6065413E-3,2.7076061E1,3.4216454E1,2.8654826E-1,1.6496482E-1,-3.045591E-2,3.1706944E-1,5.995E2,-7.117718E-3,2.7124473E-1,-2.246901E-1,1.8431285E-1,-1.6010582E-1,2.0041156E-1,2.9072133E-1,-1.9366303E-2,-2.924252E-1,2.6457845E-3,1.5782312E-2,-3.3066404E-1,-3.480428E-1,2.4566522E-2],"split_indices":[0,0,0,48,0,11,5,31,0,0,43,0,0,34,43,29,0,43,43,13,34,9,0,0,47,0,0,0,0,0,0,0,0,0,0,0,0,0,0,0,0],"split_type":[0,0,0,0,0,0,0,0,0,0,0,0,0,0,0,0,0,0,0,0,0,0,0,0,0,0,0,0,0,0,0,0,0,0,0,0,0,0,0,0,0],"sum_hessian":[1.0175641E2,2.6570423E0,9.9099365E1,1.8905401E1,8.019397E1,1.3498262E1,5.407138E0,2.2858547E1,5.733542E1,1.5932491E0,1.1905014E1,1.8437544E0,3.5633836E0,1.6269066E1,6.589481E0,8.941058E0,4.8394363E1,5.4567175E0,6.448296E0,3.7245128E0,1.2544553E1,4.8793497E0,1.7101313E0,1.500498E0,7.44056E0,4.1909246E0,4.4203438E1,1.4601567E0,3.9965608E0,4.2294536E0,2.2188427E0,2.0118484E0,1.7126644E0,1.0933877E1,1.610676E0,3.605519E0,1.2738305E0,1.3700527E0,6.070507E0,5.320178E0,3.888326E1],"tree_param":{"num_deleted":"0","num_feature":"49","num_nodes":"41","size_leaf_vector":"0"}},{"base_weights":[1.0424675E-2,4.5773342E-2,-5.133889E-1,9.167221E-3,6.354425E-1,2.0993395E-2,-7.3378867E-1,3.7208915E-2,-8.931038E-1,8.521882E-1,-1.3879162E-1,-5.7612598E-2,2.697598E-1,-6.5076774E-1,1.6925348E-2,-2.2522713E-1,5.031335E-1,-1.179845E0,2.0214296E-3,7.10177E-1,-4.9316753E-2,2.2291785E-1,-5.73381E-1,7.047667E-1,9.368487E-2],"categories":[],"categories_nodes":[],"categories_segments":[],"categories_sizes":[],"default_left":[1,1,1,1,1,0,0,1,0,0,0,1,1,1,1,1,1,0,0,0,0,0,0,0,0],"id":15,"left_children":[1,3,5,7,9,-1,-1,11,-1,-1,-1,13,15,17,19,21,23,-1,-1,-1,-1,-1,-1,-1,-1],"loss_changes":[1.8026389E0,1.9569415E0,7.4046206E-1,2.2250652E0,1.007724E0,0E0,0E0,1.8893857E0,0E0,0E0,0E0,2.7163339E0,2.976925E0,2.3703434E0,2.5760388E0,1.474855E0,1.3503404E0,0E0,0E0,0E0,0E0,0E0,0E0,0E0,0E0],"parents":[2147483647,0,0,1,1,2,2,3,3,4,4,7,7,11,11,12,12,13,13,14,14,15,15,16,16],"right_children":[2,4,6,8,10,-1,-1,12,-1,-1,-1,14,16,18,20,22,24,-1,-1,-1,-1,-1,-1,-1,-1],"split_conditions":[9.405E2,8.715E2,3.5657668E-1,8.615E2,8.580802E-3,6.2980186E-3,-2.2013661E-1,4.856581E-1,-2.6793113E-1,2.5565648E-1,-4.1637488E-2,-4.635473E-4,3.37E2,-2.6136253E-4,2.9924948E-2,7.893054E-5,1.9440254E1,-3.539535E-1,6.064289E-4,2.130531E-1,-1.4795027E-2,6.687536E-2,-1.7201431E-1,2.1143001E-1,2.8105462E-2],"split_indices":[0,0,17,0,7,0,0,32,0,0,0,40,0,2,16,13,28,0,0,0,0,0,0,0,0],"split_type":[0,0,0,0,0,0,0,0,0,0,0,0,0,0,0,0,0,0,0,0,0,0,0,0,0],"sum_hessian":[9.508603E1,8.992988E1,5.1561494E0,8.5629616E1,4.300262E0,1.76981E0,3.3863397E0,8.397841E1,1.6512052E0,3.2810504E0,1.0192112E0,6.0188923E1,2.3789488E1,5.8561773E0,5.433275E1,7.633563E0,1.6155924E1,2.7886343E0,3.067543E0,3.890987E0,5.044176E1,3.4947817E0,4.1387815E0,1.0341827E1,5.814097E0],"tree_param":{"num_deleted":"0","num_feature":"49","num_nodes":"25","size_leaf_vector":"0"}},{"base_weights":[5.136755E-3,7.077001E-1,-1.975539E-2,4.5676384E-2,-2.8089145E-1,1.6710456E-1,-2.0158233E-1,-4.2285958E-1,3.0734062E-1,-3.593099E-1,2.709166E-1,4.676074E-1,-3.8713464E-1,-7.145028E-1,-2.6224706E-2,6.267623E-1,-2.6075616E-1,-6.9171965E-1,6.003518E-1,3.6817133E-1,-3.8914177E-1,-3.2775223E-1,8.294617E-1,1.7539063E-1,-5.580816E-1,-8.418375E-1,8.872651E-2,7.4745226E-1,-3.367122E-1,-9.827677E-1,3.1626556E-2,-4.9062207E-1,4.5028427E-1,-6.3576525E-1,2.9492152E-1,7.4279326E-1,-2.5748008E-1,-9.060567E-1,-1.5351501E-1,-1.7791976E-1,-9.4779307E-1,3.1159675E-1,-6.062922E-1],"categories":[],"categories_nodes":[],"categories_segments":[],"categories_sizes":[],"default_left":[1,0,1,1,1,1,1,1,1,1,1,1,1,1,1,0,0,1,0,1,1,0,0,1,1,1,0,0,1,0,0,0,0,0,0,0,0,0,0,0,0,0,0],"id":16,"left_children":[1,-1,3,5,7,9,11,13,15,17,19,21,23,25,27,-1,-1,29,-1,31,33,-1,-1,35,37,39,-1,-1,41,-1,-1,-1,-1,-1,-1,-1,-1,-1,-1,-1,-1,-1,-1],"loss_changes":[1.6474184E0,0E0,1.5707604E0,2.2485669E0,1.6672657E0,2.8308618E0,3.2541776E0,1.7453668E0,9.179821E-1,3.1807928E0,2.861943E0,1.9485223E0,2.0138032E0,9.696617E-1,2.0533373E0,0E0,0E0,1.4844878E0,0E0,2.8601365E0,1.1870685E0,0E0,0E0,1.5186509E0,2.04572E0,3.693924E-1,0E0,0E0,1.2448237E0,0E0,0E0,0E0,0E0,0E0,0E0,0E0,0E0,0E0,0E0,0E0,0E0,0E0,0E0],"parents":[2147483647,0,0,2,2,3,3,4,4,5,5,6,6,7,7,8,8,9,9,10,10,11,11,12,12,13,13,14,14,17,17,19,19,20,20,23,23,24,24,25,25,28,28],"right_children":[2,-1,4,6,8,10,12,14,16,18,20,22,24,26,28,-1,-1,30,-1,32,34,-1,-1,36,38,40,-1,-1,42,-1,-1,-1,-1,-1,-1,-1,-1,-1,-1,-1,-1,-1,-1],"split_conditions":[1.455E2,2.1231003E-1,3.878526E-3,1.3374167E3,2.860821E1,5.6109615E-2,-9.784309E-3,3.9860868E-1,9.800695E-1,2.039599E0,4.7212505E-1,3.8262036E0,-1.7853087E-1,2.2768457E1,4.2042127E0,1.880287E-1,-7.822685E-2,7.5083847E0,1.8010555E-1,-2.212151E-1,1.8964871E0,-9.832568E-2,2.4883851E-1,4.214937E0,6.2110545E-3,1.3178948E-1,2.6617955E-2,2.2423568E-1,-5.353884E-1,-2.9483032E-1,9.487967E-3,-1.4718662E-1,1.3508528E-1,-1.9072959E-1,8.847646E-2,2.2283798E-1,-7.724403E-2,-2.7181703E-1,-4.6054505E-2,-5.337593E-2,-2.8433794E-1,9.347903E-2,-1.8188766E-1],"split_indices":[0,0,7,30,28,30,19,26,2,44,13,29,7,4,14,0,0,39,0,6,5,0,0,46,13,10,0,0,47,0,0,0,0,0,0,0,0,0,0,0,0,0,0],"split_type":[0,0,0,0,0,0,0,0,0,0,0,0,0,0,0,0,0,0,0,0,0,0,0,0,0,0,0,0,0,0,0,0,0,0,0,0,0,0,0,0,0,0,0],"sum_hessian":[9.240169E1,2.223185E0,9.0178505E1,7.276993E1,1.7408573E1,4.902033E1,2.37496E1,1.4250411E1,3.1581614E0,7.66931E0,4.135102E1,4.825711E0,1.8923887E1,7.750272E0,6.5001388E0,1.9554253E0,1.2027363E0,5.9036093E0,1.7657005E0,3.6426117E1,4.924905E0,1.5384417E0,3.2872694E0,4.404445E0,1.45194435E1,6.648266E0,1.1020057E0,1.4584938E0,5.041645E0,3.954017E0,1.9495925E0,2.7447436E0,3.3681374E1,3.671745E0,1.2531599E0,1.5961963E0,2.8082488E0,7.1392617E0,7.3801813E0,1.2837129E0,5.364553E0,1.4349338E0,3.6067114E0],"tree_param":{"num_deleted":"0","num_feature":"49","num_nodes":"43","size_leaf_vector":"0"}},{"base_weights":[1.711523E-3,9.626323E-2,-1.4991197E-1,1.9080201E-2,6.3443166E-1,-6.4398956E-1,-1.084957E-2,9.5067225E-2,-5.4869723E-1,-9.610755E-2,7.9583085E-1,-8.664233E-1,2.7565673E-1,9.437127E-2,-6.93406E-1,1.7234588E-2,5.862983E-1,1.088881E-1,-7.425542E-1,9.4178677E-1,9.8481394E-2,-1.0084363E0,-1.9101714E-1,4.442175E-1,-1.5324369E-1,-1.7154096E-1,-8.256013E-1,-4.812906E-1,1.0095071E-1,6.498078E-2,7.4918E-1,-8.9234513E-1,-1.2379394E-1,-1.9962846E-1,8.22973E-1,-8.3843815E-1,8.865656E-2,-9.1119576E-1,1.7093788E-1,4.356612E-1,-9.375155E-2,5.819588E-1,-6.3658357E-1,1.1139183E-2,9.601016E-1,4.5019916E-1,-2.2584194E-1],"categories":[],"categories_nodes":[],"categories_segments":[],"categories_sizes":[],"default_left":[1,1,1,1,1,1,1,1,1,0,1,1,0,1,1,1,1,0,1,0,0,0,0,1,1,0,0,1,1,0,0,0,0,1,1,0,1,0,0,0,0,0,0,0,0,0,0],"id":17,"left_children":[1,3,5,7,9,11,13,15,17,-1,19,21,-1,23,25,27,29,-1,31,-1,-1,-1,-1,33,35,-1,-1,37,39,-1,-1,-1,-1,41,43,-1,45,-1,-1,-1,-1,-1,-1,-1,-1,-1,-1],"loss_changes":[1.2841454E0,2.279046E0,2.3571029E0,2.1779044E0,8.8857985E-1,1.7812631E0,2.0668774E0,1.6839495E0,8.410572E-1,0E0,4.9239087E-1,4.1289425E-1,0E0,2.2359848E0,1.2342787E-1,1.6878349E0,4.6332884E-1,0E0,3.2826042E-1,0E0,0E0,0E0,0E0,2.7561092E0,2.6264431E0,0E0,0E0,1.7879064E0,2.2863722E0,0E0,0E0,0E0,0E0,1.9897208E0,7.5600004E-1,0E0,1.4984539E0,0E0,0E0,0E0,0E0,0E0,0E0,0E0,0E0,0E0,0E0],"parents":[2147483647,0,0,1,1,2,2,3,3,4,4,5,5,6,6,7,7,8,8,10,10,11,11,13,13,14,14,15,15,16,16,18,18,23,23,24,24,27,27,28,28,33,33,34,34,36,36],"right_children":[2,4,6,8,10,12,14,16,18,-1,20,22,-1,24,26,28,30,-1,32,-1,-1,-1,-1,34,36,-1,-1,38,40,-1,-1,-1,-1,42,44,-1,46,-1,-1,-1,-1,-1,-1,-1,-1,-1,-1],"split_conditions":[1.1590854E3,7.719814E2,2.1830635E1,6.740676E-1,3.655191E0,1.7852418E0,1.4329277E1,1.2050314E0,1.5511146E0,-2.8832266E-2,1.0850111E1,1.0270224E1,8.269702E-2,3.9890907E0,2.4854857E-1,6.68357E-2,6.9702168E0,3.266643E-2,-3.2027707E-2,2.8253603E-1,2.9544419E-2,-3.025309E-1,-5.7305142E-2,1.7440517E0,2.4067206E0,-5.146229E-2,-2.476804E-1,4.79053E0,1.3612838E0,1.9494236E-2,2.2475402E-1,-2.6770356E-1,-3.7138183E-2,2.1060003E-1,4.4038205E0,-2.5153145E-1,6.5798454E0,-2.7335873E-1,5.1281366E-2,1.3069837E-1,-2.8125467E-2,1.7458764E-1,-1.9097508E-1,3.3417551E-3,2.880305E-1,1.3505976E-1,-6.7752585E-2],"split_indices":[37,37,33,13,29,44,23,32,21,0,11,34,0,46,32,30,29,0,42,0,0,0,0,46,8,0,0,9,30,0,0,0,0,8,28,0,34,0,0,0,0,0,0,0,0,0,0],"split_type":[0,0,0,0,0,0,0,0,0,0,0,0,0,0,0,0,0,0,0,0,0,0,0,0,0,0,0,0,0,0,0,0,0,0,0,0,0,0,0,0,0,0,0,0,0,0,0],"sum_hessian":[8.756664E1,5.4158665E1,3.3407978E1,4.8271168E1,5.8874993E0,6.5402064E0,2.686777E1,4.330775E1,4.963418E0,1.1385645E0,4.7489347E0,5.3130245E0,1.2271818E0,2.4025768E1,2.8420014E0,3.8277924E1,5.029825E0,1.2298687E0,3.7335496E0,3.6371517E0,1.1117829E0,3.982558E0,1.3304666E0,9.628303E0,1.4397466E1,1.0387962E0,1.8032053E0,4.8208613E0,3.345706E1,1.530445E0,3.49938E0,2.6499045E0,1.083645E0,3.7413402E0,5.8869624E0,3.11318E0,1.12842865E1,2.6663396E0,2.1545217E0,1.1849368E1,2.1607695E1,1.2226034E0,2.5187366E0,1.0069296E0,4.880033E0,5.048791E0,6.235495E0],"tree_param":{"num_deleted":"0","num_feature":"49","num_nodes":"47","size_leaf_vector":"0"}},{"base_weights":[-2.8771907E-3,-1.475507E-1,1.1526609E-1,1.5654248E-1,-3.2100978E-1,1.3296647E-3,5.5941474E-1,3.947985E-1,-4.0993956E-1,-6.143728E-1,-5.149432E-2,1.8851237E-1,-2.316043E-1,7.82322E-1,-2.1300383E-1,6.298513E-1,-2.6191545E-1,1.9266787E-1,-6.223149E-1,-2.285391E-1,-9.809579E-1,5.158526E-1,-3.1470257E-1,3.853713E-1,-3.2816476E-1,-3.7752017E-1,6.356093E-1,9.4037384E-1,3.4138244E-2,8.100563E-1,-3.2200015E-1,3.6907154E-1,-6.938823E-1,-1.2487744E-1,-7.690387E-1,1.1724027E-1,-6.1762613E-1,-2.3204438E-1,9.720667E-1,-6.055131E-1,2.8882292E-1,7.232983E-1,9.8104574E-2,-5.87703E-1,3.96916E-1,-4.8160845E-1,5.5544025E-1,1.0217754E0,2.719039E-1,-1.3472029E-3,9.918968E-1,-3.294127E-1,6.113383E-1,-1.8777056E-1,-7.205334E-1,1.5704162E-1,-8.2463276E-1,5.875995E-1,-1.2402102E-1,-1.05295464E-1,9.210917E-1,2.1124229E-1,-4.4805977E-1,-7.66809E-1,-9.8154485E-2,-6.680512E-1,1.8597813E-1],"categories":[],"categories_nodes":[],"categories_segments":[],"categories_sizes":[],"default_left":[1,1,1,1,1,1,1,1,1,1,1,1,1,1,0,1,1,0,1,1,0,1,1,1,1,1,0,1,0,1,0,0,0,0,0,1,1,0,0,1,1,1,1,1,0,1,0,0,0,0,0,0,0,0,0,0,0,0,0,0,0,0,0,0,0,0,0],"id":18,"left_children":[1,3,5,7,9,11,13,15,17,19,21,23,25,27,-1,29,31,-1,33,35,-1,37,39,41,43,45,-1,47,-1,49,-1,-1,-1,-1,-1,51,53,-1,-1,55,57,59,61,63,-1,65,-1,-1,-1,-1,-1,-1,-1,-1,-1,-1,-1,-1,-1,-1,-1,-1,-1,-1,-1,-1,-1],"loss_changes":[1.4590045E0,2.073828E0,2.3778038E0,2.133279E0,1.9257631E0,1.7183404E0,1.8184173E0,1.8307801E0,7.3613816E-1,1.4394927E0,2.2521E0,2.3485987E0,2.462234E0,8.735843E-1,0E0,1.6743722E0,1.2239034E0,0E0,1.8107629E-1,1.0188161E0,0E0,1.8680228E0,1.9616716E0,1.5093908E0,1.469192E0,1.7882383E0,0E0,6.419945E-2,0E0,1.0656524E0,0E0,0E0,0E0,0E0,0E0,1.2088288E0,1.8179059E-2,0E0,0E0,1.3313894E0,5.647154E-1,1.2972085E0,7.098681E-1,3.841405E-1,0E0,1.9444046E0,0E0,0E0,0E0,0E0,0E0,0E0,0E0,0E0,0E0,0E0,0E0,0E0,0E0,0E0,0E0,0E0,0E0,0E0,0E0,0E0,0E0],"parents":[2147483647,0,0,1,1,2,2,3,3,4,4,5,5,6,6,7,7,8,8,9,9,10,10,11,11,12,12,13,13,15,15,16,16,18,18,19,19,21,21,22,22,23,23,24,24,25,25,27,27,29,29,35,35,36,36,39,39,40,40,41,41,42,42,43,43,45,45],"right_children":[2,4,6,8,10,12,14,16,18,20,22,24,26,28,-1,30,32,-1,34,36,-1,38,40,42,44,46,-1,48,-1,50,-1,-1,-1,-1,-1,52,54,-1,-1,56,58,60,62,64,-1,66,-1,-1,-1,-1,-1,-1,-1,-1,-1,-1,-1,-1,-1,-1,-1,-1,-1,-1,-1,-1,-1],"split_conditions":[7.2456455E0,1.1055889E0,1.2602386E0,3.570619E4,6.20406E2,1.896262E1,3.7737127E-2,3.4303148E-3,-1.7932665E0,7.445991E0,-7.114917E-2,1.7561269E0,2.6486344E0,2.2802406E1,-6.390115E-2,1.1467714E0,-6.353681E-2,5.7800364E-2,1.1362057E1,1.9378284E-1,-2.9428738E-1,1.4268465E0,6.600989E-1,1.6515502E-1,2.6348238E0,6.96828E1,1.9068281E-1,2.8437943E0,1.0241473E-2,3.996099E-2,-9.660005E-2,1.1072147E-1,-2.0816469E-1,-3.7463233E-2,-2.3071161E-1,7.156452E1,1.6602283E2,-6.9613315E-2,2.9162002E-1,-5.698755E-1,3.6583698E-1,8.207964E-5,2.740552E1,7.175E2,1.1907481E-1,1.8612808E1,1.6663209E-1,3.0653262E-1,8.157118E-2,-4.041609E-4,2.9756907E-1,-9.8823816E-2,1.834015E-1,-5.633117E-2,-2.1616001E-1,4.711249E-2,-2.4738984E-1,1.7627986E-1,-3.7206307E-2,-3.158864E-2,2.7632752E-1,6.337269E-2,-1.3441794E-1,-2.3004271E-1,-2.9446347E-2,-2.0041536E-1,5.579344E-2],"split_indices":[29,8,18,37,38,29,13,42,13,27,3,5,5,22,0,2,18,0,22,43,0,17,32,14,10,22,0,18,0,40,0,0,0,0,0,33,33,0,0,13,17,40,11,0,0,31,0,0,0,0,0,0,0,0,0,0,0,0,0,0,0,0,0,0,0,0,0],"split_type":[0,0,0,0,0,0,0,0,0,0,0,0,0,0,0,0,0,0,0,0,0,0,0,0,0,0,0,0,0,0,0,0,0,0,0,0,0,0,0,0,0,0,0,0,0,0,0,0,0,0,0,0,0,0,0,0,0,0,0,0,0,0,0,0,0,0,0],"sum_hessian":[8.336578E1,3.736329E1,4.600249E1,1.3606717E1,2.3756573E1,3.7409035E1,8.593459E0,9.791565E0,3.8151524E0,1.076237E1,1.2994203E1,2.08472E1,1.6561834E1,6.658969E0,1.9344897E0,7.240817E0,2.5507476E0,1.0183672E0,2.7967854E0,6.034471E0,4.7278996E0,3.8137589E0,9.180444E0,1.5279644E1,5.5675554E0,1.4659865E1,1.9019692E0,5.2855377E0,1.3734313E0,6.213451E0,1.0273663E0,1.0957519E0,1.4549958E0,1.058673E0,1.7381123E0,3.564976E0,2.4694948E0,1.6311289E0,2.1826298E0,6.193024E0,2.9874198E0,6.3233223E0,8.956322E0,4.239513E0,1.3280425E0,1.3623686E1,1.0361792E0,4.240617E0,1.0449207E0,1.3192632E0,4.8941875E0,2.0474417E0,1.5175341E0,1.0226065E0,1.4468884E0,1.4455826E0,4.7474413E0,1.4875662E0,1.4998536E0,1.3086767E0,5.0146456E0,7.9273915E0,1.0289301E0,2.6892617E0,1.5502514E0,1.0648961E1,2.9747243E0],"tree_param":{"num_deleted":"0","num_feature":"49","num_nodes":"67","size_leaf_vector":"0"}},{"base_weights":[1.3162134E-3,3.557822E-2,-4.6280742E-1,-3.5050973E-2,3.3071893E-1,-7.527997E-1,7.7594467E-3,3.1036196E-2,-7.425041E-1,9.0299505E-1,1.654303E-2,3.125133E-1,-2.9116085E-1,-4.223445E-2,3.570364E-1,-1.2889327E-2,-9.2543787E-1,-3.076216E-1,5.751111E-1,5.627534E-2,-9.521955E-1,6.834645E-1,-1.8016507E-1,-5.566386E-1,4.9091396E-1,7.35956E-1,4.8225407E-2,-1.5055653E-2,8.3914006E-1,-3.727352E-2,9.589804E-1,-8.924069E-1,6.171048E-1,-8.7920517E-1,1.3835844E-1],"categories":[],"categories_nodes":[],"categories_segments":[],"categories_sizes":[],"default_left":[1,1,1,1,1,0,1,1,1,0,1,0,0,1,1,0,0,1,1,1,0,1,1,1,0,0,0,0,0,0,0,0,0,0,0],"id":19,"left_children":[1,3,5,7,9,-1,11,13,15,-1,17,-1,-1,19,21,-1,-1,23,25,27,-1,29,31,33,-1,-1,-1,-1,-1,-1,-1,-1,-1,-1,-1],"loss_changes":[1.2652903E0,1.5554808E0,7.523155E-1,2.8593965E0,2.573619E0,0E0,3.7116438E-1,1.3632879E0,6.85205E-1,0E0,2.0443144E0,0E0,0E0,4.2648053E0,1.9580225E0,0E0,0E0,1.7004874E0,3.150047E-1,2.4325342E0,0E0,1.369633E0,3.245928E0,1.4532677E0,0E0,0E0,0E0,0E0,0E0,0E0,0E0,0E0,0E0,0E0,0E0],"parents":[2147483647,0,0,1,1,2,2,3,3,4,4,6,6,7,7,8,8,10,10,13,13,14,14,17,17,18,18,19,19,21,21,22,22,23,23],"right_children":[2,4,6,8,10,-1,12,14,16,-1,18,-1,-1,20,22,-1,-1,24,26,28,-1,30,32,34,-1,-1,-1,-1,-1,-1,-1,-1,-1,-1,-1],"split_conditions":[9.405E2,7.315E2,5.2651687E0,6.915E2,8.05E2,-2.2583991E-1,3.808827E-1,5.995E2,-5.081426E-1,2.7089852E-1,8.715E2,9.375399E-2,-8.734826E-2,5.485E2,6.59E2,-3.866798E-3,-2.7763137E-1,4.0781007E0,8.9229553E2,5.095E2,-2.8565866E-1,5.8150196E0,6.745E2,1.0305594E1,1.472742E-1,2.2078681E-1,1.4467622E-2,-4.516696E-3,2.5174204E-1,-1.1182056E-2,2.8769413E-1,-2.6772207E-1,1.8513146E-1,-2.6376155E-1,4.1507535E-2],"split_indices":[0,0,44,0,0,0,17,0,32,0,0,0,0,0,0,0,0,39,33,0,0,29,0,9,0,0,0,0,0,0,0,0,0,0,0],"split_type":[0,0,0,0,0,0,0,0,0,0,0,0,0,0,0,0,0,0,0,0,0,0,0,0,0,0,0,0,0,0,0,0,0,0,0],"sum_hessian":[7.753348E1,7.306323E1,4.470248E0,5.9665993E1,1.3397242E1,2.3947089E0,2.075539E0,5.544289E1,4.2231016E0,4.084001E0,9.31324E0,1.0052241E0,1.070315E0,4.5979214E1,9.463677E0,1.0611718E0,3.1619298E0,6.1774364E0,3.135804E0,4.233437E1,3.644842E0,5.7173104E0,3.7463672E0,4.9398947E0,1.2375417E0,2.0984087E0,1.0373954E0,3.9698036E1,2.6363323E0,1.820271E0,3.8970394E0,1.9156716E0,1.8306955E0,3.192925E0,1.7469697E0],"tree_param":{"num_deleted":"0","num_feature":"49","num_nodes":"35","size_leaf_vector":"0"}},{"base_weights":[2.7221222E-3,6.457807E-1,-2.1594886E-2,-1.5409365E-1,8.36931E-2,-2.2411828E-3,-4.367416E-1,-6.7782897E-1,1.3587946E-1,1.7739026E-1,-4.4157216E-1,-6.158788E-1,1.5444122E-1,3.9447927E-1,-6.341042E-2,-3.074095E-1,4.0311334E-1,2.1809077E-1,-6.962631E-1,-1.6758025E-1,-8.273983E-1,5.45114E-1,-3.045239E-1,4.9665686E-1,-5.4483265E-1,-4.8796096E-1,1.7469977E-1,-5.867168E-1,1.8306075E-1,-2.0475444E-1,5.7084584E-1,-1.4464213E-1,-8.0005264E-1,-4.8075512E-1,3.5001665E-1,-2.611209E-1,-9.057709E-1,6.137439E-1,-1.5496552E-1,3.26701E-1,-6.9221586E-1,4.5021212E-1,-2.2928697E-1],"categories":[],"categories_nodes":[],"categories_segments":[],"categories_sizes":[],"default_left":[1,0,1,1,1,1,1,0,1,1,1,1,1,1,1,1,1,0,1,1,1,0,0,1,0,1,1,0,0,0,0,0,0,0,0,0,0,0,0,0,0,0,0],"id":20,"left_children":[1,-1,3,5,7,9,11,-1,13,15,17,19,21,23,25,27,29,-1,31,33,35,-1,-1,37,-1,39,41,-1,-1,-1,-1,-1,-1,-1,-1,-1,-1,-1,-1,-1,-1,-1,-1],"loss_changes":[1.1673446E0,0E0,1.0178891E0,1.3832148E0,1.7131324E0,1.8132689E0,1.2881973E0,0E0,2.0352807E0,1.9095484E0,1.2719218E0,7.0019794E-1,7.791095E-1,1.9132948E0,2.3993099E0,8.9526904E-1,1.2961723E0,0E0,1.7330241E-1,8.3123887E-1,1.8962622E-2,0E0,0E0,1.3127706E0,0E0,1.6387041E0,1.8175412E0,0E0,0E0,0E0,0E0,0E0,0E0,0E0,0E0,0E0,0E0,0E0,0E0,0E0,0E0,0E0,0E0],"parents":[2147483647,0,0,2,2,3,3,4,4,5,5,6,6,8,8,9,9,10,10,11,11,12,12,13,13,14,14,15,15,16,16,18,18,19,19,20,20,23,23,25,25,26,26],"right_children":[2,-1,4,6,8,10,12,-1,14,16,18,20,22,24,26,28,30,-1,32,34,36,-1,-1,38,-1,40,42,-1,-1,-1,-1,-1,-1,-1,-1,-1,-1,-1,-1,-1,-1,-1,-1],"split_conditions":[1.455E2,1.9373421E-1,7.270719E0,5.373737E0,1.855E2,2.7706376E-3,4.992226E-1,-2.033487E-1,4.44E2,2.369171E0,8.5535145E-1,2.7292702E-1,7.814703E0,2.4319854E0,5.99E2,6.29E2,1.7063597E-1,6.5427236E-2,2.6871604E-1,1.3441624E-1,-4.90088E-1,1.635342E-1,-9.135717E-2,9.831412E-1,-1.634498E-1,-1.8283647E-2,7.1866745E-1,-1.7601503E-1,5.4918226E-2,-6.1426334E-2,1.7125376E-1,-4.339264E-2,-2.400158E-1,-1.4422654E-1,1.05005E-1,-7.833627E-2,-2.717313E-1,1.8412317E-1,-4.6489656E-2,9.80103E-2,-2.0766477E-1,1.3506365E-1,-6.878609E-2],"split_indices":[0,0,29,11,0,42,24,0,0,34,34,12,22,24,0,0,11,0,30,2,23,0,0,2,0,47,4,0,0,0,0,0,0,0,0,0,0,0,0,0,0,0,0],"split_type":[0,0,0,0,0,0,0,0,0,0,0,0,0,0,0,0,0,0,0,0,0,0,0,0,0,0,0,0,0,0,0,0,0,0,0,0,0,0,0,0,0,0,0],"sum_hessian":[7.275967E1,1.7199216E0,7.103974E1,3.1249958E1,3.9789787E1,2.0984158E1,1.02657995E1,1.7829988E0,3.8006786E1,1.5317458E1,5.6666994E0,7.8464375E0,2.4193618E0,1.6115625E1,2.1891163E1,4.751174E0,1.0566284E1,1.618473E0,4.0482264E0,3.0899034E0,4.7565346E0,1.2055181E0,1.2138438E0,1.4959588E1,1.156037E0,7.488988E0,1.4402175E1,2.9022188E0,1.8489549E0,2.2373476E0,8.328937E0,1.020117E0,3.0281093E0,1.9694532E0,1.1204501E0,1.1049024E0,3.6516318E0,1.2730273E1,2.2293148E0,1.3810905E0,6.1078973E0,8.494584E0,5.9075904E0],"tree_param":{"num_deleted":"0","num_feature":"49","num_nodes":"43","size_leaf_vector":"0"}},{"base_weights":[-7.7842586E-3,2.3680635E-2,-4.3810445E-1,-3.8880814E-2,2.9868555E-1,1.0328694E-1,-6.1502564E-1,3.3550844E-2,-4.721316E-1,8.205479E-1,3.6093373E-2,-2.3567028E-2,8.1738514E-1,3.1364962E-1,-7.723925E-1,-2.3895656E-1,5.1090276E-1,2.1381918E-1,-1.5201591E-1,-9.1699636E-1,-5.681847E-2,3.4364128E-1,-4.6955872E-1,6.760406E-1,3.2572113E-2,-3.685394E-1,3.2129475E-1,-5.975157E-1,1.0737768E-2,2.4644881E-1,-7.323953E-1],"categories":[],"categories_nodes":[],"categories_segments":[],"categories_sizes":[],"default_left":[1,1,1,1,1,0,0,1,1,0,1,1,0,0,1,1,1,1,1,0,0,0,1,0,0,0,0,0,0,0,0],"id":21,"left_children":[1,3,5,7,9,-1,-1,11,13,-1,15,17,-1,-1,19,21,23,25,27,-1,-1,-1,29,-1,-1,-1,-1,-1,-1,-1,-1],"loss_changes":[9.5162475E-1,1.1424512E0,5.221315E-1,1.7239666E0,1.6554835E0,0E0,0E0,2.148965E0,2.0974288E0,0E0,1.3270223E0,1.4140933E0,0E0,0E0,5.66452E-1,1.0377803E0,2.704774E-1,1.1401403E0,2.1805704E0,0E0,0E0,0E0,1.1395633E0,0E0,0E0,0E0,0E0,0E0,0E0,0E0,0E0],"parents":[2147483647,0,0,1,1,2,2,3,3,4,4,7,7,8,8,10,10,11,11,14,14,15,15,16,16,17,17,18,18,22,22],"right_children":[2,4,6,8,10,-1,-1,12,14,-1,16,18,-1,-1,20,22,24,26,28,-1,-1,-1,30,-1,-1,-1,-1,-1,-1,-1,-1],"split_conditions":[9.405E2,7.315E2,-6.774318E-1,6.59E2,8.05E2,3.0986082E-2,-1.845077E-1,6.305E2,6.4016914E-1,2.4616437E-1,8.715E2,-1.2919344E-2,2.4521555E-1,9.4094895E-2,1.7855083E1,1.7651255E-1,8.9229553E2,-1.4167488E-2,-1.2336026E-1,-2.7509892E-1,-1.7045543E-2,1.0309239E-1,-1.1018124E-4,2.0281218E-1,9.771634E-3,-1.10561825E-1,9.638843E-2,-1.7925471E-1,3.2213307E-3,7.3934644E-2,-2.1971859E-1],"split_indices":[0,0,5,0,0,0,0,0,34,0,0,17,0,0,22,43,33,4,43,0,0,0,23,0,0,0,0,0,0,0,0],"split_type":[0,0,0,0,0,0,0,0,0,0,0,0,0,0,0,0,0,0,0,0,0,0,0,0,0,0,0,0,0,0,0],"sum_hessian":[6.8516365E1,6.472842E1,3.7879539E0,5.3431732E1,1.129668E1,1.035487E0,2.7524667E0,4.6568832E1,6.8629017E0,3.0702405E0,8.226439E0,4.430991E1,2.2589219E0,1.8850763E0,4.9778256E0,5.5234942E0,2.7029455E0,1.5324358E1,2.8985552E1,3.9068434E0,1.0709822E0,1.4273127E0,4.0961814E0,1.702013E0,1.0009326E0,2.0090775E0,1.331528E1,7.0410495E0,2.1944502E1,1.1166376E0,2.979544E0],"tree_param":{"num_deleted":"0","num_feature":"49","num_nodes":"31","size_leaf_vector":"0"}},{"base_weights":[-4.1813133E-3,6.090688E-1,-2.7721964E-2,-2.6537046E-1,3.770195E-2,-4.7840267E-1,2.8232282E-1,7.5346357E-1,-1.6364738E-3,7.4156806E-2,-7.705642E-1,-1.8313526E-1,6.0540724E-1,-6.9535017E-1,4.1053988E-2,6.7294693E-1,-3.3901957E-1,-1.3890202E-1,-8.6277956E-1,3.328423E-1,-6.399106E-2,-5.828269E-1,6.5416984E-2,5.0497866E-1,-3.75767E-1,-2.1037994E-1,1.419282E-1],"categories":[],"categories_nodes":[],"categories_segments":[],"categories_sizes":[],"default_left":[1,0,1,1,1,1,1,0,1,1,1,0,0,0,1,0,1,0,0,1,1,0,0,0,0,0,0],"id":22,"left_children":[1,-1,3,5,7,9,11,-1,13,15,17,-1,-1,-1,19,-1,21,-1,-1,23,25,-1,-1,-1,-1,-1,-1],"loss_changes":[9.727047E-1,0E0,1.0162387E0,1.779625E0,1.4547857E0,1.7553008E0,7.99026E-1,0E0,1.5072712E0,1.3539394E0,2.8607368E-1,0E0,0E0,0E0,1.49197E0,0E0,3.6919236E-1,0E0,0E0,1.758665E0,1.1186407E0,0E0,0E0,0E0,0E0,0E0,0E0],"parents":[2147483647,0,0,2,2,3,3,4,4,5,5,6,6,8,8,9,9,10,10,14,14,16,16,19,19,20,20],"right_children":[2,-1,4,6,8,10,12,-1,14,16,18,-1,-1,-1,20,-1,22,-1,-1,24,26,-1,-1,-1,-1,-1,-1],"split_conditions":[1.455E2,1.8272065E-1,2.765E2,2.1069468E1,2.925E2,1.7006923E-3,-9.15689E-3,2.2603908E-1,3.145E2,1.4536748E-4,-4.9293423E-1,-5.4940578E-2,1.8162218E-1,-2.0860507E-1,4.47E2,2.0188409E-1,7.4071493E0,-4.167061E-2,-2.588339E-1,2.2035293E3,1.1703762E1,-1.7484808E-1,1.9625096E-2,1.5149361E-1,-1.127301E-1,-6.311399E-2,4.257846E-2],"split_indices":[0,0,0,35,0,10,7,0,0,23,17,0,0,0,0,0,36,0,0,30,1,0,0,0,0,0,0],"split_type":[0,0,0,0,0,0,0,0,0,0,0,0,0,0,0,0,0,0,0,0,0,0,0,0,0,0,0],"sum_hessian":[6.5209465E1,1.4911416E0,6.3718327E1,1.3095075E1,5.0623253E1,9.519038E0,3.5760362E0,1.6915822E0,4.893167E1,3.5504048E0,5.968633E0,1.6426646E0,1.9333717E0,1.9503638E0,4.6981308E1,1.1928979E0,2.3575068E0,1.0796258E0,4.8890076E0,1.1862301E1,3.5119007E1,1.1956482E0,1.1618588E0,9.775088E0,2.087212E0,2.0513914E1,1.4605091E1],"tree_param":{"num_deleted":"0","num_feature":"49","num_nodes":"27","size_leaf_vector":"0"}},{"base_weights":[-1.8079997E-3,5.635394E-1,-2.2151254E-2,3.53651E-2,-2.3144585E-1,-2.5389013E-1,1.07028484E-1,-4.531962E-1,4.5419954E-2,1.8810135E-1,-5.584515E-1,-3.2517916E-1,1.6796291E-1,1.4508702E-1,-6.0474724E-1,-2.1974985E-1,4.4545138E-1,-1.3321291E-1,4.4752315E-1,4.3255053E-2,-7.214385E-1,-5.4174024E-1,2.848749E-1,5.4067445E-1,5.889703E-2,-8.461505E-2,-7.592028E-1,-4.604204E-1,2.1543898E-1,6.041614E-1,6.3521005E-2,-8.69429E-1,-2.621915E-1,-7.2461E-1,-4.7654316E-2,-1.7312916E-2,8.1135726E-1,-7.4608874E-1,1.4119308E-1,-1.3815139E-1,-8.905301E-1,-8.01796E-2,-5.8873415E-1],"categories":[],"categories_nodes":[],"categories_segments":[],"categories_sizes":[],"default_left":[1,0,1,1,1,1,1,1,1,1,1,1,1,0,1,1,1,0,0,0,1,1,0,1,1,0,1,1,0,0,0,0,0,0,0,0,0,0,0,0,0,0,0],"id":23,"left_children":[1,-1,3,5,7,9,11,13,15,17,19,21,23,-1,25,27,29,-1,-1,-1,31,33,-1,35,37,-1,39,41,-1,-1,-1,-1,-1,-1,-1,-1,-1,-1,-1,-1,-1,-1,-1],"loss_changes":[7.4473023E-1,0E0,7.5957453E-1,1.0601143E0,8.5483044E-1,1.4768702E0,1.1249222E0,7.801155E-1,8.353291E-1,4.6851528E-1,6.4761543E-1,8.6275035E-1,1.4428462E0,0E0,4.4078398E-1,6.0720545E-1,1.4963198E-1,0E0,0E0,0E0,1.12018585E-1,3.5417044E-1,0E0,1.2359962E0,2.0389163E0,0E0,2.6206517E-1,1.2072784E-1,0E0,0E0,0E0,0E0,0E0,0E0,0E0,0E0,0E0,0E0,0E0,0E0,0E0,0E0,0E0],"parents":[2147483647,0,0,2,2,3,3,4,4,5,5,6,6,7,7,8,8,9,9,10,10,11,11,12,12,14,14,15,15,16,16,20,20,21,21,23,23,24,24,26,26,27,27],"right_children":[2,-1,4,6,8,10,12,14,16,18,20,22,24,-1,26,28,30,-1,-1,-1,32,34,-1,36,38,-1,40,42,-1,-1,-1,-1,-1,-1,-1,-1,-1,-1,-1,-1,-1,-1,-1],"split_conditions":[1.455E2,1.6906182E-1,1.6563995E-3,-2.6504052E-1,4.221195E2,-2.2373793E-1,1.4387998E-1,-1.4378335E-1,1.4150604E1,-1.9703124E-4,1.2836005E-1,6.6015526E1,3.732593E-1,4.3526106E-2,-1.5388855E-1,1.0724943E1,1.5988781E0,-3.9963875E-2,1.3425694E-1,1.2976517E-2,2.1959315E2,7.1157324E-1,8.5462466E-2,3.8367517E-2,5.459682E-1,-2.5384517E-2,2.136839E-1,1.4588456E0,6.463169E-2,1.8124843E-1,1.9056302E-2,-2.608287E-1,-7.8657456E-2,-2.17383E-1,-1.4296295E-2,-5.193875E-3,2.4340719E-1,-2.2382663E-1,4.2357925E-2,-4.144542E-2,-2.6715904E-1,-2.4053881E-2,-1.7662024E-1],"split_indices":[0,0,7,13,30,7,11,13,28,15,11,16,31,0,3,29,5,0,0,0,16,5,0,40,31,0,11,19,0,0,0,0,0,0,0,0,0,0,0,0,0,0,0],"split_type":[0,0,0,0,0,0,0,0,0,0,0,0,0,0,0,0,0,0,0,0,0,0,0,0,0,0,0,0,0,0,0,0,0,0,0,0,0,0,0,0,0,0,0],"sum_hessian":[6.2668102E1,1.2492551E0,6.1418846E1,4.883069E1,1.258816E1,9.190841E0,3.9639847E1,6.6361675E0,5.951992E0,3.9054632E0,5.2853775E0,4.362205E0,3.527764E1,1.3498744E0,5.286293E0,3.8503616E0,2.1016302E0,1.9619434E0,1.94352E0,1.2831028E0,4.0022745E0,3.3020136E0,1.0601912E0,7.090367E0,2.8187275E1,1.5647599E0,3.7215333E0,2.4419322E0,1.4084294E0,1.0736257E0,1.0280045E0,2.351388E0,1.6508868E0,2.0694923E0,1.2325213E0,2.6218035E0,4.4685636E0,1.8662716E0,2.6321003E1,1.007761E0,2.7137723E0,1.0260981E0,1.4158342E0],"tree_param":{"num_deleted":"0","num_feature":"49","num_nodes":"43","size_leaf_vector":"0"}},{"base_weights":[-8.655473E-3,-1.8880193E-1,5.1695116E-2,-5.2832025E-1,3.7406243E-2,4.0078825E-1,-1.546669E-2,-7.6271075E-1,-1.0518412E-2,-9.376207E-2,5.8053297E-1,7.4367535E-1,-1.7671607E-1,5.492987E-1,-5.1405028E-2,2.6581153E-1,-3.064307E-1,2.3628199E-1,-5.9190917E-1,-2.1892495E-1,7.486308E-2,5.3275716E-1,-1.4199297E-1,2.1460712E-1,-6.461426E-1,1.18954554E-1,-4.073149E-1,-1.7823668E-1,2.6037896E-1,-1.0824014E-1,4.3473873E-1,-7.6835394E-1,-1.6531202E-1,3.56213E-1,-4.4327742E-1,2.529629E-1,-5.0033414E-1,2.872137E-1,-4.1862416E-1,-2.7129012E-1,4.255449E-1],"categories":[],"categories_nodes":[],"categories_segments":[],"categories_sizes":[],"default_left":[1,1,1,1,1,1,1,0,0,1,0,0,1,0,1,1,1,0,0,1,1,0,0,1,1,1,1,1,1,0,0,0,0,0,0,0,0,0,0,0,0],"id":24,"left_children":[1,3,5,7,9,11,13,-1,-1,15,-1,-1,17,-1,19,21,23,-1,-1,25,27,-1,-1,29,31,33,35,37,39,-1,-1,-1,-1,-1,-1,-1,-1,-1,-1,-1,-1],"loss_changes":[6.734404E-1,1.2127793E0,1.0966952E0,7.538444E-1,7.851058E-1,1.6248147E0,8.394936E-1,0E0,0E0,7.7902603E-1,0E0,0E0,7.6018417E-1,0E0,8.306092E-1,5.0300217E-1,1.2354662E0,0E0,0E0,1.1177503E0,1.1119902E0,0E0,0E0,2.7421013E-1,1.08048916E-1,1.0633134E0,8.028672E-1,1.2606349E0,1.3010914E0,0E0,0E0,0E0,0E0,0E0,0E0,0E0,0E0,0E0,0E0,0E0,0E0],"parents":[2147483647,0,0,1,1,2,2,3,3,4,4,5,5,6,6,9,9,12,12,14,14,15,15,16,16,19,19,20,20,23,23,24,24,25,25,26,26,27,27,28,28],"right_children":[2,4,6,8,10,12,14,-1,-1,16,-1,-1,18,-1,20,22,24,-1,-1,26,28,-1,-1,30,32,34,36,38,40,-1,-1,-1,-1,-1,-1,-1,-1,-1,-1,-1,-1],"split_conditions":[-1.0782122E-2,1.6580896E2,-9.105633E-4,1.0255947E1,1.701673E0,1.0672214E0,1.1006138E-1,-2.2881323E-1,-3.1555237E-3,2.3488104E-1,1.741599E-1,2.2310261E-1,2.8526444E-2,1.6478962E-1,7.255863E0,2.788042E-3,7.255463E-2,7.08846E-2,-1.7757276E-1,1.1055889E0,6.195617E-1,1.5982716E-1,-4.2597894E-2,7.1480074E0,1.5552685E-1,7.887861E3,1.725E2,-8.566352E-1,-3.448622E-2,-3.2472044E-2,1.3042162E-1,-2.305062E-1,-4.959361E-2,1.0686391E-1,-1.3298324E-1,7.588887E-2,-1.5010025E-1,8.616412E-2,-1.2558725E-1,-8.138704E-2,1.2766348E-1],"split_indices":[48,45,48,27,24,10,36,0,0,43,0,0,23,0,29,42,35,0,0,8,20,0,0,27,32,33,0,18,43,0,0,0,0,0,0,0,0,0,0,0,0],"split_type":[0,0,0,0,0,0,0,0,0,0,0,0,0,0,0,0,0,0,0,0,0,0,0,0,0,0,0,0,0,0,0,0,0,0,0,0,0,0,0,0,0],"sum_hessian":[6.004522E1,1.4533704E1,4.5511517E1,5.277339E0,9.256365E0,6.541686E0,3.896983E1,3.3072753E0,1.9700639E0,8.122177E0,1.1341876E0,3.9240706E0,2.6176152E0,1.476852E0,3.7492977E1,2.9256656E0,5.1965117E0,1.5283028E0,1.0893124E0,1.5798841E1,2.1694136E1,1.583026E0,1.3426397E0,2.19625E0,3.0002618E0,5.7874885E0,1.00113535E1,9.192299E0,1.2501838E1,1.0964617E0,1.0997884E0,1.915446E0,1.0848157E0,4.327669E0,1.4598193E0,1.0239052E0,8.987449E0,3.0642834E0,6.1280155E0,2.8109286E0,9.690909E0],"tree_param":{"num_deleted":"0","num_feature":"49","num_nodes":"41","size_leaf_vector":"0"}},{"base_weights":[-5.44392E-3,2.4220867E-2,-3.9896095E-1,1.1577054E-1,-1.18679605E-1,-6.831448E-1,7.1808055E-2,2.3589948E-1,-1.8089607E-1,-2.5454935E-1,1.9854188E-1,7.7870294E-2,4.9662185E-1,3.5210904E-1,-3.440519E-1,-1.00682236E-1,-6.180686E-1,4.8371685E-1,-2.1089333E-1,3.5963166E-1,-2.3346356E-1,6.2444425E-1,6.084103E-2,2.5478318E-1,-5.201831E-1,-2.08005E-1,3.9592695E-1,-4.0901653E-2,-7.981099E-1,6.99854E-1,-7.533487E-2,-4.108918E-1,1.0658883E-1,-2.4386847E-1,5.215115E-1,-4.5216268E-1,1.9914049E-1,7.565865E-1,1.2294442E-1,-2.9543552E-1,4.059774E-1,-6.120257E-1,-6.580065E-2,-3.7172985E-1,3.043093E-1],"categories":[],"categories_nodes":[],"categories_segments":[],"categories_sizes":[],"default_left":[1,1,1,1,1,0,0,1,1,1,1,1,1,0,1,1,1,1,1,1,1,1,1,0,1,1,0,0,0,0,0,0,0,0,0,0,0,0,0,0,0,0,0,0,0],"id":25,"left_children":[1,3,5,7,9,-1,-1,11,13,15,17,19,21,-1,23,25,27,29,31,33,35,37,39,-1,41,43,-1,-1,-1,-1,-1,-1,-1,-1,-1,-1,-1,-1,-1,-1,-1,-1,-1,-1,-1],"loss_changes":[6.890023E-1,7.340335E-1,6.024747E-1,1.2566793E0,9.984615E-1,0E0,0E0,9.782107E-1,1.0241771E0,8.235482E-1,9.376638E-1,1.5359799E0,4.7046328E-1,0E0,1.0244424E0,7.390448E-1,4.365251E-1,5.9915566E-1,2.745854E-1,1.0144973E0,8.913885E-1,3.6754656E-1,5.107375E-1,0E0,2.461369E-1,1.0179393E0,0E0,0E0,0E0,0E0,0E0,0E0,0E0,0E0,0E0,0E0,0E0,0E0,0E0,0E0,0E0,0E0,0E0,0E0,0E0],"parents":[2147483647,0,0,1,1,2,2,3,3,4,4,7,7,8,8,9,9,10,10,11,11,12,12,14,14,15,15,16,16,17,17,18,18,19,19,20,20,21,21,22,22,24,24,25,25],"right_children":[2,4,6,8,10,-1,-1,12,14,16,18,20,22,-1,24,26,28,30,32,34,36,38,40,-1,42,44,-1,-1,-1,-1,-1,-1,-1,-1,-1,-1,-1,-1,-1,-1,-1,-1,-1,-1,-1],"split_conditions":[4.7806206E1,1.2038453E3,4.413303E-3,1.3442336E3,1.0460686E2,-2.0494345E-1,2.1542417E-2,3.6268115E-1,4.2683128E-1,7.526908E0,1.0799133E1,3.2883042E-1,1.96689E1,1.05632715E-1,1.482346E-1,2.589099E0,4.1546335E0,8.165E2,1.2665402E5,8.4310293E-1,5.790898E-1,1.8691196E-3,-5.79598E-2,7.6434955E-2,1.0305594E1,5.4788204E1,1.1877809E-1,-1.2270496E-2,-2.3943298E-1,2.0995621E-1,-2.260046E-2,-1.2326755E-1,3.197665E-2,-7.3160544E-2,1.5645346E-1,-1.3564882E-1,5.974215E-2,2.2697596E-1,3.6883328E-2,-8.863066E-2,1.21793225E-1,-1.8360771E-1,-1.9740196E-2,-1.1151896E-1,9.12928E-2],"split_indices":[21,37,15,30,9,0,0,26,34,23,22,12,31,0,1,17,29,0,37,46,24,13,6,0,9,36,0,0,0,0,0,0,0,0,0,0,0,0,0,0,0,0,0,0,0],"split_type":[0,0,0,0,0,0,0,0,0,0,0,0,0,0,0,0,0,0,0,0,0,0,0,0,0,0,0,0,0,0,0,0,0,0,0,0,0,0,0,0,0,0,0,0,0],"sum_hessian":[5.719449E1,5.4057854E1,3.1366332E0,3.3064697E1,2.0993158E1,1.674613E0,1.4620203E0,2.3680576E1,9.384121E0,1.4836202E1,6.1569567E0,1.5552535E1,8.12804E0,1.9278889E0,7.4562325E0,1.1321222E1,3.5149791E0,3.5222538E0,2.6347032E0,8.082569E0,7.4699664E0,5.949896E0,2.1781445E0,1.5931313E0,5.863101E0,9.78724E0,1.5339819E0,1.1275423E0,2.3874369E0,2.3585474E0,1.1637064E0,1.4359217E0,1.1987815E0,1.6023628E0,6.480206E0,4.931619E0,2.5383475E0,4.306509E0,1.643387E0,1.1426332E0,1.0355113E0,4.588671E0,1.2744299E0,7.624895E0,2.1623454E0],"tree_param":{"num_deleted":"0","num_feature":"49","num_nodes":"45","size_leaf_vector":"0"}},{"base_weights":[-2.7884976E-3,1.7512737E-2,-5.415732E-1,-4.5511395E-2,2.407863E-1,-1.0261076E-3,-5.2598125E-1,7.462833E-1,4.481749E-2,-2.6919225E-1,7.647329E-2,-6.963913E-1,-5.0650004E-2,-2.1963929E-1,3.360963E-1,5.4829992E-2,-5.271264E-1,8.039585E-3,4.8978707E-1,-4.242676E-1,3.333532E-1,-1.5985589E-1,5.0510544E-1,4.484449E-1,-2.7720496E-1,-6.540054E-1,-9.768032E-3,8.811572E-2,-5.5772936E-1,7.176619E-1,-1.4757831E-1,1.1725632E-1,-6.313678E-1,1.4621118E-1,5.7985175E-1],"categories":[],"categories_nodes":[],"categories_segments":[],"categories_sizes":[],"default_left":[1,1,0,1,1,1,1,0,1,1,1,0,0,1,1,1,1,1,1,1,0,0,1,0,0,0,0,0,0,0,0,0,0,0,0],"id":26,"left_children":[1,3,-1,5,7,9,11,-1,13,15,17,-1,-1,19,21,23,25,27,29,31,-1,-1,33,-1,-1,-1,-1,-1,-1,-1,-1,-1,-1,-1,-1],"loss_changes":[6.1347944E-1,7.7340776E-1,0E0,9.206049E-1,1.1638758E0,8.6117834E-1,2.603917E-1,0E0,8.267084E-1,8.0528724E-1,9.0561503E-1,0E0,0E0,7.895521E-1,5.0372726E-1,7.807967E-1,3.3931148E-1,1.3451208E0,7.669455E-1,5.922308E-1,0E0,0E0,2.2633553E-2,0E0,0E0,0E0,0E0,0E0,0E0,0E0,0E0,0E0,0E0,0E0,0E0],"parents":[2147483647,0,0,1,1,3,3,4,4,5,5,6,6,8,8,9,9,10,10,13,13,14,14,15,15,16,16,17,17,18,18,19,19,22,22],"right_children":[2,4,-1,6,8,10,12,-1,14,16,18,-1,-1,20,22,24,26,28,30,32,-1,-1,34,-1,-1,-1,-1,-1,-1,-1,-1,-1,-1,-1,-1],"split_conditions":[1.0075E3,7.315E2,-1.6247198E-1,6.915E2,8.05E2,1.1277726E0,7.115E2,2.23885E-1,1.0226818E1,3.226561E-1,6.305E2,-2.089174E-1,-1.5195002E-2,3.5022602E0,-2.1715543E-1,-1.199803E-4,2.3202765E1,5.5E2,7.71376E-1,2.7714238E0,1.0000596E-1,-4.795677E-2,-4.5206435E-2,1.3453348E-1,-8.316149E-2,-1.9620164E-1,-2.9304095E-3,2.6434718E-2,-1.6731882E-1,2.1529858E-1,-4.4273496E-2,3.51769E-2,-1.8941034E-1,4.3863356E-2,1.7395553E-1],"split_indices":[0,0,0,0,0,36,0,0,9,9,0,0,0,39,13,15,12,0,43,33,0,0,32,0,0,0,0,0,0,0,0,0,0,0,0],"split_type":[0,0,0,0,0,0,0,0,0,0,0,0,0,0,0,0,0,0,0,0,0,0,0,0,0,0,0,0,0,0,0,0,0,0,0],"sum_hessian":[5.4219902E1,5.3183464E1,1.0364398E0,4.209682E1,1.108664E1,3.9446705E1,2.6501186E0,2.3127587E0,8.773881E0,8.289524E0,3.1157179E1,1.6084214E0,1.041697E0,4.727581E0,4.0463E0,4.023077E0,4.2664475E0,2.7605843E1,3.5513372E0,3.6206E0,1.1069812E0,1.0421884E0,3.0041115E0,1.680414E0,2.3426628E0,3.2140868E0,1.0523605E0,2.4922667E1,2.683176E0,2.5232332E0,1.028104E0,1.1216187E0,2.4989812E0,1.0273573E0,1.9767543E0],"tree_param":{"num_deleted":"0","num_feature":"49","num_nodes":"35","size_leaf_vector":"0"}},{"base_weights":[-5.195217E-3,2.42719E-2,-3.7388292E-1,-4.1940786E-2,3.2451543E-1,-6.1372286E-1,3.0645314E-3,-2.9886475E-1,2.594857E-2,2.1215426E-3,6.067306E-1,-4.3881363E-1,3.7254265E-1,5.2586097E-1,-3.2735735E-2,-4.32133E-1,4.01111E-1,7.1227866E-1,9.94349E-2,-6.0133296E-1,-1.17526585E-2,6.5500504E-1,9.9908605E-2,-7.799066E-2,5.518067E-1,-5.13472E-1,-1.3468675E-1,5.931703E-1,-1.23168975E-2,1.7283408E-2,-7.7369785E-1,2.3691066E-1,-2.5985074E-1,-5.7152268E-3,-5.406324E-1],"categories":[],"categories_nodes":[],"categories_segments":[],"categories_sizes":[],"default_left":[1,1,1,1,1,0,0,1,1,1,1,1,0,1,1,1,1,0,0,1,1,0,0,1,0,0,0,0,0,0,0,0,0,0,0],"id":27,"left_children":[1,3,5,7,9,-1,-1,11,13,15,17,19,-1,21,23,25,27,-1,-1,29,31,-1,-1,33,-1,-1,-1,-1,-1,-1,-1,-1,-1,-1,-1],"loss_changes":[5.842699E-1,1.0069098E0,3.6163962E-1,7.3724234E-1,8.305199E-1,0E0,0E0,9.9234545E-1,1.0147133E0,1.086583E0,1.9000995E-1,5.3144133E-1,0E0,1.3427997E-1,8.728983E-1,3.5520196E-3,2.6660323E-1,0E0,0E0,6.105058E-1,2.5642967E-1,0E0,0E0,9.997947E-1,0E0,0E0,0E0,0E0,0E0,0E0,0E0,0E0,0E0,0E0,0E0],"parents":[2147483647,0,0,1,1,2,2,3,3,4,4,7,7,8,8,9,9,10,10,11,11,13,13,14,14,15,15,16,16,19,19,20,20,23,23],"right_children":[2,4,6,8,10,-1,-1,12,14,16,18,20,-1,22,24,26,28,-1,-1,30,32,-1,-1,34,-1,-1,-1,-1,-1,-1,-1,-1,-1,-1,-1],"split_conditions":[9.405E2,7.315E2,5.2651687E0,1.7597687E-1,1.00716166E-1,-1.8411687E-1,9.1935945E-4,2.039599E0,3.7680306E-2,5.9831753E0,1.954394E1,4.6476393E0,1.117628E-1,9.1774106E-1,6.0228416E1,8.978776E2,3.8465334E-4,2.136836E-1,2.983047E-2,1.3860704E0,5.095954E-1,1.9650152E-1,2.9972583E-2,2.5926758E1,1.65542E-1,-1.5404162E-1,-4.0406026E-2,1.779511E-1,-3.6950693E-3,5.1850225E-3,-2.3210937E-1,7.10732E-2,-7.795522E-2,-1.7145681E-3,-1.6218974E-1],"split_indices":[0,0,44,11,32,0,0,44,16,34,27,12,0,43,34,30,48,0,0,9,20,0,0,34,0,0,0,0,0,0,0,0,0,0,0],"split_type":[0,0,0,0,0,0,0,0,0,0,0,0,0,0,0,0,0,0,0,0,0,0,0,0,0,0,0,0,0,0,0,0,0,0,0],"sum_hessian":[5.1944256E1,4.896493E1,2.9793227E0,4.082263E1,8.142301E0,1.4369177E0,1.542405E0,7.8212514E0,3.300138E1,4.2708874E0,3.8714135E0,6.7588553E0,1.0623958E0,2.6306748E0,3.0370705E1,2.0052896E0,2.2655978E0,2.8701742E0,1.0012393E0,4.600173E0,2.1586826E0,1.6060085E0,1.0246663E0,2.8992687E1,1.3780181E0,1.0043688E0,1.0009208E0,1.250099E0,1.0154989E0,1.1984982E0,3.4016747E0,1.1006339E0,1.0580487E0,2.5950905E1,3.0417829E0],"tree_param":{"num_deleted":"0","num_feature":"49","num_nodes":"35","size_leaf_vector":"0"}},{"base_weights":[-5.98099E-4,-2.4361448E-2,4.2762974E-1,1.0898655E-2,-4.2922285E-1,-9.712652E-2,1.3665977E-1,2.9847123E-2,-5.978816E-1,2.426432E-2,-2.9346114E-1,6.0434155E-3,5.871183E-1,-2.9107183E-1,1.7022036E-1,2.739954E-1,-4.0427455E-1,4.4396546E-1,-1.3409288E-1,7.8860545E-1,-1.6082672E-2,-4.5410445E-1,5.602611E-2,3.1440035E-1,-4.312886E-1,3.7423637E-2,-5.2497697E-1,6.029807E-1,-2.779984E-2,-3.1204045E-1,1.19979724E-1],"categories":[],"categories_nodes":[],"categories_segments":[],"categories_sizes":[],"default_left":[1,1,0,1,1,1,1,0,0,1,1,1,1,1,1,0,1,1,1,0,0,0,0,0,0,0,0,0,0,0,0],"id":28,"left_children":[1,3,-1,5,7,9,11,-1,-1,13,15,17,19,21,23,-1,25,27,29,-1,-1,-1,-1,-1,-1,-1,-1,-1,-1,-1,-1],"loss_changes":[5.302707E-1,7.0911217E-1,0E0,6.4319634E-1,3.258524E-1,6.155174E-1,1.2814873E0,0E0,0E0,8.180702E-1,7.288573E-1,1.1605811E0,6.080935E-1,3.452977E-1,1.1802545E0,0E0,4.7960985E-1,3.6045402E-1,6.866796E-1,0E0,0E0,0E0,0E0,0E0,0E0,0E0,0E0,0E0,0E0,0E0,0E0],"parents":[2147483647,0,0,1,1,3,3,4,4,5,5,6,6,9,9,10,10,11,11,12,12,13,13,14,14,16,16,17,17,18,18],"right_children":[2,4,-1,6,8,10,12,-1,-1,14,16,18,20,22,24,-1,26,28,30,-1,-1,-1,-1,-1,-1,-1,-1,-1,-1,-1,-1],"split_conditions":[6.728848E1,4.1258747E1,1.2828892E-1,8.99324E0,1.3907075E0,1.3419339E-2,1.2602386E0,8.954138E-3,-1.7936449E-1,3.55E2,1.6712837E0,-9.269581E-1,1.7253687E1,9.944491E-3,2.466083E3,8.219862E-2,6.7240834E-1,1.0129751E0,1.3894861E0,2.3658164E-1,-4.824802E-3,-1.3623135E-1,1.6807834E-2,9.432011E-2,-1.2938659E-1,1.1227092E-2,-1.574931E-1,1.8089421E-1,-8.339952E-3,-9.3612134E-2,3.599392E-2],"split_indices":[28,28,0,29,19,41,18,0,0,0,27,18,22,2,30,0,8,20,20,0,0,0,0,0,0,0,0,0,0,0,0],"split_type":[0,0,0,0,0,0,0,0,0,0,0,0,0,0,0,0,0,0,0,0,0,0,0,0,0,0,0,0,0,0,0],"sum_hessian":[5.0085545E1,4.8345833E1,1.7397108E0,4.5367756E1,2.9780784E0,2.4527248E1,2.0840508E1,1.0212861E0,1.9567922E0,1.5697886E1,8.829361E0,1.6941511E1,3.8989973E0,4.6523347E0,1.1045552E1,1.2019249E0,7.627436E0,3.5814574E0,1.3360053E1,2.6923158E0,1.2066815E0,2.9557319E0,1.6966028E0,9.294904E0,1.7506481E0,1.7850776E0,5.8423586E0,2.4705772E0,1.1108803E0,7.7229166E0,5.637137E0],"tree_param":{"num_deleted":"0","num_feature":"49","num_nodes":"31","size_leaf_vector":"0"}},{"base_weights":[1.8435059E-3,5.166196E-1,-1.9977886E-2,-2.0891504E-1,3.4525707E-2,-3.8897866E-1,2.4366471E-1,-1.9935782E-1,1.0706327E-1,-5.7306755E-1,2.6470008E-1,-1.1311354E-1,4.8590568E-1,-3.627293E-1,2.814248E-1,2.79511E-1,-9.582008E-2,-2.231909E-1,-7.650638E-1,-7.5653926E-2,-5.8568454E-1,-4.7889464E-3,5.545339E-1,2.1239415E-1,-3.4563532E-1,2.483433E-1,-5.1389873E-1,2.9322374E-1,-3.8671175E-1,-7.4779254E-1,-6.355597E-2,5.089445E-1,-1.5703416E-1,3.3797298E-2,6.637777E-1,-1.1850437E-1,5.100188E-1,-5.508273E-1,3.1609854E-1],"categories":[],"categories_nodes":[],"categories_segments":[],"categories_sizes":[],"default_left":[1,0,1,1,1,1,1,1,1,1,0,0,0,1,0,1,1,1,0,1,1,1,1,1,1,0,0,0,0,0,0,0,0,0,0,0,0,0,0],"id":29,"left_children":[1,-1,3,5,7,9,11,13,15,17,-1,-1,-1,19,-1,21,23,25,-1,27,29,31,33,35,37,-1,-1,-1,-1,-1,-1,-1,-1,-1,-1,-1,-1,-1,-1],"loss_changes":[5.6394804E-1,0E0,5.0401485E-1,9.865632E-1,6.7112803E-1,1.1400712E0,3.772865E-1,8.416822E-1,1.0723467E0,2.8097677E-1,0E0,0E0,0E0,4.3348038E-1,0E0,1.2856774E0,1.1879609E0,6.477798E-1,0E0,6.1958313E-1,2.9555368E-1,7.885336E-1,4.52533E-1,7.596338E-1,1.3113896E0,0E0,0E0,0E0,0E0,0E0,0E0,0E0,0E0,0E0,0E0,0E0,0E0,0E0,0E0],"parents":[2147483647,0,0,2,2,3,3,4,4,5,5,6,6,7,7,8,8,9,9,13,13,15,15,16,16,17,17,19,19,20,20,21,21,22,22,23,23,24,24],"right_children":[2,-1,4,6,8,10,12,14,16,18,-1,-1,-1,20,-1,22,24,26,-1,28,30,32,34,36,38,-1,-1,-1,-1,-1,-1,-1,-1,-1,-1,-1,-1,-1,-1],"split_conditions":[1.455E2,1.5498589E-1,2.765E2,2.1069468E1,2.1097631E0,2.7005148E-1,-9.15689E-3,8.026432E-1,7.2691483E0,2.5240302E-1,7.941003E-2,-3.3934064E-2,1.4577171E-1,-7.784992E-1,8.442744E-2,2.4926772E0,3.9500587E0,7.254267E-3,-2.2951916E-1,1.1380978E1,9.954269E0,1.0402696E-1,6.481707E-3,1.6628673E0,8.483767E1,7.4503E-2,-1.5416962E-1,8.796713E-2,-1.1601353E-1,-2.2433777E-1,-1.9066792E-2,1.5268336E-1,-4.711025E-2,1.013919E-2,1.9913332E-1,-3.5551313E-2,1.5300566E-1,-1.652482E-1,9.482957E-2],"split_indices":[0,0,0,35,27,41,7,18,36,43,0,0,0,22,0,9,46,23,0,9,36,45,44,46,8,0,0,0,0,0,0,0,0,0,0,0,0,0,0],"split_type":[0,0,0,0,0,0,0,0,0,0,0,0,0,0,0,0,0,0,0,0,0,0,0,0,0,0,0,0,0,0,0,0,0,0,0,0,0,0,0],"sum_hessian":[4.8285194E1,1.0414732E0,4.724372E1,9.943041E0,3.7300682E1,7.213574E0,2.7294664E0,8.416132E0,2.888455E1,5.724704E0,1.4888704E0,1.31935E0,1.4101164E0,6.4648867E0,1.9512453E0,1.540924E1,1.3475309E1,2.7945836E0,2.93012E0,3.4115393E0,3.0533473E0,8.059974E0,7.349265E0,6.0996046E0,7.3757052E0,1.1213917E0,1.673192E0,1.5869447E0,1.8245946E0,2.0001502E0,1.0531973E0,1.3069385E0,6.7530355E0,1.5014796E0,5.8477855E0,3.1733325E0,2.926272E0,5.7578864E0,1.6178187E0],"tree_param":{"num_deleted":"0","num_feature":"49","num_nodes":"39","size_leaf_vector":"0"}},{"base_weights":[5.4511046E-3,-6.986385E-2,1.3677111E-1,3.344307E-2,-3.1571046E-1,4.75937E-1,-1.6495673E-1,-1.0787494E-1,2.7686805E-1,1.175036E-1,-4.4917697E-1,5.803639E-1,-1.21E-1,-4.9629506E-1,7.857021E-2,-2.8079072E-1,3.5717738E-1,4.990455E-1,-1.5853494E-1,1.49393E-1,-5.8396727E-1,6.968601E-1,1.3664982E-1,-6.0407484E-1,-9.1033325E-2,-3.3688936E-1,2.301959E-1,-4.0485764E-1,2.578696E-1,5.2077013E-1,-9.973357E-2,6.6231394E-1,-1.4062136E-1,2.2087874E-1,-3.9908397E-1,-6.636727E-2,-6.7425567E-1,1.8532766E-1,7.7475977E-1,-4.56211E-2,3.8980076E-1,-5.403114E-1,-2.3007642E-2,1.2133092E-1,6.416389E-1,7.4803805E-1,1.6750923E-1,5.560467E-1,1.3083651E-2],"categories":[],"categories_nodes":[],"categories_segments":[],"categories_sizes":[],"default_left":[1,1,1,1,1,1,1,1,1,0,1,1,0,1,1,1,1,1,1,0,1,1,0,0,0,0,1,1,0,1,0,1,0,0,0,0,0,0,0,0,1,0,0,0,0,0,0,0,0],"id":30,"left_children":[1,3,5,7,9,11,13,15,17,-1,19,21,-1,23,25,27,29,31,33,-1,35,37,-1,-1,-1,-1,39,41,-1,43,-1,45,-1,-1,-1,-1,-1,-1,-1,-1,47,-1,-1,-1,-1,-1,-1,-1,-1],"loss_changes":[4.714975E-1,7.8123856E-1,1.8552387E0,7.9597867E-1,5.774388E-1,5.9579206E-1,8.4029174E-1,1.2912393E0,8.97551E-1,0E0,6.636509E-1,2.8461862E-1,0E0,1.347295E-1,4.92499E-1,8.633057E-1,3.8488263E-1,7.03362E-1,4.1830495E-1,0E0,2.3728108E-1,7.862258E-2,0E0,0E0,0E0,0E0,2.563771E-1,4.8509216E-1,0E0,8.8263094E-2,0E0,7.956982E-2,0E0,0E0,0E0,0E0,0E0,0E0,0E0,0E0,2.1430206E-1,0E0,0E0,0E0,0E0,0E0,0E0,0E0,0E0],"parents":[2147483647,0,0,1,1,2,2,3,3,4,4,5,5,6,6,7,7,8,8,10,10,11,11,13,13,14,14,15,15,16,16,17,17,18,18,20,20,21,21,26,26,27,27,29,29,31,31,40,40],"right_children":[2,4,6,8,10,12,14,16,18,-1,20,22,-1,24,26,28,30,32,34,-1,36,38,-1,-1,-1,-1,40,42,-1,44,-1,46,-1,-1,-1,-1,-1,-1,-1,-1,48,-1,-1,-1,-1,-1,-1,-1,-1],"split_conditions":[2.566108E-1,1.0596018E1,2.0028462E0,1.3945827E0,2.1374626E-1,2.4614503E0,2.3357187E2,2.0494804E0,4.0049725E0,3.525108E-2,-3.5435965E0,6.1367583E-1,-3.63E-2,1.120345E1,2.917264E0,1.0523228E-1,4.4275132E-1,2.663075E0,1.5761986E-1,4.4817902E-2,-1.8781745E0,3.9242964E-2,4.0994946E-2,-1.8122245E-1,-2.7309999E-2,-1.0106681E-1,4.8558183E0,5.0170135E-1,7.736088E-2,7.2439466E0,-2.9920071E-2,-6.9818767E-3,-4.218641E-2,6.626362E-2,-1.197252E-1,-1.9910181E-2,-2.022767E-1,5.55983E-2,2.3242794E-1,-1.3686331E-2,1.748595E1,-1.6209343E-1,-6.902293E-3,3.6399275E-2,1.9249167E-1,2.2441143E-1,5.025277E-2,1.6681403E-1,3.9250953E-3],"split_indices":[26,22,25,22,16,3,14,44,46,0,42,5,0,29,27,41,13,5,10,0,18,35,0,0,0,0,28,32,0,29,0,42,0,0,0,0,0,0,0,0,22,0,0,0,0,0,0,0,0],"split_type":[0,0,0,0,0,0,0,0,0,0,0,0,0,0,0,0,0,0,0,0,0,0,0,0,0,0,0,0,0,0,0,0,0,0,0,0,0,0,0,0,0,0,0,0,0,0,0,0,0],"sum_hessian":[4.5706303E1,2.9344542E1,1.6361763E1,2.127047E1,8.074072E0,7.4311695E0,8.930593E0,1.3810034E1,7.4604354E0,1.9298016E0,6.1442704E0,6.3483634E0,1.0828062E0,3.343517E0,5.5870757E0,1.0355768E1,3.4542656E0,4.842987E0,2.6174486E0,1.1093941E0,5.0348763E0,4.5763397E0,1.7720239E0,2.2535923E0,1.0899247E0,1.1671622E0,4.4199133E0,8.618997E0,1.7367711E0,2.4406505E0,1.0136151E0,3.8300114E0,1.0129758E0,1.047313E0,1.5701355E0,1.0055242E0,4.029352E0,1.0513893E0,3.5249503E0,1.881907E0,2.5380063E0,6.055828E0,2.5631692E0,1.0324619E0,1.4081886E0,2.8282387E0,1.0017726E0,1.430633E0,1.1073735E0],"tree_param":{"num_deleted":"0","num_feature":"49","num_nodes":"49","size_leaf_vector":"0"}},{"base_weights":[1.1386495E-2,4.163656E-2,-3.4393114E-1,8.48964E-3,5.009223E-1,-5.663279E-1,7.6909126E-3,-2.6367453E-1,5.0377425E-2,-5.51351E-1,1.4847185E-1,2.6651597E-1,-2.3728179E-2,-6.766947E-1,-1.2888749E-1,-1.6022068E-1,3.8855833E-1,-5.3983885E-3,4.9575314E-1,5.3974843E-1,-6.7360535E-2,2.83805E-1,-2.7760682E-1,6.579559E-2,6.5367985E-1,4.9104044E-1,-1.1252874E-1],"categories":[],"categories_nodes":[],"categories_segments":[],"categories_sizes":[],"default_left":[1,1,1,1,0,0,0,1,1,1,1,1,1,0,0,0,0,1,1,0,1,0,0,0,0,0,0],"id":31,"left_children":[1,3,5,7,-1,-1,-1,9,11,13,15,17,19,-1,-1,-1,-1,21,23,-1,25,-1,-1,-1,-1,-1,-1],"loss_changes":[4.9042615E-1,6.307726E-1,2.845636E-1,4.6840632E-1,0E0,0E0,0E0,7.322031E-1,5.7391644E-1,9.507418E-2,2.8775224E-1,5.71745E-1,7.0772743E-1,0E0,0E0,0E0,0E0,4.8541376E-1,2.940725E-1,0E0,7.169219E-1,0E0,0E0,0E0,0E0,0E0,0E0],"parents":[2147483647,0,0,1,1,2,2,3,3,7,7,8,8,9,9,10,10,11,11,12,12,17,17,18,18,20,20],"right_children":[2,4,6,8,-1,-1,-1,10,12,14,16,18,20,-1,-1,-1,-1,22,24,-1,26,-1,-1,-1,-1,-1,-1],"split_conditions":[9.405E2,8.715E2,5.2651687E0,-4.635473E-4,1.502767E-1,-1.6989839E-1,2.307274E-3,-2.6136253E-4,1.1798517E-1,4.3742186E-1,3.5778212E-3,-7.715739E-2,1.605E2,-2.0300841E-1,-3.866625E-2,-4.8066206E-2,1.165675E-1,-4.868292E-2,2.2965614E-1,1.6192454E-1,-2.2223648E-1,8.514151E-2,-8.3282046E-2,1.9738678E-2,1.9610396E-1,1.4731213E-1,-3.3758625E-2],"split_indices":[0,0,44,40,0,0,0,2,10,32,19,18,0,0,0,0,0,32,44,0,34,0,0,0,0,0,0],"split_type":[0,0,0,0,0,0,0,0,0,0,0,0,0,0,0,0,0,0,0,0,0,0,0,0,0,0,0],"sum_hessian":[4.3295605E1,4.0712364E1,2.5832398E0,3.8921837E1,1.7905272E0,1.2083542E0,1.3748854E0,4.4851265E0,3.443671E1,2.4425094E0,2.042617E0,8.12951E0,2.63072E1,1.4195507E0,1.0229589E0,1.0391624E0,1.0034546E0,4.1652565E0,3.9642537E0,1.073496E0,2.5233704E1,1.9989271E0,2.1663294E0,1.4454952E0,2.5187585E0,1.1496428E0,2.408406E1],"tree_param":{"num_deleted":"0","num_feature":"49","num_nodes":"27","size_leaf_vector":"0"}},{"base_weights":[1.5962254E-2,4.2636957E-2,-3.070906E-1,-7.6395366E-3,2.910314E-1,-5.224991E-1,6.3545927E-3,-3.0497015E-1,3.2947276E-2,4.980939E-1,-1.4742926E-1,-4.7792527E-1,1.01006046E-1,1.7581327E-1,-1.19532E-1,1.3672023E-1,6.8718135E-1,3.43696E-2,4.7763023E-1,-2.7890888E-1,1.3746968E-1,-3.837584E-1,1.4996177E-1,-5.5534367E-2,6.182431E-1,1.7615055E-1,-3.937894E-1,-1.9061482E-1,4.387915E-1],"categories":[],"categories_nodes":[],"categories_segments":[],"categories_sizes":[],"default_left":[1,1,1,1,1,0,0,1,1,1,0,0,0,1,1,0,0,1,1,1,1,0,0,0,0,0,0,0,0],"id":32,"left_children":[1,3,5,7,9,-1,-1,11,13,15,-1,-1,-1,17,19,-1,-1,21,23,25,27,-1,-1,-1,-1,-1,-1,-1,-1],"loss_changes":[3.8406065E-1,5.097964E-1,2.3324716E-1,4.2971775E-1,6.969051E-1,0E0,0E0,3.4840557E-1,7.072549E-1,2.4038386E-1,0E0,0E0,0E0,6.951564E-1,6.868847E-1,0E0,0E0,6.581763E-1,4.2727268E-1,5.975303E-1,7.490039E-1,0E0,0E0,0E0,0E0,0E0,0E0,0E0,0E0],"parents":[2147483647,0,0,1,1,2,2,3,3,4,4,7,7,8,8,9,9,13,13,14,14,17,17,18,18,19,19,20,20],"right_children":[2,4,6,8,10,-1,-1,12,14,16,-1,-1,-1,18,20,-1,-1,22,24,26,28,-1,-1,-1,-1,-1,-1,-1,-1],"split_conditions":[9.405E2,1.3638097E0,5.2651687E0,-8.2932913E-1,3.228189E0,-1.5674973E-1,1.9063778E-3,4.2182678E-1,2.5404835E-1,6.010482E0,-4.4228777E-2,-1.4337759E-1,3.0301815E-2,2.5131695E-3,9.591448E0,4.101607E-2,2.0615442E-1,2.087293E0,-1.51956E-1,4.8435214E-1,9.315604E1,-1.15127526E-1,4.498853E-2,-1.666031E-2,1.8547294E-1,5.2845165E-2,-1.1813683E-1,-5.7184447E-2,1.3163745E-1],"split_indices":[0,32,44,5,32,0,0,43,43,27,0,0,0,43,34,0,0,29,3,34,45,0,0,0,0,0,0,0,0],"split_type":[0,0,0,0,0,0,0,0,0,0,0,0,0,0,0,0,0,0,0,0,0,0,0,0,0,0,0,0,0],"sum_hessian":[4.2048935E1,3.964356E1,2.4053779E0,3.3776283E1,5.8672743E0,1.0303422E0,1.3750356E0,3.274434E0,3.0501848E1,3.8928666E0,1.9744078E0,2.1719213E0,1.102513E0,1.5668324E1,1.4833524E1,1.9291097E0,1.9637569E0,1.142703E1,4.241295E0,9.103094E0,5.73043E0,1.9723988E0,9.454631E0,1.0114009E0,3.2298937E0,1.7273718E0,7.3757224E0,2.9192758E0,2.8111541E0],"tree_param":{"num_deleted":"0","num_feature":"49","num_nodes":"29","size_leaf_vector":"0"}},{"base_weights":[1.33790495E-2,4.0324982E-2,-3.003215E-1,-4.1677542E-2,1.7726196E-1,1.035814E-1,-5.129676E-1,4.042296E-1,-8.190457E-2,4.3869105E-1,-7.895651E-2,1.7205896E-2,-4.8511854E-1,-5.8378078E-2,5.4646355E-1,-3.88136E-1,1.5460779E-1,9.084336E-2,-2.6780522E-1,-5.794864E-1,-7.8994125E-2,6.4384615E-1,6.9225095E-2,-5.289218E-1,1.4284307E-3,-9.895138E-2,4.171083E-1,1.6144057E-1,-3.62903E-1,-4.851443E-1,1.8936989E-1,-1.4837779E-1,-6.845305E-1,2.1563047E-1,7.2406626E-1,-4.0659928E-1,2.2244194E-1],"categories":[],"categories_nodes":[],"categories_segments":[],"categories_sizes":[],"default_left":[1,1,1,1,1,0,0,0,1,1,1,1,1,0,1,1,1,1,1,1,0,1,0,0,0,1,0,0,0,0,0,0,0,0,0,0,0],"id":33,"left_children":[1,3,5,7,9,-1,-1,-1,11,13,15,17,19,-1,21,23,25,27,29,31,-1,33,-1,-1,-1,35,-1,-1,-1,-1,-1,-1,-1,-1,-1,-1,-1],"loss_changes":[3.6383072E-1,4.475648E-1,3.4599265E-1,4.87414E-1,1.0308261E0,0E0,0E0,0E0,9.69964E-1,4.3441904E-1,6.6360044E-1,4.499739E-1,1.3749242E-1,0E0,2.4689591E-1,2.1365559E-1,4.057938E-1,5.987814E-1,5.3078896E-1,6.700468E-2,0E0,1.8655777E-2,0E0,0E0,0E0,4.4580582E-1,0E0,0E0,0E0,0E0,0E0,0E0,0E0,0E0,0E0,0E0,0E0],"parents":[2147483647,0,0,1,1,2,2,3,3,4,4,8,8,9,9,10,10,11,11,12,12,14,14,15,15,16,16,17,17,18,18,19,19,21,21,25,25],"right_children":[2,4,6,8,10,-1,-1,-1,12,14,16,18,20,-1,22,24,26,28,30,32,-1,34,-1,-1,-1,36,-1,-1,-1,-1,-1,-1,-1,-1,-1,-1,-1],"split_conditions":[3.707188E3,2.566108E-1,1.6637994E0,-4.338442E-1,2.0136833E0,3.1074421E-2,-1.5389028E-1,1.2126889E-1,1.824769E0,6.9654775E-1,7.857784E0,2.698449E1,7.0989285E0,-1.7513424E-2,3.4560218E0,1.1639521E1,3.833499E-1,3.1752512E-1,3.5864185E-3,-2.1549463E-2,-2.3698239E-2,4.6015487E0,2.0767529E-2,-1.5867653E-1,4.2852922E-4,6.70544E0,1.251325E-1,4.843217E-2,-1.088709E-1,-1.4554329E-1,5.6810968E-2,-4.4513337E-2,-2.0535916E-1,6.4689144E-2,2.1721989E-1,-1.2197979E-1,6.6732585E-2],"split_indices":[30,26,31,7,25,0,0,0,10,25,25,29,23,0,20,29,3,14,13,23,0,28,0,0,0,34,0,0,0,0,0,0,0,0,0,0,0],"split_type":[0,0,0,0,0,0,0,0,0,0,0,0,0,0,0,0,0,0,0,0,0,0,0,0,0,0,0,0,0,0,0,0,0,0,0,0,0],"sum_hessian":[4.0609154E1,3.8199394E1,2.4097593E0,2.4327126E1,1.3872267E1,1.0080152E0,1.4017441E0,1.264271E0,2.3062855E1,6.5138106E0,7.358456E0,1.9280912E1,3.7819426E0,1.2423152E0,5.271496E0,2.8818402E0,4.476616E0,1.5863557E1,3.4173553E0,2.7224739E0,1.0594686E0,4.088177E0,1.1833186E0,1.8540673E0,1.0277728E0,2.5940082E0,1.8826076E0,1.428517E1,1.5783873E0,2.2747643E0,1.1425911E0,1.0060596E0,1.7164142E0,1.226909E0,2.861268E0,1.1898917E0,1.4041165E0],"tree_param":{"num_deleted":"0","num_feature":"49","num_nodes":"37","size_leaf_vector":"0"}},{"base_weights":[3.8617463E-3,3.480607E-1,-1.9415846E-2,-4.637238E-1,9.558212E-3,-1.1972589E-1,1.07849695E-1,2.0445203E-2,-3.5334864E-1,-1.6621165E-1,2.0290057E-1,-2.2787726E-1,1.7184469E-1,-5.3363764E-1,1.1324433E-1,1.285722E-1,-4.405428E-1,2.7233872E-1,-3.528034E-1,-4.0936935E-1,1.2359478E-1,3.511338E-1,-3.0632997E-1,-1.4426489E-1,-6.168925E-1,-3.6952424E-1,5.07928E-1,-5.644487E-1,-7.4510425E-2,3.7259856E-1,-1.8724084E-1],"categories":[],"categories_nodes":[],"categories_segments":[],"categories_sizes":[],"default_left":[1,0,1,0,1,1,1,1,1,1,1,1,1,1,0,1,1,1,0,0,0,0,0,0,0,0,0,0,0,0,0],"id":34,"left_children":[1,-1,3,-1,5,7,9,11,13,15,17,19,21,23,-1,25,27,29,-1,-1,-1,-1,-1,-1,-1,-1,-1,-1,-1,-1,-1],"loss_changes":[3.273535E-1,0E0,4.9910998E-1,0E0,4.8377317E-1,5.4682064E-1,5.957752E-1,4.6188426E-1,5.848241E-1,5.5040693E-1,7.316203E-1,3.496837E-1,7.552842E-1,6.2438726E-2,0E0,8.9009047E-1,1.1162448E-1,7.703794E-1,0E0,0E0,0E0,0E0,0E0,0E0,0E0,0E0,0E0,0E0,0E0,0E0,0E0],"parents":[2147483647,0,0,2,2,4,4,5,5,6,6,7,7,8,8,9,9,10,10,11,11,12,12,13,13,15,15,16,16,17,17],"right_children":[2,-1,4,-1,6,8,10,12,14,16,18,20,22,24,-1,26,28,30,-1,-1,-1,-1,-1,-1,-1,-1,-1,-1,-1,-1,-1],"split_conditions":[1.605E2,1.0441821E-1,1.865E2,-1.3911715E-1,7.270719E0,5.373737E0,-9.579107E-2,2.369171E0,1.374078E0,1.1487394E3,3.6029384E-2,6.29E2,1.3254205E-3,7.788476E0,3.3973303E-2,9.10907E0,1.0945145E-2,3.60396E1,-1.05841026E-1,-1.2281081E-1,3.7078436E-2,1.05340146E-1,-9.189899E-2,-4.327947E-2,-1.8506776E-1,-1.1085728E-1,1.5237841E-1,-1.6933462E-1,-2.2353128E-2,1.1177957E-1,-5.6172255E-2],"split_indices":[0,0,0,0,29,11,13,34,32,37,47,0,42,11,0,9,48,21,0,0,0,0,0,0,0,0,0,0,0,0,0],"split_type":[0,0,0,0,0,0,0,0,0,0,0,0,0,0,0,0,0,0,0,0,0,0,0,0,0,0,0,0,0,0,0],"sum_hessian":[3.9013813E1,1.5874878E0,3.7426323E1,1.3726335E0,3.605369E1,1.5477654E1,2.0576036E1,1.0243908E1,5.2337465E0,5.10579E0,1.5470246E1,3.6886756E0,6.5552325E0,3.6714342E0,1.5623122E0,2.7172651E0,2.3885252E0,1.4205158E1,1.2650881E0,2.3239257E0,1.36475E0,4.960862E0,1.5943706E0,1.1281279E0,2.5433064E0,1.1859813E0,1.5312839E0,1.3794822E0,1.009043E0,1.1816569E1,2.3885884E0],"tree_param":{"num_deleted":"0","num_feature":"49","num_nodes":"31","size_leaf_vector":"0"}},{"base_weights":[-1.0697054E-2,-2.2886334E-1,2.8194949E-2,2.1841833E-2,-4.6739075E-1,2.2393203E-1,-3.3368733E-2,-2.290818E-1,3.1844625E-1,3.8006443E-1,-3.3076015E-1,-3.7596536E-1,4.093221E-2,-1.0606405E-1,5.091076E-1,4.709508E-2,-5.093798E-1,2.658453E-1,-7.7215E-2,6.3897765E-1,-8.821144E-3,-8.193389E-2,4.4532913E-1,6.061172E-2,-3.1253558E-1,-3.457501E-1,2.7535197E-1,7.687344E-2,5.853478E-1,2.5735062E-1,-1.6136599E-1,-4.2237347E-1,1.1143978E-1],"categories":[],"categories_nodes":[],"categories_segments":[],"categories_sizes":[],"default_left":[1,1,1,1,0,1,1,0,0,1,0,1,1,0,1,0,0,1,1,0,0,1,1,1,1,0,0,0,0,0,0,0,0],"id":35,"left_children":[1,3,5,7,-1,9,11,-1,-1,13,-1,15,17,-1,19,-1,-1,21,23,-1,-1,25,27,29,31,-1,-1,-1,-1,-1,-1,-1,-1],"loss_changes":[3.3256298E-1,3.645014E-1,4.1127113E-1,3.590349E-1,0E0,8.313198E-1,6.864416E-1,0E0,0E0,4.8202473E-1,0E0,2.9471618E-1,6.201577E-1,0E0,3.7990963E-1,0E0,0E0,5.3563267E-1,5.2390206E-1,0E0,0E0,4.3138796E-1,2.3512983E-1,5.068927E-1,3.2243216E-1,0E0,0E0,0E0,0E0,0E0,0E0,0E0,0E0],"parents":[2147483647,0,0,1,1,2,2,3,3,5,5,6,6,9,9,11,11,12,12,14,14,17,17,18,18,21,21,22,22,23,23,24,24],"right_children":[2,4,6,8,-1,10,12,-1,-1,14,-1,16,18,-1,20,-1,-1,22,24,-1,-1,26,28,30,32,-1,-1,-1,-1,-1,-1,-1,-1],"split_conditions":[1.4512011E-1,1.3441082E1,1.08740866E-1,2.890404E-1,-1.4021723E-1,6.880373E-1,1.6331471E0,-6.872454E-2,9.553388E-2,-4.1831933E-2,-9.922805E-2,3.0085358E-1,7.3206794E-1,-3.1819217E-2,1.30471525E1,1.4128524E-2,-1.5281394E-1,7.725792E0,1.0799133E1,1.916933E-1,-2.6463433E-3,-6.0546193E-3,6.6147413E0,5.49E2,2.6757809E1,-1.0372503E-1,8.260559E-2,2.3062032E-2,1.7560434E-1,7.720519E-2,-4.8409797E-2,-1.2671205E-1,3.3431936E-2],"split_indices":[11,28,44,32,0,20,16,0,0,41,0,34,44,0,9,0,0,34,22,0,0,4,29,0,27,0,0,0,0,0,0,0,0],"split_type":[0,0,0,0,0,0,0,0,0,0,0,0,0,0,0,0,0,0,0,0,0,0,0,0,0,0,0,0,0,0,0,0,0],"sum_hessian":[3.7434074E1,4.9246216E0,3.2509453E1,2.8439293E0,2.0806923E0,7.147407E0,2.5362045E1,1.6639233E0,1.180006E0,5.8231506E0,1.3242565E0,3.7965186E0,2.1565527E1,1.2588629E0,4.5642877E0,1.0653309E0,2.7311878E0,6.9964633E0,1.4569064E1,3.4623818E0,1.1019058E0,2.5666542E0,4.4298086E0,9.655998E0,4.9130664E0,1.4950283E0,1.0716261E0,1.6463915E0,2.7834172E0,5.034535E0,4.6214633E0,3.9051504E0,1.007916E0],"tree_param":{"num_deleted":"0","num_feature":"49","num_nodes":"33","size_leaf_vector":"0"}},{"base_weights":[-9.194826E-3,3.334167E-1,-3.3000056E-2,1.1328347E-2,-2.790359E-1,-1.3563539E-1,1.0571723E-1,-4.4029465E-1,5.958098E-2,3.0727865E-2,-4.0251786E-1,4.5733222E-1,-8.346137E-3,-6.043469E-1,9.293406E-3,-2.0457815E-1,2.6756144E-1,-5.578982E-1,2.8795507E-2,6.0977226E-1,-4.524043E-2,-3.3945373E-1,1.3996345E-1,1.1077546E-1,-5.212822E-1,-1.2143993E-1,4.0494028E-1,-1.8158919E-1,-6.528599E-1,5.0265882E-2,-4.567262E-1,-3.0771413E-1,2.7176073E-1],"categories":[],"categories_nodes":[],"categories_segments":[],"categories_sizes":[],"default_left":[1,0,1,1,1,1,1,1,0,1,1,1,1,0,0,1,1,1,0,0,0,1,1,0,0,0,0,0,0,0,0,0,0],"id":36,"left_children":[1,-1,3,5,7,9,11,13,-1,15,17,19,21,-1,-1,23,25,27,-1,-1,-1,29,31,-1,-1,-1,-1,-1,-1,-1,-1,-1,-1],"loss_changes":[3.1269148E-1,0E0,3.903026E-1,4.4489965E-1,3.24274E-1,5.7076776E-1,7.8436625E-1,2.8710896E-1,0E0,5.3826016E-1,3.4447104E-1,3.9417112E-1,8.1735384E-1,0E0,0E0,5.490191E-1,3.034181E-1,1.1936665E-2,0E0,0E0,0E0,2.5795054E-1,7.642402E-1,0E0,0E0,0E0,0E0,0E0,0E0,0E0,0E0,0E0,0E0],"parents":[2147483647,0,0,2,2,3,3,4,4,5,5,6,6,7,7,9,9,10,10,11,11,12,12,15,15,16,16,17,17,21,21,22,22],"right_children":[2,-1,4,6,8,10,12,14,-1,16,18,20,22,-1,-1,24,26,28,-1,-1,-1,30,32,-1,-1,-1,-1,-1,-1,-1,-1,-1,-1],"split_conditions":[-1.8479908E0,1.0002501E-1,5.5247676E3,1.2312898E1,1.1244223E2,3.732593E-1,1.1837571E2,4.8338193E-1,1.7874295E-2,5.6546414E-1,7.445E2,6.145773E0,1.2876921E1,-1.8130407E-1,2.788022E-3,1.8127857E-1,3.06E2,4E2,8.638652E-3,1.8293169E-1,-1.3572129E-2,5.015648E0,-2.6222194E-2,3.323264E-2,-1.5638466E-1,-3.643198E-2,1.2148209E-1,-5.4476757E-2,-1.9585799E-1,1.5079766E-2,-1.3701786E-1,-9.231424E-2,8.1528224E-2],"split_indices":[13,0,33,33,1,31,33,13,0,20,0,11,31,0,0,4,0,0,0,0,0,46,48,0,0,0,0,0,0,0,0,0,0],"split_type":[0,0,0,0,0,0,0,0,0,0,0,0,0,0,0,0,0,0,0,0,0,0,0,0,0,0,0,0,0,0,0,0,0],"sum_hessian":[3.5990032E1,1.4932164E0,3.4496815E1,3.0038687E1,4.458129E0,1.1576719E1,1.8461967E1,2.8165402E0,1.6415887E0,7.676424E0,3.9002945E0,3.7849412E0,1.4677026E1,1.8113611E0,1.0051793E0,3.9189477E0,3.7574763E0,2.6515784E0,1.2487161E0,2.7404177E0,1.0445235E0,4.1416945E0,1.0535332E1,2.289467E0,1.6294807E0,1.010936E0,2.7465403E0,1.1211164E0,1.5304621E0,1.0901814E0,3.0515132E0,2.0926037E0,8.442728E0],"tree_param":{"num_deleted":"0","num_feature":"49","num_nodes":"33","size_leaf_vector":"0"}},{"base_weights":[-1.5882397E-2,1.8089017E-1,-5.1942714E-2,-4.3323442E-2,4.8324272E-1,-1.703164E-2,-4.4700566E-1,2.736559E-1,-3.6355287E-1,4.0439272E-1,-5.1839832E-2,-3.129257E-1,1.7292744E-2,-4.7157365E-1,-3.9166335E-2,9.2703804E-2,-2.6617035E-1,1.8764286E-1,-2.7059266E-1,-1.4636476E-1,1.911421E-1,7.342753E-2,-4.5980662E-1],"categories":[],"categories_nodes":[],"categories_segments":[],"categories_sizes":[],"default_left":[1,1,1,1,0,1,0,0,0,0,1,1,1,0,1,1,1,0,0,0,0,0,0],"id":37,"left_children":[1,3,5,7,-1,9,-1,-1,-1,-1,11,13,15,-1,17,19,21,-1,-1,-1,-1,-1,-1],"loss_changes":[2.616836E-1,4.0936354E-1,4.175325E-1,5.2659774E-1,0E0,4.5167786E-1,0E0,0E0,0E0,0E0,5.1094925E-1,2.3847151E-1,5.183024E-1,0E0,2.2195067E-1,4.7467917E-1,3.698384E-1,0E0,0E0,0E0,0E0,0E0,0E0],"parents":[2147483647,0,0,1,1,2,2,3,3,5,5,10,10,11,11,12,12,14,14,15,15,16,16],"right_children":[2,4,6,8,-1,10,-1,-1,-1,-1,12,14,16,-1,18,20,22,-1,-1,-1,-1,-1,-1],"split_conditions":[-7.976197E-1,9.088966E0,7.3336005E-1,1.8033779E0,1.4497282E-1,1.675E2,-1.341017E-1,8.209677E-2,-1.0906587E-1,1.2131782E-1,3.3091147E0,5.249828E-1,3.578072E-3,-1.414721E-1,3.6221528E-1,2.004785E0,1.1950066E0,5.6292858E-2,-8.11778E-2,-4.390943E-2,5.734263E-2,2.202826E-2,-1.3794199E-1],"split_indices":[42,29,41,10,0,0,0,0,0,0,28,18,7,0,43,27,40,0,0,0,0,0,0],"split_type":[0,0,0,0,0,0,0,0,0,0,0,0,0,0,0,0,0,0,0,0,0,0,0],"sum_hessian":[3.455511E1,4.7297373E0,2.9825373E1,3.207721E0,1.5220163E0,2.8362165E1,1.4632074E0,1.6851308E0,1.52259E0,1.3538078E0,2.7008358E1,4.9160314E0,2.2092327E1,2.6548936E0,2.261138E0,1.7981564E1,4.1107626E0,1.2375084E0,1.0236295E0,5.1025567E0,1.2879007E1,1.7181973E0,2.3925653E0],"tree_param":{"num_deleted":"0","num_feature":"49","num_nodes":"23","size_leaf_vector":"0"}},{"base_weights":[-1.6579425E-2,9.597182E-3,-2.8595185E-1,-5.052474E-2,2.6653364E-1,-3.8253504E-1,-5.6677382E-2,8.870992E-3,-3.8956946E-1,-5.093946E-3,4.9394798E-1,-4.3009985E-2,5.7080644E-1,9.870714E-2,-5.840962E-1,-2.9654866E-1,2.7072847E-1,1.1611487E-1,6.031255E-1,1.4837793E-1,-1.549212E-1,3.3054397E-1,-8.963974E-2,-3.933516E-1,2.3021933E-2],"categories":[],"categories_nodes":[],"categories_segments":[],"categories_sizes":[],"default_left":[1,1,1,1,1,0,0,1,1,1,1,1,0,0,0,0,0,0,0,1,1,0,0,0,0],"id":38,"left_children":[1,3,5,7,9,-1,-1,11,13,15,17,19,-1,-1,-1,-1,-1,-1,-1,21,23,-1,-1,-1,-1],"loss_changes":[2.4672303E-1,5.1556796E-1,4.6899945E-2,5.508188E-1,3.930907E-1,0E0,0E0,7.273522E-1,4.4462693E-1,3.9148274E-1,7.2354615E-2,5.155922E-1,0E0,0E0,0E0,0E0,0E0,0E0,0E0,4.1972804E-1,6.4555144E-1,0E0,0E0,0E0,0E0],"parents":[2147483647,0,0,1,1,2,2,3,3,4,4,7,7,8,8,9,9,10,10,11,11,19,19,20,20],"right_children":[2,4,6,8,10,-1,-1,12,14,16,18,20,